500 100
侯亮平 0.12468617 -0.010108365 -0.15137978 -0.3820809 0.032201644 -0.062023573 0.11478406 -0.00597902 0.006548099 0.088198304 -0.0209236 0.07554372 0.055918157 0.10252664 -0.23931518 0.017242502 -0.072260745 -0.33210218 0.11166596 0.040790908 -0.21327916 0.010609748 0.044763334 0.07739142 0.08644734 0.26640114 0.20552218 0.16648702 0.016722083 -0.056306925 0.08875906 0.003567759 -0.2804161 0.10536092 0.09344015 0.10465047 0.08661534 -0.08708295 -0.056305546 0.22089759 0.03662235 -0.008163356 0.017510606 -0.06149687 0.037275307 0.1778279 -0.051749405 -0.2063381 0.03477144 0.17911215 0.24255349 -0.10745285 0.10493985 -0.10273022 0.061165325 0.07763897 0.14480887 -0.15588808 -0.21270153 -0.11360585 0.015103093 0.058893133 0.006446312 0.14059551 0.19855955 -0.065333255 -0.018970303 0.023431694 -0.134902 -0.0056307283 -0.0070312056 -0.051973175 -0.095879495 -0.017577063 -0.042936444 -0.19856563 -0.08112485 0.18869093 0.13778883 -0.15214463 0.093500935 0.20417394 0.10185366 -0.074150756 0.02951894 0.24279873 0.19765736 -0.11400432 -0.12936744 -0.051524192 -0.022311535 -0.21232593 0.21514887 -0.042602986 -0.052015923 0.2018259 -0.05046222 0.19176997 -0.2317901 -0.20651847
李达康 0.09267916 -0.0037035076 -0.115589745 -0.28485003 0.026272845 -0.039351277 0.07971438 -0.0053120987 0.005892125 0.06314359 -0.011572061 0.058692474 0.036641195 0.08001673 -0.18015993 0.0083947135 -0.04890334 -0.24232428 0.080424376 0.026858872 -0.15345953 0.012458127 0.03590442 0.054627713 0.05871228 0.19651407 0.15387776 0.1296094 0.01374204 -0.04543497 0.066926666 0.0024217034 -0.202831 0.07543772 0.064719744 0.07731984 0.06551222 -0.059002407 -0.040440187 0.16170081 0.03228375 -0.0035724202 0.018640906 -0.040575814 0.025778268 0.12382716 -0.03732356 -0.15173751 0.023095425 0.13944325 0.17715865 -0.08504766 0.0747239 -0.07938884 0.042464882 0.0576002 0.10583501 -0.1122574 -0.15214682 -0.0867766 0.01575074 0.045789875 -0.0025227927 0.10189516 0.1442874 -0.05236089 -0.015249358 0.009180368 -0.09111663 -0.010981903 -0.00014908794 -0.03490405 -0.07008919 -0.0148240905 -0.031936575 -0.1475374 -0.05283212 0.14402513 0.09880707 -0.10597191 0.07526708 0.15121825 0.07278522 -0.05546527 0.02181052 0.17548601 0.14150304 -0.07734792 -0.09211185 -0.039068796 -0.01764635 -0.16162464 0.15850258 -0.037357304 -0.038289506 0.14895828 -0.03650199 0.1403853 -0.16971104 -0.15378107
高育良 0.07900715 -0.0048181536 -0.10223524 -0.25517163 0.02205732 -0.041806728 0.07211424 -0.003744658 -0.0012113845 0.057172768 -0.010295434 0.04949364 0.0330528 0.067925476 -0.16104153 0.0052962457 -0.049780186 -0.2171734 0.07573002 0.023078192 -0.13882262 0.013418418 0.026679585 0.04955348 0.05767937 0.17457217 0.13410202 0.11026919 0.01275058 -0.038478736 0.06312115 0.0070494125 -0.18625359 0.07582647 0.060879827 0.07081935 0.0586706 -0.061416 -0.03867387 0.14870521 0.023777464 -0.0065485397 0.017954884 -0.03632431 0.026732786 0.112282276 -0.04106389 -0.14123836 0.016877092 0.1197534 0.15688293 -0.0771652 0.065669 -0.073076226 0.04281576 0.0546912 0.10026433 -0.1041791 -0.1356215 -0.07449822 0.008440386 0.040584058 0.005967885 0.095281504 0.13328038 -0.04560454 -0.013801274 0.015185983 -0.085888565 -0.002477273 0.00040502797 -0.0336921 -0.06229694 -0.008100254 -0.02675612 -0.12599324 -0.051337395 0.120497935 0.09425707 -0.10005717 0.063998766 0.13748641 0.07263216 -0.043865263 0.012535441 0.15841004 0.124547265 -0.07529588 -0.08666039 -0.041278306 -0.01887987 -0.13872106 0.14373508 -0.033253577 -0.036211558 0.12783158 -0.038292337 0.12312874 -0.15666689 -0.13596806
祁同伟 0.08148446 -0.00071138336 -0.10331709 -0.26637584 0.017773423 -0.041244153 0.073478654 -0.008738034 -0.0032004644 0.06349859 -0.008872344 0.05293651 0.03433593 0.074013375 -0.16555616 0.0105920015 -0.04882617 -0.23044041 0.07922269 0.021694701 -0.14378709 0.010485736 0.033214577 0.04905651 0.06536119 0.18503061 0.14579958 0.1146035 0.011379729 -0.03638705 0.060477525 -0.0021959525 -0.18980817 0.07648842 0.06059767 0.07124724 0.058434602 -0.057015136 -0.03984976 0.15165955 0.029531632 -0.0045932573 0.01876643 -0.041249495 0.028227324 0.12050628 -0.038619976 -0.14917997 0.023946268 0.12916908 0.16944203 -0.07415836 0.06479892 -0.069051035 0.04202516 0.051800992 0.104211465 -0.10712222 -0.1403239 -0.083403796 0.01085872 0.037306264 0.005942708 0.09613196 0.13518202 -0.050845344 -0.017305527 0.010482067 -0.08678959 -0.004647795 -0.004368862 -0.035750255 -0.06520882 -0.014271725 -0.02930217 -0.13805957 -0.051551532 0.13531268 0.0961538 -0.10493115 0.07170397 0.14061718 0.071738794 -0.053492974 0.020987606 0.16637805 0.13744469 -0.07464053 -0.085485086 -0.039678782 -0.017769128 -0.14564039 0.14440365 -0.027653594 -0.033680078 0.13290508 -0.03400407 0.13587861 -0.16029169 -0.1359698
蔡成功 0.085483074 -0.0060916543 -0.10408045 -0.25932762 0.017616715 -0.044981632 0.07629803 0.0016720977 0.005763751 0.05225684 -0.012521625 0.049726628 0.032815713 0.066747025 -0.16151223 0.012020101 -0.041558746 -0.22715709 0.074983865 0.022519408 -0.14578235 0.014838394 0.029077074 0.0483797 0.061289977 0.1829334 0.14151415 0.110397205 0.016465541 -0.03628318 0.06521632 0.0062450403 -0.19215891 0.07299636 0.065232545 0.07004857 0.052223977 -0.0537978 -0.043470617 0.1492867 0.02218758 -0.0043945573 0.018771112 -0.035692167 0.027463766 0.117202796 -0.03894153 -0.14662412 0.025120974 0.12170421 0.16225024 -0.07037841 0.0719454 -0.068263814 0.038612165 0.05021567 0.094149746 -0.099607565 -0.14435627 -0.08268146 0.012888913 0.035677753 -0.0019784484 0.0979448 0.1255265 -0.04145579 -0.010310261 0.014197953 -0.08986965 -0.004500255 -0.00039504457 -0.034948908 -0.056959428 -0.00568996 -0.027204473 -0.13357045 -0.053790774 0.12776111 0.0895523 -0.10052127 0.06257793 0.13436882 0.06961142 -0.052148826 0.011690256 0.16244933 0.1278918 -0.06947168 -0.08883258 -0.039576683 -0.015537174 -0.14551207 0.14115533 -0.03409461 -0.030991167 0.13766602 -0.035977457 0.13163714 -0.1570995 -0.14074509
沙瑞金 0.073492795 -0.006738081 -0.09006147 -0.2277789 0.014112195 -0.037106894 0.06520457 -0.0072678365 0.0032845442 0.052672632 -0.007966025 0.044321645 0.028724872 0.05679148 -0.14391102 0.0070417663 -0.04484838 -0.19578674 0.066033736 0.021469872 -0.12742335 0.011926185 0.02803836 0.04673261 0.053849697 0.15376858 0.11848979 0.10139959 0.015121842 -0.038613997 0.048644457 0.004512452 -0.16685084 0.060680926 0.05136825 0.063608125 0.051155943 -0.050275296 -0.03461621 0.12938227 0.02646166 -0.008763013 0.008331133 -0.03851851 0.026938302 0.103977166 -0.035627108 -0.12448275 0.01843119 0.107959434 0.14127974 -0.06256607 0.057522424 -0.056230795 0.036316533 0.04764734 0.08766881 -0.08562429 -0.12215275 -0.07137317 0.013721106 0.036312345 -0.002570946 0.08012063 0.114341475 -0.04232755 -0.012273563 0.016206484 -0.0753586 -0.00077974243 -0.0030768118 -0.028039156 -0.051345658 -0.007556728 -0.02362222 -0.1177496 -0.046770707 0.11433191 0.083365515 -0.08365219 0.05870928 0.11789237 0.05760169 -0.04532045 0.013368551 0.1385468 0.11338823 -0.063835725 -0.07898268 -0.03480986 -0.013173451 -0.12324189 0.13057059 -0.029309375 -0.029177113 0.118755236 -0.034952126 0.111318424 -0.14121765 -0.12284504
高小琴 0.0714626 -0.0034108027 -0.09703008 -0.23569773 0.015964942 -0.036568508 0.06988246 -0.005295367 -0.0013536399 0.049092636 -0.011444804 0.05025214 0.029460235 0.06783935 -0.14425361 0.0056468355 -0.037389576 -0.20263594 0.06725748 0.026827715 -0.13146669 0.0070405044 0.022906411 0.045431856 0.05214095 0.15916237 0.12959255 0.101785675 0.013797734 -0.035373952 0.052078202 0.0008293985 -0.17074093 0.062724 0.055960644 0.0619016 0.047388464 -0.048910905 -0.0352244 0.13828336 0.022418236 -0.0010064462 0.014534184 -0.031689096 0.022574298 0.109141976 -0.033233564 -0.1322194 0.020671783 0.11265615 0.15296705 -0.06965003 0.06064373 -0.06753314 0.03709503 0.046133768 0.08745822 -0.09316055 -0.12673694 -0.074534036 0.0075244233 0.037089802 0.0025501137 0.087699644 0.118385844 -0.04214404 -0.015724188 0.016299706 -0.080737635 -0.010372839 0.0005532113 -0.03385972 -0.053843778 -0.011236643 -0.022504477 -0.114412576 -0.04603849 0.113827914 0.08512547 -0.09001046 0.060746383 0.123329826 0.059912678 -0.040386952 0.018518634 0.14811204 0.12174156 -0.0632985 -0.073560506 -0.0334221 -0.0095128 -0.12676331 0.1314401 -0.027234465 -0.030638982 0.11816217 -0.033130288 0.117609635 -0.14412434 -0.12685429
陆亦可 0.07833705 -1.3456689e-05 -0.091397114 -0.24055162 0.024127876 -0.0336643 0.06870146 -0.007511825 0.003306451 0.05502622 -0.011002479 0.052448157 0.030177336 0.06411654 -0.14739928 0.012459894 -0.04030009 -0.21066192 0.072237745 0.02448013 -0.12624083 0.010304522 0.022566343 0.04542589 0.053926382 0.1654895 0.13301809 0.1064077 0.008057212 -0.03324736 0.060165994 -0.0025297918 -0.17456645 0.06773954 0.05542888 0.06221661 0.04815928 -0.056399222 -0.039347634 0.136503 0.022320941 -0.00034629117 0.010395994 -0.03557153 0.025394022 0.10819487 -0.029973472 -0.1270314 0.022060832 0.11420765 0.14732154 -0.07205759 0.06789042 -0.06610458 0.034476995 0.04876675 0.09341251 -0.0967864 -0.13455169 -0.07141178 0.011137278 0.03287751 0.0038084853 0.08313332 0.12506422 -0.039153155 -0.006838115 0.0072075613 -0.07796076 -0.0100293085 -0.0054285773 -0.03003153 -0.055815686 -0.011463783 -0.026174702 -0.12014832 -0.048384555 0.12273705 0.08490862 -0.09505827 0.06335931 0.1278108 0.066359274 -0.045479458 0.01658427 0.14646809 0.11686791 -0.06507687 -0.07435833 -0.033455987 -0.0148791745 -0.1381268 0.1312783 -0.032649763 -0.029662808 0.12266734 -0.03265156 0.11732372 -0.14985481 -0.1310187
 0.035661355 -0.0015703802 -0.04394507 -0.104726814 0.009153825 -0.018476844 0.033176642 0.0014624792 0.00155026 0.028614892 -0.0014517315 0.021005342 0.018875258 0.02616921 -0.06663611 -0.0008936056 -0.015814696 -0.09195856 0.028626382 0.0036954922 -0.05362346 0.0067496486 0.007593749 0.021152861 0.025587173 0.06711437 0.0550992 0.045607854 0.0018100197 -0.017110415 0.02119926 -0.0031416235 -0.06947164 0.033694487 0.024546754 0.021650339 0.021222116 -0.023897465 -0.01712862 0.05839168 0.011858651 -0.0007218807 0.005175701 -0.010876432 0.01489189 0.042708676 -0.01074736 -0.052025247 0.0080243135 0.044705946 0.06303826 -0.03233733 0.023197955 -0.029464748 0.010545193 0.025606012 0.04160032 -0.03895281 -0.059844635 -0.030425478 0.003982056 0.013418346 0.002901559 0.041846335 0.050222762 -0.016003942 0.0007676937 0.010466286 -0.039739646 -0.0066087176 -0.0051297545 -0.015165106 -0.029581428 0.0008593098 -0.006443876 -0.057070214 -0.017777067 0.05153573 0.031024612 -0.034929547 0.028818754 0.051356707 0.032429136 -0.020525118 0.011496156 0.06324553 0.05115435 -0.033486944 -0.031733945 -0.011136179 -0.01052319 -0.050903052 0.053679053 -0.007952081 -0.010976418 0.056908127 -0.011706217 0.05019601 -0.05798326 -0.048514906
赵瑞龙 0.069766305 0.0007039005 -0.09085877 -0.21649428 0.01661402 -0.038037196 0.06425602 -0.0063258046 -0.00055486406 0.05058942 -0.008445764 0.04551736 0.034735017 0.05868155 -0.13504459 0.0075595737 -0.042878468 -0.181739 0.06173929 0.020865165 -0.12243398 0.008458776 0.027653052 0.042955764 0.04834295 0.14643618 0.1158845 0.09250007 0.0122944005 -0.038182657 0.049999498 -0.0031051592 -0.16009222 0.059723128 0.05104823 0.05749743 0.044520486 -0.045337614 -0.035531778 0.12124155 0.018513858 -0.0081283385 0.009743992 -0.037032295 0.022058677 0.10278477 -0.030390393 -0.11471111 0.02048699 0.10636553 0.14090264 -0.0661189 0.051889885 -0.060792003 0.03147357 0.040299527 0.08234034 -0.08238543 -0.11312032 -0.063939415 0.014549399 0.033315297 0.0011390923 0.0771721 0.11341987 -0.039213836 -0.0047477945 0.0116183255 -0.07048977 -0.009622765 -0.004534137 -0.026484612 -0.051866103 -0.00818496 -0.025050731 -0.10634487 -0.04519781 0.10225898 0.07537915 -0.085328065 0.05062184 0.11388481 0.060486652 -0.044968575 0.010336096 0.13066046 0.10817347 -0.06170411 -0.07205094 -0.031598184 -0.009825212 -0.122982316 0.12218046 -0.025987854 -0.025296096 0.10626914 -0.032994818 0.103043765 -0.13562356 -0.118540674
丁义珍 0.06904722 0.0013213587 -0.0915627 -0.22099453 0.01428387 -0.039301604 0.068570964 0.0018672518 0.002173171 0.05092168 -0.01247755 0.044324767 0.03366832 0.05996462 -0.14311446 0.005423521 -0.041701123 -0.19386747 0.060895115 0.02678021 -0.122878216 0.010376267 0.029130267 0.047034632 0.049456574 0.1497063 0.117811695 0.10236269 0.008253271 -0.02959479 0.05574717 0.0051807775 -0.16108795 0.05971487 0.057847247 0.05641547 0.052911203 -0.051331278 -0.030402113 0.13072814 0.025087992 -0.006720298 0.013950982 -0.033040315 0.021976264 0.1023826 -0.03451881 -0.1276252 0.02076077 0.108601056 0.1367775 -0.06868091 0.055485073 -0.061610445 0.035223395 0.04889706 0.08697748 -0.08286666 -0.11886416 -0.069232985 0.013824282 0.032915566 0.00204573 0.08471125 0.113891765 -0.03494933 -0.014031011 0.011883975 -0.07862161 -0.0007185629 -0.0037294899 -0.03262706 -0.056388605 -0.008860393 -0.018749138 -0.11519268 -0.048840445 0.11118596 0.08445737 -0.08610913 0.06081348 0.11534639 0.055085894 -0.04230209 0.017317 0.13898012 0.11777972 -0.066662386 -0.0754796 -0.03222534 -0.014095617 -0.1267375 0.1218442 -0.02528876 -0.031193009 0.11652783 -0.037090488 0.113269456 -0.13135892 -0.122636765
赵东来 0.08068722 -0.0041679502 -0.09450598 -0.24143203 0.015979016 -0.042204715 0.07473847 -0.0040810485 0.004933302 0.053739853 -0.010433271 0.046906564 0.038010493 0.061147664 -0.14919473 0.013599043 -0.04120423 -0.21486077 0.07123062 0.024234725 -0.1359794 0.0063073486 0.02565958 0.04292565 0.060462758 0.17274393 0.1350359 0.105105676 0.0074355504 -0.04228692 0.054735906 0.004213246 -0.18172406 0.06570772 0.062227912 0.06796426 0.05456598 -0.05926904 -0.037074648 0.13914137 0.026125312 -0.0073234187 0.010942624 -0.033103466 0.026153468 0.11125397 -0.038728625 -0.1327176 0.015350324 0.117592804 0.15235148 -0.07316475 0.06680571 -0.06285499 0.037096176 0.05248405 0.09649648 -0.09772513 -0.13561215 -0.071176976 0.0104938485 0.036665797 0.0068166917 0.08559923 0.12788333 -0.03847068 -0.01597146 0.011832334 -0.07861497 -0.009624712 -0.0024757802 -0.029901983 -0.061176065 -0.0064383917 -0.02133545 -0.12497319 -0.046297543 0.12328053 0.09135076 -0.0990465 0.05896093 0.1304307 0.060582127 -0.0468481 0.013153204 0.15688913 0.12622157 -0.066135205 -0.083275884 -0.035549346 -0.016391233 -0.1358111 0.13593474 -0.029079165 -0.037954126 0.12675823 -0.039660975 0.12730287 -0.15098082 -0.12556572
陈岩石 0.055173248 -0.0050154678 -0.062300615 -0.1710326 0.016590824 -0.02360183 0.05321372 -0.002973128 -0.0024464903 0.04178798 -0.0039741523 0.029910866 0.026019795 0.04374984 -0.10876472 0.008443242 -0.029293299 -0.14763333 0.04688142 0.014620712 -0.09261827 0.009055366 0.022307632 0.033515755 0.03962017 0.11604686 0.09557109 0.07758201 0.004425155 -0.023087572 0.03536074 0.006372035 -0.12196584 0.04842374 0.041170288 0.043747075 0.03326353 -0.040734284 -0.023615042 0.09966768 0.012456242 -0.0024491404 0.008640406 -0.028151825 0.020103797 0.07309049 -0.024051594 -0.090798676 0.015229986 0.084619716 0.110388994 -0.04609584 0.04732154 -0.050799232 0.029666936 0.037244875 0.06368143 -0.064651266 -0.0922791 -0.053165317 0.0032835254 0.024569714 0.005373917 0.05859531 0.08418079 -0.029915063 -0.009673694 0.010929426 -0.056132 -0.0034294173 -0.004100316 -0.018711241 -0.03561217 -0.008207187 -0.020765137 -0.08622566 -0.037482332 0.08487289 0.05560226 -0.06710283 0.03838884 0.08531078 0.046930622 -0.031768378 0.010459972 0.10864782 0.085739225 -0.048220567 -0.058483575 -0.027808767 -0.012526422 -0.099576145 0.09741941 -0.024574528 -0.025179226 0.08829023 -0.028158711 0.0855705 -0.1059356 -0.09294648
陈海 0.06324338 -0.004544217 -0.082375325 -0.20075843 0.015316137 -0.02850186 0.05973826 0.0015265553 -0.004111249 0.04661748 -0.007780063 0.03776153 0.032632552 0.05320625 -0.12278334 0.011358732 -0.040061973 -0.17910981 0.055820547 0.018386783 -0.107436344 0.012971782 0.028490854 0.038364045 0.04979719 0.14276622 0.11100553 0.09398922 0.00798045 -0.032730427 0.045690402 0.0036732773 -0.14940318 0.057970952 0.04732746 0.049866546 0.046480726 -0.042089168 -0.029385496 0.12097761 0.01540566 -0.0008025662 0.015843427 -0.02989181 0.020691272 0.09365494 -0.024300225 -0.11256429 0.016430639 0.09763077 0.12740573 -0.058702797 0.048407312 -0.059020396 0.029185738 0.03803176 0.08091094 -0.0764239 -0.10749342 -0.065714724 0.012133941 0.025489593 -0.0010769571 0.074895754 0.097574845 -0.034372624 -0.010677134 0.008735887 -0.07216797 -0.0043701716 -0.00047335454 -0.030417226 -0.05279166 -0.011147228 -0.022550544 -0.097203664 -0.045697913 0.104365736 0.06900545 -0.0735043 0.056335166 0.11042721 0.049558204 -0.038754206 0.018692281 0.12286525 0.101933524 -0.058881912 -0.06193796 -0.02482586 -0.008806337 -0.11594624 0.11137304 -0.023150556 -0.030895269 0.10767106 -0.032560043 0.10397832 -0.12348594 -0.10406525
郑西坡 0.0625693 -0.00024595688 -0.081023484 -0.18907635 0.01994181 -0.02693973 0.051017925 -0.002066058 0.0059560123 0.037214432 -0.010683657 0.041476104 0.030439546 0.048282154 -0.11973477 0.011705884 -0.03094828 -0.16729006 0.056587912 0.014806745 -0.10924019 0.0069238874 0.025884774 0.04243958 0.040995546 0.13713486 0.106299676 0.09098136 0.00586956 -0.033659205 0.045699406 0.000987381 -0.14227049 0.050061915 0.046617944 0.0526532 0.042718776 -0.042268675 -0.028166173 0.11599444 0.015084082 -0.0011292911 0.016660849 -0.031940937 0.02104175 0.08798938 -0.022823138 -0.109507285 0.016681155 0.08800988 0.12602775 -0.060319558 0.04728688 -0.05006816 0.0333338 0.04443075 0.073737144 -0.07884185 -0.109914005 -0.054490253 0.008569729 0.030164424 0.000512913 0.07340175 0.096581094 -0.037014335 -0.013150913 0.006529552 -0.06938913 -0.0014520037 -0.0005302379 -0.023921706 -0.048934657 -0.0040554404 -0.018294793 -0.09500746 -0.039002497 0.100269355 0.06720411 -0.07892495 0.049288943 0.10128019 0.050251987 -0.036876835 0.009535523 0.12282837 0.09648566 -0.05539755 -0.06450046 -0.02851205 -0.006753727 -0.113912255 0.11218146 -0.022802036 -0.031838365 0.101517655 -0.029803198 0.09442308 -0.121219784 -0.105705746
欧阳菁 0.06096535 -0.005626547 -0.075487606 -0.19795923 0.012286762 -0.02679666 0.056227844 -0.0033283539 -0.002356465 0.039913323 -0.0036486362 0.03644563 0.022503592 0.049875688 -0.12505814 0.0040716887 -0.03076167 -0.17359634 0.056870013 0.021518728 -0.10634559 0.010323888 0.022296002 0.038846593 0.04291668 0.13924488 0.103041746 0.08803005 0.005844633 -0.026399374 0.04457322 -0.00012883 -0.13912535 0.053728834 0.0468607 0.05175376 0.039643966 -0.04640834 -0.031183975 0.11291689 0.021991085 -0.009481622 0.016031587 -0.032920595 0.025058175 0.09145303 -0.031174643 -0.11070141 0.017727062 0.09636113 0.12854965 -0.06036435 0.054723848 -0.047805984 0.033405837 0.039908618 0.07472008 -0.07808541 -0.11028487 -0.059089057 0.011671702 0.029035252 0.004841528 0.072170794 0.10034163 -0.034184426 -0.005289631 0.014406698 -0.06225131 -0.0046249265 0.0010425514 -0.027952194 -0.043019824 -0.011116138 -0.018583683 -0.10116229 -0.03531663 0.09577162 0.071793646 -0.07835156 0.0541664 0.10485799 0.051777802 -0.033679165 0.014696581 0.123585984 0.098612085 -0.051436514 -0.06135917 -0.02604391 -0.010518298 -0.10866675 0.10947742 -0.026488729 -0.027455067 0.10366166 -0.027188657 0.09806902 -0.12278909 -0.10808136
找 0.06926287 -0.007604809 -0.08319414 -0.20489241 0.01506565 -0.03149404 0.057511706 0.0008218034 0.00071502355 0.041934513 -0.012268985 0.036635306 0.030304119 0.05503013 -0.12856683 0.0069951722 -0.03811566 -0.17732503 0.05858433 0.022348743 -0.10931305 0.004369301 0.024755603 0.03865913 0.05036433 0.13536473 0.10676645 0.091993764 0.0054326304 -0.033608034 0.047887444 0.001329436 -0.14556086 0.05817072 0.04918843 0.054263636 0.04551659 -0.04250182 -0.030044392 0.11836914 0.01724107 -0.004959153 0.011231461 -0.030706655 0.025249384 0.0960774 -0.030993903 -0.1119287 0.016944867 0.09944238 0.12417085 -0.05449364 0.051273134 -0.05758699 0.027498296 0.04481953 0.07732962 -0.07524548 -0.10626229 -0.06450106 0.008874769 0.024886658 -0.0029844763 0.07760258 0.10752128 -0.034779314 -0.004925173 0.013650288 -0.072374135 -0.0016506835 -0.007498694 -0.021901596 -0.04429034 -0.0062659974 -0.021446014 -0.10038334 -0.041489184 0.09992607 0.07765866 -0.08194045 0.05017364 0.11040627 0.05485014 -0.039365895 0.01350631 0.12369901 0.10537541 -0.06373973 -0.06835713 -0.033829313 -0.01230684 -0.1154901 0.110594936 -0.02605008 -0.029403897 0.10716152 -0.026171446 0.101042636 -0.123652905 -0.10683572
刘新建 0.08223137 0.0011105464 -0.093847826 -0.2395784 0.024119955 -0.03275121 0.071785174 -0.009043545 0.005929279 0.05348307 -0.011115121 0.04822584 0.029255465 0.06493108 -0.14706184 0.011802136 -0.048359156 -0.21057326 0.06721173 0.024369014 -0.12985487 0.0065530385 0.024561135 0.051313613 0.056083024 0.16893302 0.13092564 0.10774294 0.015837038 -0.041839562 0.052733723 -0.001250038 -0.1786215 0.06652459 0.05885356 0.062883325 0.053105325 -0.057469737 -0.033392698 0.14397313 0.02159446 -0.0014377545 0.015118695 -0.0384274 0.02390893 0.11029219 -0.03266699 -0.12813984 0.022047797 0.114357606 0.1491861 -0.074234426 0.06529017 -0.061531417 0.035850167 0.051784925 0.096288815 -0.09717315 -0.13559085 -0.069126494 0.010333957 0.036775034 -0.00023692024 0.09102073 0.12362539 -0.039669804 -0.015545254 0.011114196 -0.08481527 -0.0024085825 -0.0035653606 -0.027745282 -0.06222911 -0.013603836 -0.025614824 -0.1263307 -0.052359454 0.117157415 0.08642981 -0.09273055 0.06543554 0.12852806 0.064746894 -0.044565782 0.019138774 0.15483022 0.120614916 -0.06863654 -0.082270324 -0.037659183 -0.019163946 -0.13162294 0.13658495 -0.028635593 -0.029168975 0.1270808 -0.033741195 0.11624664 -0.1418686 -0.1325055
季昌明 0.05720683 0.0003998514 -0.060685184 -0.16530888 0.015766846 -0.022102801 0.049240153 0.0007327938 0.002311197 0.039923336 -0.011174126 0.030774474 0.02128316 0.040096022 -0.10300051 0.0050285836 -0.03153864 -0.14449272 0.048165314 0.020603376 -0.09044159 0.010073072 0.019309964 0.035636876 0.038504787 0.11027601 0.08878726 0.0751564 0.0046579367 -0.029983986 0.03528805 0.0010603527 -0.11857904 0.050542455 0.043773383 0.048149113 0.033778135 -0.039938115 -0.02182229 0.09603025 0.018801076 -0.00051023084 0.013150867 -0.028724344 0.021315884 0.073212124 -0.023874417 -0.08521046 0.012270757 0.07544606 0.10723737 -0.04475355 0.04381287 -0.040909506 0.022912065 0.03227403 0.062519886 -0.05946752 -0.08589881 -0.0511468 0.0055132955 0.019794457 0.002337263 0.06391783 0.08148318 -0.031454112 -0.003434509 0.007328012 -0.05852488 -0.0039581265 -0.0058325888 -0.017732868 -0.0424798 -0.003187719 -0.020261878 -0.08679102 -0.03215797 0.07936161 0.05904748 -0.061161254 0.042074185 0.08650556 0.04403332 -0.03093826 0.011213324 0.10342313 0.08414493 -0.045922097 -0.052360866 -0.026228523 -0.010579474 -0.09165051 0.092110716 -0.02412093 -0.027105141 0.08966287 -0.025116267 0.08405468 -0.10080412 -0.08943414
说 0.060076464 -0.002092852 -0.07130255 -0.1769803 0.018206969 -0.027815972 0.055148482 -0.0037926678 0.0052786143 0.042213082 -0.006858083 0.033774577 0.022258032 0.050854668 -0.10885972 0.0039044756 -0.03175495 -0.1565506 0.05492504 0.018113464 -0.098169975 0.007075014 0.016259758 0.034785748 0.039873306 0.1232606 0.09478413 0.07641526 0.01126609 -0.02569805 0.037491824 -0.003236098 -0.1300828 0.052632596 0.04811571 0.052825406 0.036713265 -0.036290865 -0.021718567 0.10831843 0.019174883 -0.008934317 0.012581586 -0.027157497 0.021665106 0.08481054 -0.026466161 -0.0942805 0.015439654 0.08888787 0.109150365 -0.048633773 0.043052178 -0.051423375 0.025839642 0.038364153 0.06758781 -0.0678373 -0.099670686 -0.050432242 0.0034866936 0.027023198 -0.0027203888 0.064035356 0.09293954 -0.031614233 -0.01355988 0.006147198 -0.06166299 -0.00092406326 -0.0014670859 -0.018754965 -0.045272786 -0.0065876497 -0.015672619 -0.08672504 -0.03905673 0.08956831 0.06708692 -0.06401428 0.045265336 0.09808144 0.05008671 -0.029907694 0.014584668 0.115344815 0.09318139 -0.04792209 -0.056367684 -0.023017522 -0.00988631 -0.09976221 0.10192951 -0.017262615 -0.020577919 0.09175686 -0.029665394 0.08724382 -0.10625187 -0.09667171
想 0.062927544 -0.0053033167 -0.071582995 -0.19035175 0.016279256 -0.030643525 0.055547267 -0.0044792765 -0.0007054475 0.0370443 -0.013632012 0.03736822 0.025697367 0.05360508 -0.118288286 0.0036817458 -0.038574476 -0.16890743 0.057898894 0.019697124 -0.105297394 0.0072116693 0.026941232 0.03491834 0.044895634 0.12834167 0.102265745 0.08260248 0.008701875 -0.025673635 0.048485886 0.003925819 -0.13519885 0.056898072 0.046540678 0.049559932 0.043249626 -0.04141723 -0.031794768 0.11142936 0.021459086 -0.0035573032 0.012695873 -0.024485307 0.015657907 0.090447925 -0.023123836 -0.10227038 0.018328859 0.09531685 0.12211785 -0.053911436 0.054625805 -0.05285905 0.03323288 0.039500877 0.068881296 -0.07475325 -0.099946335 -0.05401881 0.013882133 0.026402285 0.00651115 0.06578248 0.09284999 -0.031999692 -0.012186598 0.007117913 -0.06811705 -0.008352276 0.0008520442 -0.021317285 -0.047349785 -0.004859714 -0.019987142 -0.099636234 -0.038948268 0.08959732 0.06286984 -0.070761494 0.044865772 0.09845661 0.04646209 -0.038186155 0.015991626 0.11698323 0.09533181 -0.053989653 -0.060298447 -0.023424147 -0.0064856303 -0.11173376 0.10483024 -0.018326178 -0.030858645 0.09963697 -0.025861394 0.09888688 -0.12039557 -0.10569992
郑乾 0.0619604 -0.00503782 -0.078190684 -0.19484758 0.01886282 -0.027319578 0.05653066 -0.005335298 0.0027796205 0.04363834 -0.010440624 0.034621578 0.027668437 0.047836106 -0.12508108 0.012134142 -0.03911232 -0.1687337 0.055001605 0.017907592 -0.10985988 0.012855275 0.025638487 0.033202153 0.04878138 0.1305623 0.10630963 0.087700404 0.004018799 -0.032769956 0.0506271 0.0009892103 -0.13966714 0.059421208 0.04301277 0.047963563 0.043280885 -0.04481417 -0.024755128 0.11537524 0.013796305 -0.003986859 0.013549911 -0.025047524 0.01719095 0.08668319 -0.02762027 -0.10677006 0.013119956 0.089177996 0.12285405 -0.05702666 0.05006625 -0.056812834 0.034469325 0.04281638 0.07261804 -0.07654229 -0.10894757 -0.06151074 0.008826011 0.026355768 0.006237315 0.073317334 0.10245256 -0.03321679 -0.011305 0.0075691547 -0.06513197 -0.0071576852 -0.004514783 -0.024506664 -0.04369869 -0.0054899654 -0.024303395 -0.09510029 -0.038126633 0.09751434 0.0646066 -0.077858165 0.05437586 0.10692597 0.05564863 -0.042209104 0.015141842 0.12205882 0.103956655 -0.05177881 -0.0623711 -0.02691209 -0.013918098 -0.110293224 0.10952611 -0.0184917 -0.02791096 0.10104852 -0.02363075 0.09629335 -0.11640423 -0.10120454
大风厂 0.052087255 -0.002288313 -0.067755625 -0.17217147 0.017427921 -0.02402409 0.054027487 -0.0010853369 0.0017963008 0.036827795 -0.010762637 0.03637448 0.026089422 0.0483162 -0.11017225 0.0023226505 -0.03254886 -0.14876106 0.0476213 0.01603345 -0.088181056 0.008198808 0.020417565 0.030185703 0.040248957 0.12005345 0.09253419 0.071433134 0.0068172486 -0.026546923 0.04105889 -0.0025278744 -0.124925576 0.050486125 0.04532228 0.05036485 0.035596475 -0.04329918 -0.027764969 0.09538897 0.018425683 -0.00017895357 0.0056857155 -0.026540073 0.013304847 0.07830774 -0.0207019 -0.094330594 0.014368412 0.08234808 0.111770846 -0.048017062 0.046258084 -0.046275295 0.020742083 0.03590892 0.06794062 -0.06677459 -0.09218097 -0.05441546 0.011520433 0.026335567 0.004032838 0.06090098 0.08525141 -0.03184023 -0.0051213144 0.0068430775 -0.06119044 -0.008952561 -0.0032418207 -0.020974716 -0.037873678 -0.0064665717 -0.017472114 -0.089921005 -0.03929807 0.08281144 0.060842596 -0.0667112 0.047607005 0.09352944 0.04424982 -0.034440704 0.0058575775 0.107192226 0.08773146 -0.050245278 -0.058884025 -0.019564332 -0.014498644 -0.09759813 0.09941091 -0.022016492 -0.027685933 0.085097075 -0.02750517 0.082397744 -0.09935972 -0.08805812
做 0.05928125 -0.00062743394 -0.07802454 -0.18694004 0.019061763 -0.028943311 0.058319885 -0.004251674 0.005839666 0.03724344 -0.011852608 0.039339073 0.025082894 0.052621465 -0.119237944 0.010029899 -0.029095294 -0.16177955 0.049692154 0.022915546 -0.105963655 0.009186076 0.02655407 0.037281286 0.038438246 0.12857711 0.103007525 0.085590325 0.013141849 -0.032197036 0.044911288 -0.002382557 -0.13869739 0.05627852 0.045589432 0.051413164 0.042725466 -0.046390392 -0.027530327 0.11115971 0.01605333 -0.0015476658 0.013126252 -0.03297676 0.018344391 0.08472105 -0.02327131 -0.1047374 0.018721951 0.089648336 0.116738826 -0.05347948 0.053408865 -0.051462416 0.027671484 0.042872787 0.0660962 -0.078079864 -0.098911315 -0.05790513 0.011773039 0.030178696 -0.002945203 0.064184494 0.09865881 -0.03644613 -0.0043270974 0.010465416 -0.061620403 -0.0008910253 -0.006091244 -0.024266012 -0.042072542 -0.011172054 -0.014708934 -0.0953113 -0.036527865 0.087798975 0.066238575 -0.06920546 0.046813652 0.10249147 0.053388473 -0.03602107 0.009370521 0.121385224 0.09354182 -0.056268033 -0.057183366 -0.030951379 -0.012810569 -0.10613435 0.1079875 -0.027034571 -0.027084338 0.0986631 -0.031733774 0.09326907 -0.11431675 -0.0938798
易学习 0.06507228 -0.0020069568 -0.08043305 -0.18586838 0.01719957 -0.030678129 0.053528547 -0.0062141903 0.0006055612 0.038735665 -0.0055666068 0.03937245 0.023687763 0.055599686 -0.12113689 0.008216991 -0.037799966 -0.16856408 0.055517226 0.023347313 -0.099719875 0.0074350946 0.016801132 0.040952895 0.04301831 0.12838648 0.10385204 0.08864555 0.012578805 -0.029115338 0.04866991 0.0012585465 -0.13803191 0.05071692 0.05189178 0.055064976 0.037713964 -0.04484171 -0.02706384 0.11422404 0.024495345 -0.005553583 0.010483535 -0.027880836 0.02378488 0.08133041 -0.023384746 -0.109761015 0.019397402 0.09552245 0.12208001 -0.05927668 0.05176911 -0.05501474 0.029108794 0.043593355 0.06848951 -0.078096345 -0.101446584 -0.055438805 0.0063281744 0.028530508 -1.7263807e-05 0.0684173 0.098432146 -0.03649751 -0.0124918455 0.0077090207 -0.064586 -0.0022991204 -0.0054497602 -0.022855155 -0.04255717 -0.008694255 -0.014708138 -0.098369546 -0.040884033 0.09118376 0.06522491 -0.07736235 0.049411703 0.10160929 0.051201597 -0.03920132 0.009657364 0.12148918 0.09187576 -0.05729587 -0.06723489 -0.030076902 -0.0076509113 -0.10705288 0.1103323 -0.020062095 -0.0234442 0.09353552 -0.032203015 0.09746654 -0.11436544 -0.10216223
集 0.021189624 -0.0049274536 -0.025966918 -0.05131012 0.005442691 -0.0072941785 0.02109708 -0.0023804468 0.0024242157 0.012199539 -0.0056015966 0.0058665015 0.011490401 0.013686705 -0.03748598 0.004577815 -0.010853055 -0.041944567 0.01452447 0.00015953253 -0.026622787 0.0028667715 0.000496616 0.009694795 0.015134798 0.0359505 0.028494192 0.023878163 0.004804364 -0.007161773 0.0087077925 -0.0012166275 -0.041338217 0.01524323 0.015478962 0.008974213 0.006049356 -0.015070661 -0.0063895048 0.026245702 0.0109161595 -0.0004808287 0.005197364 -0.003491484 0.005679757 0.0230737 -0.009986711 -0.029121673 0.0037001274 0.020236902 0.029955095 -0.014911464 0.018864034 -0.009937001 0.0053275023 0.014555716 0.02438096 -0.023892421 -0.03108313 -0.01489359 0.004831177 0.008727618 -0.0035122696 0.016191654 0.028627248 -0.0035664358 0.00029173555 0.00537185 -0.02207989 -0.0037711768 -0.0036392692 -0.006012461 -0.014545472 -0.0028133823 -0.006156125 -0.023796024 -0.006305711 0.027937215 0.016572839 -0.017219462 0.008754196 0.02902455 0.013628539 -0.013965074 -0.0013787583 0.037243668 0.025938792 -0.015210133 -0.021425303 -0.012713499 -0.0031738835 -0.025889706 0.031137025 -0.0038749904 -0.00268219 0.027067216 -0.009688576 0.028713979 -0.034630746 -0.022714991
打电话 0.060435086 -0.0017526891 -0.07801091 -0.18420039 0.0120382765 -0.028323747 0.05781972 0.0015568621 -0.0021968104 0.04494098 -0.009961236 0.034072056 0.026703756 0.050770618 -0.112593986 0.0063898 -0.037962332 -0.15505582 0.05540676 0.014615314 -0.105313465 0.010471428 0.02677286 0.031983305 0.046888858 0.12992331 0.0981198 0.08052696 0.008892273 -0.032626282 0.046730164 0.0029612475 -0.13167205 0.053062506 0.04622493 0.050721843 0.045842458 -0.040360667 -0.030047156 0.10866484 0.016990976 -0.0031973403 0.010640786 -0.025158515 0.016654734 0.08407526 -0.021860184 -0.10306515 0.013554753 0.08764926 0.1210493 -0.05356184 0.04807037 -0.05255443 0.026222356 0.03680327 0.0689894 -0.07521427 -0.10098199 -0.05428522 0.004590848 0.029216329 -0.0031144293 0.07108263 0.09191612 -0.03093664 -0.013290439 0.0074424306 -0.05913074 -0.0068455706 -0.0075358036 -0.024958048 -0.04153098 -0.0076828445 -0.017350677 -0.09699911 -0.033511363 0.09315851 0.06645533 -0.06779253 0.051634636 0.10035899 0.0541767 -0.03921604 0.010687501 0.11815781 0.08995475 -0.054937482 -0.06542746 -0.027188648 -0.011401199 -0.09933694 0.09836329 -0.022847364 -0.02633486 0.09889303 -0.028930578 0.09683511 -0.11308681 -0.09632266
得知 0.05931548 0.0011498587 -0.06515927 -0.16743632 0.017202854 -0.025212292 0.052936353 -0.0035655482 0.0024727774 0.035926167 -0.011886141 0.03121955 0.026878273 0.044147745 -0.10149548 0.0020519225 -0.027962355 -0.14874542 0.053276077 0.014627515 -0.09533377 0.0091659855 0.017703751 0.027427144 0.041970022 0.11656662 0.09079389 0.07288637 0.0073791575 -0.025314838 0.037956223 0.001581746 -0.12631175 0.045638796 0.03678758 0.040380683 0.03340736 -0.041585863 -0.027383348 0.1014568 0.013639348 -0.0071130535 0.010420334 -0.02921159 0.022657435 0.080413096 -0.028698277 -0.095550396 0.01085048 0.084539674 0.10412705 -0.0514 0.049041472 -0.0441716 0.02954218 0.03741075 0.06316215 -0.07053082 -0.089694075 -0.04784621 0.007114841 0.022807911 0.0062223193 0.061229356 0.08233543 -0.034088388 -0.005005144 0.009382889 -0.060493525 -0.009010467 -0.0027183727 -0.023998952 -0.043354157 -0.0026200523 -0.017875135 -0.08456847 -0.03382857 0.08137003 0.06091549 -0.06372701 0.04674074 0.08461585 0.04137285 -0.03376663 0.00950346 0.101238534 0.08364892 -0.04704876 -0.05032502 -0.020246979 -0.013309221 -0.09875369 0.097021006 -0.020457475 -0.018532146 0.08791827 -0.02280622 0.08439113 -0.10203471 -0.08835823
告诉 0.058621176 -0.002822925 -0.07256294 -0.17823555 0.017763672 -0.028509133 0.05292371 0.002210284 -0.0012170316 0.042704105 -0.01046779 0.039345443 0.024081275 0.054040626 -0.11878469 0.009220706 -0.03229843 -0.16229282 0.054071866 0.018417867 -0.09942288 0.0040166206 0.023262559 0.035001554 0.0371795 0.13051896 0.09684134 0.07908044 0.010920908 -0.032457765 0.040337253 -0.00010046926 -0.13212122 0.054313857 0.043529928 0.052103773 0.04117838 -0.04280937 -0.026692722 0.11081915 0.016320188 -0.0015995812 0.011556089 -0.027213745 0.016028708 0.08449781 -0.024652373 -0.10604052 0.01406659 0.092312574 0.12043903 -0.049112603 0.043374896 -0.04738005 0.026846778 0.036544595 0.07237934 -0.0760352 -0.10001327 -0.054104794 0.012198888 0.029108027 0.0033021204 0.065535255 0.096754454 -0.029478299 -0.0073779174 0.006810344 -0.0601959 0.00012203548 -0.002074311 -0.019208686 -0.047976665 -0.006161434 -0.0190402 -0.09571988 -0.039933007 0.08690574 0.067088485 -0.07247297 0.04712297 0.10036887 0.05348997 -0.032156713 0.012603636 0.11414148 0.09723105 -0.051880464 -0.06258062 -0.023082735 -0.010118508 -0.10018135 0.1047022 -0.023338359 -0.03076024 0.099865 -0.021599665 0.08934407 -0.11338656 -0.10015726
林华华 0.04945904 0.0009592944 -0.05685856 -0.15002023 0.015029013 -0.026859056 0.04512739 -0.004519301 -0.0039956635 0.03442804 -0.009886237 0.03136043 0.018503455 0.043798648 -0.09564347 0.0036716305 -0.0313379 -0.1280282 0.045964222 0.014476037 -0.076838605 0.006426592 0.012788557 0.029074293 0.033568166 0.10093204 0.08469206 0.06802457 0.0039589913 -0.022066321 0.03883428 0.0041869115 -0.10921301 0.041582093 0.03997866 0.042543042 0.037277345 -0.031013286 -0.020861205 0.084191725 0.009970404 -0.008026252 0.0051850514 -0.024091646 0.020366173 0.06764376 -0.020594807 -0.08110952 0.008796266 0.07073484 0.0970108 -0.046748843 0.040067982 -0.037399754 0.02694756 0.03289054 0.057174608 -0.060267087 -0.082115844 -0.043028962 0.009134872 0.02602459 0.004717007 0.053040646 0.07612489 -0.028102463 -0.0041541797 0.0043297107 -0.05381356 -0.004592725 -0.00678115 -0.016702384 -0.03921354 -0.0023967493 -0.017923525 -0.076876536 -0.03102261 0.0708428 0.056838606 -0.05897143 0.03370122 0.07634927 0.03686404 -0.029840931 0.010826119 0.087280296 0.07834973 -0.03985353 -0.05310333 -0.022182336 -0.0075142 -0.08748929 0.08470248 -0.017645905 -0.025061408 0.074579895 -0.023065314 0.070889324 -0.09041628 -0.07985742
吴惠芬 0.049181838 -0.0029038677 -0.06279845 -0.16387494 0.018140517 -0.02988272 0.0454075 -0.0012123811 -0.0004243358 0.03732805 -0.009030814 0.029132782 0.02165759 0.047482446 -0.10225513 0.008625704 -0.031279493 -0.1430216 0.04905634 0.020121403 -0.08975364 0.0027554808 0.013485586 0.032358598 0.036441628 0.11003257 0.09055686 0.07663026 0.008061166 -0.026695957 0.037117757 -0.0032544034 -0.12160402 0.045788944 0.043703314 0.04563104 0.037914485 -0.040740464 -0.025411215 0.09177545 0.013916372 -0.0013724678 0.012783419 -0.019925173 0.017916262 0.0740346 -0.026916765 -0.08586173 0.012630271 0.07522784 0.10392807 -0.04478061 0.038941495 -0.040882703 0.028615745 0.038294576 0.05888424 -0.059579093 -0.08565768 -0.052772243 0.004385603 0.025253033 -0.0011061438 0.056004427 0.082089245 -0.032850917 -0.008538216 0.006176558 -0.05501584 -0.00827439 0.0024862802 -0.02318945 -0.039240632 -0.005024076 -0.01679492 -0.077818066 -0.036472227 0.082906514 0.05953091 -0.06725656 0.038128886 0.082431905 0.04338125 -0.032477945 0.011276901 0.10358766 0.08646368 -0.042902786 -0.057736624 -0.02021257 -0.012289682 -0.08701286 0.0929944 -0.021162547 -0.020298371 0.080803566 -0.027035637 0.07843232 -0.094111 -0.087381355
程度 0.0368143 -0.005921639 -0.051406708 -0.12164472 0.0104600545 -0.020110952 0.033361852 -0.0051047215 -0.00366004 0.022268321 -0.003345542 0.027584068 0.012003959 0.03228792 -0.07602091 0.0066829547 -0.019873815 -0.100748174 0.033586 0.008972165 -0.06656657 0.0046445117 0.01704697 0.025893863 0.029738542 0.08639632 0.06029472 0.05549893 0.0012429493 -0.019204278 0.032261346 0.0022069497 -0.0913139 0.031970274 0.03250542 0.035116095 0.029024612 -0.02833012 -0.012980889 0.07059804 0.012761797 0.0015553228 0.006245309 -0.020537002 0.007707848 0.057915602 -0.01726837 -0.06293416 0.012973002 0.056262773 0.077125974 -0.0335135 0.03008895 -0.035839673 0.016547626 0.02361631 0.04149322 -0.042026512 -0.06502388 -0.03430227 0.0010279461 0.020498162 -0.0008092144 0.040412206 0.06164724 -0.025094679 -0.0058806925 0.010074926 -0.035865236 -0.0016868205 0.0007378848 -0.014796169 -0.03342707 -4.7150097e-05 -0.015339317 -0.064255536 -0.028139116 0.05771006 0.04177155 -0.043101765 0.03179937 0.064182706 0.029074619 -0.026583886 0.010843728 0.072570734 0.05570822 -0.037364844 -0.038695548 -0.015001857 -0.009425597 -0.071345925 0.069078304 -0.01233637 -0.018502163 0.05815981 -0.014038934 0.05518195 -0.06788345 -0.061929323
电话 0.04881682 0.00070058 -0.06744149 -0.16077006 0.016176531 -0.026329845 0.049654655 -0.0021279121 -0.0023300075 0.036671523 -0.0059653344 0.032523803 0.026145874 0.040396392 -0.10614294 0.0093135405 -0.026890583 -0.13901006 0.046109706 0.02087719 -0.08660282 0.0105426125 0.016540052 0.035415795 0.033755716 0.116158344 0.08843634 0.06841395 0.0066773454 -0.02608736 0.036828753 -0.00048770854 -0.11674714 0.050512604 0.041641556 0.03843682 0.040540025 -0.033732034 -0.025102379 0.09242859 0.013701918 0.0010765798 0.011838502 -0.028769733 0.02164422 0.07472978 -0.026419312 -0.08780048 0.014909159 0.07249846 0.107432 -0.051066373 0.040480625 -0.045853846 0.022606052 0.038198758 0.05675506 -0.0615581 -0.08770364 -0.05428217 0.0068890303 0.026000373 0.0030936114 0.05421914 0.08382835 -0.029792907 -0.004370844 0.008947841 -0.05440909 -0.0003817703 -0.0046278485 -0.015972164 -0.036871657 -0.0064861416 -0.017103123 -0.08574624 -0.028953997 0.07756362 0.05701339 -0.06674732 0.040644493 0.085069604 0.044893377 -0.028521419 0.014906436 0.104473315 0.078435875 -0.04821354 -0.052237455 -0.020912899 -0.008224125 -0.09518816 0.09191432 -0.017655112 -0.023040751 0.08800625 -0.027008733 0.08536095 -0.09754835 -0.09058184
汇报 0.048890315 0.00087009004 -0.054451697 -0.1422261 0.008060366 -0.022317056 0.04093633 -0.003492105 -0.0014904209 0.030971158 -0.010086368 0.030840583 0.015300265 0.037422154 -0.08679002 0.008748273 -0.024938928 -0.1222319 0.042052995 0.015836282 -0.0817146 0.0041719154 0.021389559 0.030459054 0.033534348 0.10123703 0.081095174 0.059118476 0.006007505 -0.027135326 0.03292102 0.0010068438 -0.10319198 0.037988547 0.03256325 0.036606424 0.03470472 -0.03584363 -0.024597283 0.08661534 0.012840135 -0.0019728243 0.010226678 -0.017598938 0.013689076 0.06660994 -0.016514802 -0.08318828 0.014685413 0.06491894 0.08899908 -0.043937955 0.036321037 -0.04081194 0.02169195 0.025353242 0.05499915 -0.054722596 -0.07276132 -0.044121504 0.011844696 0.01876566 0.0021061178 0.050836984 0.073041864 -0.023034891 -0.011506498 0.008307941 -0.04655715 0.0011552376 -0.004615691 -0.018652327 -0.03614773 -0.010203527 -0.017480338 -0.07723051 -0.025846325 0.06920444 0.04569864 -0.053421624 0.037662417 0.07159509 0.033633836 -0.031520955 0.010659946 0.08413778 0.07297015 -0.039088015 -0.05060263 -0.016517285 -0.0067736795 -0.08188715 0.07718782 -0.014778719 -0.019407704 0.07560276 -0.01868774 0.06670715 -0.08759043 -0.07931208
来到 0.04619769 -0.0009005957 -0.055611394 -0.14137378 0.01497975 -0.01973621 0.043640744 -0.00127238 0.0040045837 0.027772918 -0.008216085 0.030483767 0.017079933 0.0424963 -0.09363978 0.005596676 -0.027188439 -0.12114228 0.03602056 0.014230795 -0.07264202 0.0087725585 0.013064789 0.024875328 0.03254454 0.098068215 0.07550737 0.064622164 0.006907487 -0.024165053 0.03643566 -0.0035319047 -0.1047264 0.034595214 0.03706227 0.040121734 0.03485784 -0.032499444 -0.021723494 0.085505486 0.012848611 -0.0074346857 0.0071011414 -0.02071063 0.017589403 0.06257014 -0.023148308 -0.07919093 0.0070944186 0.07134421 0.09409521 -0.03973411 0.037603736 -0.03754826 0.025964769 0.03205367 0.05577083 -0.056943905 -0.08066596 -0.045732677 0.0069047227 0.016759066 0.0054956786 0.055597574 0.06705232 -0.024689242 -0.0072160377 0.010356085 -0.05124795 -0.0048070424 -0.0014904026 -0.023123039 -0.035977412 -0.0075352974 -0.012483595 -0.073847346 -0.030946257 0.07299401 0.05161245 -0.049789634 0.038423423 0.070892155 0.036801238 -0.02904075 0.0094830785 0.089429826 0.07552052 -0.03953113 -0.05096955 -0.024992444 -0.004299196 -0.08099623 0.081293024 -0.016379472 -0.015583669 0.077236615 -0.015801758 0.074179605 -0.08419138 -0.0785474
干部 0.057397556 0.00062112167 -0.07185488 -0.17302197 0.011366009 -0.027054239 0.049551606 -0.0009176995 0.003330563 0.035390396 -0.0074739596 0.038920294 0.028951382 0.049790192 -0.114341184 0.0047091367 -0.029572744 -0.15684764 0.052785948 0.016619233 -0.09224574 0.0111456495 0.017167019 0.037641667 0.03788787 0.12343808 0.099524364 0.0801894 0.013392678 -0.027447613 0.042844266 0.006756486 -0.12884803 0.048421547 0.0445041 0.045647316 0.04006838 -0.044225693 -0.029399894 0.10645073 0.016268393 -0.0035927447 0.0085101575 -0.02894226 0.019193003 0.07886227 -0.025244338 -0.095372126 0.010921767 0.082786426 0.109995365 -0.051964454 0.045425285 -0.047036942 0.02571181 0.03571316 0.061871793 -0.073044926 -0.09351608 -0.052983105 0.01243191 0.024277726 0.0048518837 0.06748281 0.08759971 -0.03349462 -0.013616969 0.008245627 -0.05955518 -0.005436764 0.0007569522 -0.020831445 -0.046231173 -0.00435664 -0.015464663 -0.09423598 -0.032043573 0.08369854 0.06196208 -0.06964995 0.044431 0.088042855 0.04959752 -0.033368982 0.006662405 0.1145477 0.08691207 -0.049606837 -0.060262833 -0.026552184 -0.010753541 -0.09574921 0.100353286 -0.0255627 -0.019022407 0.09532964 -0.022487901 0.0832722 -0.10464772 -0.096187666
田国富 0.040496636 0.0026816588 -0.049327355 -0.12638769 0.008536467 -0.015440159 0.038942754 -0.0035000655 -0.0025809624 0.031855263 -0.0062655397 0.026123853 0.015382128 0.030664865 -0.07626315 0.007822798 -0.027202291 -0.10726036 0.030934725 0.0077395514 -0.07205899 0.005214298 0.01892422 0.02543647 0.027128773 0.087296546 0.070030615 0.05228151 0.008624555 -0.020239716 0.029365625 0.0044627157 -0.09115022 0.03478586 0.03182997 0.030714214 0.02867782 -0.02922151 -0.018780401 0.06873418 0.015329574 -0.00640209 0.005843043 -0.020545721 0.00851567 0.057545677 -0.012831423 -0.06687771 0.01334691 0.0553249 0.08164235 -0.036614686 0.029011844 -0.033957705 0.019392846 0.023820477 0.044157486 -0.052542955 -0.063152164 -0.03943182 0.008604461 0.019279864 -0.0039841905 0.047948577 0.06727722 -0.017449802 -0.006805367 0.0027574352 -0.038499646 -0.004516702 -0.006059814 -0.019944105 -0.029336877 -0.0015451653 -0.01578188 -0.066213086 -0.024379073 0.06210259 0.042020533 -0.053300023 0.030811723 0.06351967 0.038182504 -0.022753792 0.005746535 0.08112394 0.06811228 -0.03444536 -0.045049343 -0.018355079 -0.01248237 -0.070126764 0.072854884 -0.015925061 -0.020634446 0.06881301 -0.017107446 0.06562394 -0.074269794 -0.067044206
陈清泉 0.05683608 -0.00020989384 -0.069485635 -0.17799734 0.010498268 -0.02580625 0.053886294 -0.001396586 0.005606522 0.037269272 -0.004245753 0.0334197 0.026459798 0.05202026 -0.11490304 0.008871868 -0.028220406 -0.15331595 0.04744731 0.016831145 -0.093269914 0.010762365 0.020995472 0.030386945 0.044609338 0.12114028 0.09319464 0.07509229 0.003223698 -0.029994424 0.04242907 0.0012905649 -0.129701 0.050971508 0.043242995 0.051739946 0.035171304 -0.038017668 -0.026228046 0.10248648 0.014658102 -0.0022474136 0.007464104 -0.030245747 0.019948239 0.079793185 -0.025902512 -0.10131447 0.00898642 0.08796928 0.11574436 -0.048536226 0.050656702 -0.048759602 0.031508908 0.031532988 0.06232389 -0.06976454 -0.09589171 -0.05231433 0.0059129 0.02753971 0.0030539301 0.06807485 0.085058495 -0.027052019 -0.009491043 0.0078114565 -0.06183191 -0.006350295 0.0014558762 -0.023211652 -0.041363813 -0.0031381699 -0.016720617 -0.09266607 -0.031007063 0.08366362 0.062060464 -0.07189794 0.04022018 0.0900383 0.04466164 -0.037049472 0.012402577 0.11230849 0.08994033 -0.054076042 -0.06039202 -0.027465237 -0.0146123655 -0.1020124 0.09833213 -0.016323516 -0.02154156 0.090894036 -0.02746896 0.088169634 -0.11086573 -0.09738996
两个 0.03877053 -0.005454574 -0.040625677 -0.11219741 0.014598151 -0.02043275 0.034364413 0.001018369 -0.0030616778 0.02739793 -0.0006217526 0.019199206 0.020449778 0.029727545 -0.067392565 0.0029993914 -0.022816755 -0.09815565 0.027645255 0.006679607 -0.057478316 0.0011467644 0.009126755 0.022978298 0.026108585 0.080297865 0.056944963 0.048824612 0.010031526 -0.021838332 0.021807458 -0.000109232205 -0.083481655 0.033002608 0.029329946 0.02670526 0.024264535 -0.022613162 -0.021181319 0.06226749 0.008801423 -0.0050113676 0.00633848 -0.020919666 0.009965355 0.04732374 -0.014257618 -0.06201089 0.005197914 0.04744191 0.07465772 -0.035549022 0.030286985 -0.034324992 0.014675724 0.026386144 0.04171305 -0.043383904 -0.06174108 -0.03460483 0.00743958 0.016544204 0.0014105025 0.041079305 0.059732866 -0.02267633 -0.005921702 0.0065617915 -0.033598464 -0.004599209 -0.0012147969 -0.018793019 -0.02212007 -6.7999645e-05 -0.01221584 -0.05284069 -0.022975061 0.054852318 0.03955018 -0.041602537 0.02340759 0.06078121 0.02776441 -0.01988332 0.0027068052 0.07148984 0.059053242 -0.035099883 -0.033013824 -0.011591086 -0.00991468 -0.059813607 0.06428643 -0.016928852 -0.013737398 0.05505965 -0.018273901 0.058154006 -0.06914121 -0.053497758
工人 0.048034053 -0.0023189671 -0.060960468 -0.14278287 0.013217298 -0.02802165 0.04045713 -0.0027653773 -0.001653607 0.034799367 -0.0089581 0.03186457 0.024177264 0.041684866 -0.09087833 0.0057511646 -0.031249648 -0.13031657 0.03804581 0.014772492 -0.08046737 0.0044497317 0.01505718 0.02420668 0.03144738 0.09734462 0.07567575 0.065989606 0.011843516 -0.023974044 0.03327804 -0.00090605277 -0.111822635 0.04350295 0.034237314 0.037127085 0.02818061 -0.03292771 -0.017475419 0.08723524 0.01561411 -0.001573047 0.01133924 -0.023422575 0.018631699 0.06583211 -0.018773563 -0.08423719 0.016032116 0.073346846 0.09777569 -0.04584881 0.04215597 -0.04513329 0.02515436 0.03572905 0.05837053 -0.057934474 -0.08138167 -0.041735362 0.0038695757 0.016926238 -0.0031774521 0.050373245 0.07227559 -0.024703754 -0.009857674 0.0064780824 -0.050635297 0.00088066125 -0.0033440236 -0.020959064 -0.03880692 -0.0054143276 -0.016561868 -0.07618352 -0.0343694 0.06951423 0.04846864 -0.061212346 0.03535073 0.08188361 0.04142723 -0.029787188 0.007893788 0.094573356 0.07595908 -0.043156456 -0.04384856 -0.02513249 -0.012445161 -0.0847033 0.085077316 -0.016799362 -0.018258564 0.07234178 -0.016984122 0.07615232 -0.08666796 -0.07395036
赵立春 0.06211631 0.0008775687 -0.06733929 -0.17544891 0.012944442 -0.02479947 0.04712063 0.0011366631 0.005597811 0.041511953 -0.010301021 0.030424064 0.022245292 0.05129892 -0.11373061 0.006729965 -0.030993093 -0.15511668 0.047986876 0.018691303 -0.0962862 0.011818396 0.022663014 0.038838983 0.03887689 0.12204694 0.08973032 0.07389863 0.009959684 -0.031287525 0.043475267 -0.0010287666 -0.12663503 0.05213201 0.04463924 0.04714237 0.036555104 -0.041913565 -0.025820283 0.105488 0.012837201 -0.0082363775 0.0061469367 -0.02269769 0.01655159 0.08098059 -0.020199103 -0.09669395 0.017159797 0.08918403 0.10990881 -0.05168238 0.043818545 -0.04906652 0.03166253 0.03188708 0.06737347 -0.06835012 -0.090355225 -0.058574528 0.010841793 0.030409332 0.0028784815 0.059788138 0.0905546 -0.028776292 -0.009606778 0.012743206 -0.055236787 -0.0076813814 -0.0015060856 -0.02792658 -0.04514304 -0.006654928 -0.020944642 -0.09092174 -0.032917645 0.084395394 0.06151465 -0.06599886 0.048957594 0.09679697 0.05122813 -0.038403593 0.008107916 0.10668644 0.08812801 -0.05506237 -0.05668157 -0.023798266 -0.009940376 -0.09933257 0.10068724 -0.016496247 -0.028555723 0.09388863 -0.024918728 0.088168725 -0.105366565 -0.0923205
离开 0.054888174 -0.0013608336 -0.061393302 -0.15564623 0.012474422 -0.021065876 0.04890442 -0.0010076441 0.004902998 0.03576134 -0.0026877634 0.031190718 0.025662122 0.043426923 -0.10264039 0.009506632 -0.026956266 -0.13682815 0.04896269 0.01205483 -0.08882889 0.006779817 0.018875 0.029184693 0.03456602 0.103375986 0.08151779 0.07325126 0.010787306 -0.028814202 0.034527823 0.0037303364 -0.1118238 0.04054656 0.038193934 0.04018206 0.03474662 -0.03942922 -0.027901724 0.08959455 0.019078521 -0.008269569 0.009267062 -0.019633872 0.016357688 0.07057659 -0.027223654 -0.08827496 0.0077503235 0.075367875 0.09696302 -0.049516503 0.044586796 -0.04487643 0.026194869 0.029225733 0.062082097 -0.06576256 -0.08920102 -0.046325896 0.006663926 0.026347397 -0.00070085103 0.056486893 0.076656856 -0.028594581 -0.004087609 0.012752545 -0.057454273 -0.007089302 -0.0016582843 -0.024187122 -0.03951446 -0.007910785 -0.019186944 -0.0800903 -0.028504325 0.07731566 0.055717498 -0.058578417 0.04085375 0.08359753 0.045619905 -0.02946737 0.005063812 0.09732357 0.08354332 -0.046890654 -0.0530439 -0.01874877 -0.006841671 -0.088057764 0.09050325 -0.016599864 -0.022742769 0.07550175 -0.019793103 0.07854131 -0.09159104 -0.078881316
里 0.051399168 0.0006487392 -0.060357552 -0.14946872 0.008875807 -0.027854387 0.046893254 -0.004188058 -0.0010715366 0.034980692 -0.004349292 0.034388352 0.017034613 0.03866295 -0.09366168 0.006179476 -0.024599256 -0.13348816 0.045471493 0.011080305 -0.07832474 0.0020903498 0.021768123 0.029440451 0.032914612 0.10066351 0.0799658 0.061470717 0.011470994 -0.02540607 0.03263617 0.0012001367 -0.10603322 0.03772893 0.033972938 0.039781168 0.03669505 -0.032126375 -0.023004504 0.08193197 0.011794782 -0.0027673112 0.008674854 -0.025204232 0.020574553 0.06312311 -0.025553187 -0.0848623 0.016706076 0.067253776 0.09857429 -0.039904553 0.03876668 -0.041538455 0.023465704 0.029754424 0.055504635 -0.055108372 -0.08051729 -0.041259892 0.0030596703 0.025386358 -0.0013179843 0.052425418 0.07083084 -0.02475699 -0.009848099 0.011008155 -0.04582592 -0.007302961 -0.0017697113 -0.016154585 -0.038627923 -0.006660993 -0.01721467 -0.07788824 -0.030021057 0.07327012 0.0517374 -0.06114614 0.033354074 0.07435121 0.04283609 -0.03282203 0.0055997167 0.09697553 0.07270074 -0.043821324 -0.04462424 -0.018069904 -0.010131144 -0.08370463 0.08208787 -0.018825026 -0.022255521 0.07486843 -0.01876435 0.07100733 -0.09297557 -0.07954291
担心 0.049093064 -0.004029613 -0.06437727 -0.16412507 0.013598515 -0.021204893 0.050997972 -0.004352202 0.0025199105 0.033535298 -0.010210245 0.035004564 0.024916075 0.041319266 -0.105280586 0.007738246 -0.031714953 -0.13986449 0.046836015 0.020136341 -0.090761244 0.0033135305 0.014191187 0.028352898 0.04011153 0.10866605 0.08965411 0.07464843 0.011436364 -0.024942417 0.03531875 0.0008082267 -0.12176182 0.04956518 0.04012782 0.04514206 0.040556844 -0.03461112 -0.019386368 0.0958045 0.02004893 -0.007008081 0.011111955 -0.021466 0.018418724 0.07483677 -0.025054853 -0.09187161 0.014844228 0.0766608 0.100195825 -0.043529674 0.039553598 -0.048609562 0.029122578 0.037251618 0.061898757 -0.06771749 -0.092370205 -0.05280711 0.009596261 0.02898736 0.004019423 0.06380792 0.08568754 -0.028588314 -0.008238054 0.010862788 -0.056575205 -0.007355672 0.00032817846 -0.021293316 -0.03932916 -0.0021106617 -0.014705562 -0.083238445 -0.03551435 0.083036415 0.057802968 -0.06727124 0.03968537 0.08499276 0.046344638 -0.030601814 0.008809176 0.10244571 0.0820403 -0.045430858 -0.051151235 -0.02494381 -0.008294154 -0.093388304 0.090272434 -0.01472855 -0.019313708 0.082475595 -0.025039852 0.08550193 -0.10187156 -0.08611977
钟小艾 0.045346417 -0.0044759396 -0.053208247 -0.13842516 0.011233772 -0.024378832 0.042459767 -0.0011756296 0.0032865314 0.032372564 -0.004349603 0.024607347 0.015128976 0.036184434 -0.08279215 0.0041738437 -0.019523656 -0.113904774 0.042227283 0.01335953 -0.07093467 0.0011697948 0.016411737 0.023856403 0.0344054 0.09565633 0.072829306 0.062562235 0.010019224 -0.020577235 0.030256333 0.0043859403 -0.10051405 0.035704594 0.029469464 0.03295172 0.03475061 -0.031508148 -0.022516733 0.077701405 0.015082754 -0.0067222225 0.0075134095 -0.022121638 0.01565118 0.058026712 -0.021342764 -0.07587267 0.008848065 0.061591912 0.083055116 -0.03752341 0.03562428 -0.035503563 0.019799903 0.029930426 0.052783746 -0.054598965 -0.07077942 -0.042450424 0.006167596 0.016116975 0.00095938216 0.051416364 0.06956542 -0.021545839 -0.0015166787 0.006640402 -0.048287995 -0.0049958886 -0.0010224553 -0.022749806 -0.034611236 -0.0032857177 -0.012105624 -0.06632744 -0.02374751 0.0640473 0.04731309 -0.050139546 0.0364497 0.070615955 0.037578642 -0.02178151 0.008618691 0.08492363 0.064987786 -0.03696634 -0.047420304 -0.019693537 -0.013266008 -0.07823669 0.08121552 -0.014979604 -0.018533977 0.066341385 -0.018094447 0.07093019 -0.087938644 -0.075300515
事情 0.048345633 -0.0041207178 -0.06052296 -0.16503353 0.010335119 -0.022260593 0.04818274 0.0018643716 -0.003139407 0.033748887 -0.00988013 0.0277849 0.019386718 0.047669645 -0.0977595 0.0075823246 -0.027956003 -0.13668801 0.043094445 0.0146476105 -0.090667695 0.0036067502 0.020445518 0.034592353 0.032161433 0.10717828 0.0899662 0.07414824 0.011249608 -0.02024208 0.03564111 0.006205137 -0.11634894 0.041314498 0.04204621 0.040241744 0.034782246 -0.03967143 -0.023128727 0.092551716 0.018622693 -0.006352484 0.0063881595 -0.020352717 0.016773257 0.07288206 -0.02090052 -0.09263069 0.01543566 0.077670656 0.10485047 -0.04450994 0.047342967 -0.045370314 0.028998164 0.029590983 0.062781975 -0.06406171 -0.08673825 -0.04861381 0.006149663 0.025051782 0.002110859 0.05927777 0.080511265 -0.029260365 -0.004714878 0.010040178 -0.050596442 -0.009308599 -0.0031789313 -0.025798915 -0.036898635 -0.0039257943 -0.018909493 -0.07845981 -0.03788308 0.08125478 0.054341484 -0.05766693 0.038741052 0.08248401 0.047910046 -0.028495332 0.011527899 0.09787526 0.087109245 -0.04746663 -0.05029221 -0.027716678 -0.011537227 -0.090483926 0.088032685 -0.017578168 -0.019530375 0.085976504 -0.023184072 0.07869451 -0.09897618 -0.086582646
只好 0.04403918 0.0027213695 -0.052888736 -0.12534751 0.010356835 -0.021416156 0.032001242 -0.0058626207 0.0041956124 0.025760332 -0.010343869 0.025428489 0.014189594 0.032307237 -0.07625929 0.0011649925 -0.026180835 -0.104749866 0.037628315 0.014461914 -0.06514017 0.009394103 0.016632712 0.021222426 0.030753363 0.0865698 0.06860242 0.05305882 0.006936902 -0.02232841 0.03156209 0.0031796817 -0.085439876 0.03071393 0.032923255 0.033791896 0.030795561 -0.029548699 -0.017103365 0.071235515 0.007444283 -0.0057451385 0.0046250243 -0.020228315 0.008019669 0.05359142 -0.021284424 -0.07198707 0.011927595 0.05649976 0.078066565 -0.036156237 0.032541245 -0.02884951 0.015742624 0.022692747 0.045664795 -0.052945968 -0.06537499 -0.04003148 0.0049493103 0.015227789 0.0021633187 0.04414167 0.061347105 -0.019709244 -0.006463991 0.01081168 -0.043209974 -0.0017750121 -0.0012632855 -0.019883534 -0.02709177 -0.0042912946 -0.013392502 -0.058632188 -0.022066973 0.06507092 0.03916805 -0.052053213 0.030109847 0.06636598 0.035382703 -0.024027374 0.013204893 0.07777026 0.06419435 -0.030669931 -0.044525243 -0.01953219 -0.010843543 -0.07041107 0.07238065 -0.010812335 -0.01841192 0.063866474 -0.022336027 0.06092457 -0.07394472 -0.065330446
走 0.037702415 -0.0064011132 -0.047813002 -0.107308485 0.005429488 -0.017003605 0.033051282 0.00041300448 -0.00093339256 0.020946035 -0.005166259 0.025523843 0.011731751 0.033488445 -0.064132765 0.00017630337 -0.023716671 -0.093898855 0.03215572 0.013209285 -0.05857664 -0.00041378234 0.011135537 0.02158926 0.025217436 0.07064376 0.054527305 0.049042284 0.006817392 -0.014733503 0.02677246 -0.001070848 -0.07346417 0.029532658 0.026314348 0.02611212 0.025150849 -0.028288525 -0.018595213 0.058284573 0.007236519 -0.0029365013 0.0105142305 -0.01388077 0.006742819 0.052806433 -0.017818611 -0.054527696 0.004365696 0.048587073 0.0691846 -0.031564303 0.023693645 -0.029415267 0.019069865 0.026775755 0.04215094 -0.041443713 -0.061628886 -0.03144473 0.00695519 0.018366259 0.001913558 0.034292877 0.05192996 -0.02117282 -0.006122289 0.0077031725 -0.040154025 -0.000437812 0.0015768494 -0.01470819 -0.02107203 -0.0026802574 -0.011416276 -0.049536135 -0.02507488 0.052148636 0.04071331 -0.042835146 0.027749797 0.0577462 0.024404524 -0.022596594 0.008515955 0.06804394 0.053454455 -0.030709838 -0.03267246 -0.011246488 -0.0065144747 -0.055511728 0.058796026 -0.017397508 -0.018075284 0.059604656 -0.014971479 0.05682625 -0.06949165 -0.052378032
照片 0.035394315 -0.0008394481 -0.04571137 -0.11287776 0.014324286 -0.016561436 0.02709558 -0.0063326843 0.00042040742 0.028037982 -0.00772739 0.018945025 0.011948494 0.029115245 -0.07026763 0.009000851 -0.019047612 -0.09695256 0.032655038 0.00809442 -0.065049686 0.0040544816 0.012663112 0.018086877 0.0221463 0.07866101 0.05736214 0.049440723 0.005978638 -0.013253789 0.030266764 0.0021289797 -0.08023707 0.026247695 0.025450751 0.032274567 0.028912185 -0.020199526 -0.017561857 0.06418439 0.014511532 -0.0001340302 0.010666716 -0.014005161 0.013561342 0.052276023 -0.018050503 -0.06174336 0.0055672117 0.055140257 0.06533974 -0.035969354 0.02613666 -0.03432533 0.018593391 0.022862056 0.042573705 -0.04784924 -0.05645592 -0.036745824 0.00879432 0.015563681 0.0025877347 0.04403585 0.055937994 -0.01978721 -0.0015775409 0.0011950481 -0.0348884 -0.0038391703 -0.0058135823 -0.0138978595 -0.02803336 -0.002453479 -0.016209196 -0.056505878 -0.017585123 0.05282946 0.038518142 -0.04104069 0.032550257 0.05533827 0.029867098 -0.01959109 0.005243846 0.06952463 0.052630123 -0.03458015 -0.040696643 -0.019517664 -0.0068310606 -0.062323384 0.06697829 -0.012037806 -0.015058512 0.05593558 -0.013409822 0.059739437 -0.06811022 -0.06245212
审讯 0.03926999 -0.0029706669 -0.05590571 -0.12978093 0.014514297 -0.020659156 0.04271583 0.00021241349 -0.0023780295 0.03385593 -0.005468591 0.026777674 0.022796579 0.033890735 -0.08856153 0.0014424092 -0.021457087 -0.1164525 0.03806068 0.010327049 -0.07074984 0.00878507 0.0108095575 0.024480127 0.02996472 0.09060466 0.07556361 0.06293417 0.0017516165 -0.02544212 0.034820873 -0.0018490513 -0.10103544 0.03523696 0.03550336 0.03926098 0.0317241 -0.02892479 -0.018542515 0.07356348 0.013752841 -0.0016889593 0.010640606 -0.020222763 0.015463197 0.057854638 -0.016943857 -0.073280916 0.0078050676 0.064105086 0.08315094 -0.042995587 0.03276327 -0.032931983 0.018467514 0.028161012 0.047188092 -0.04963556 -0.07335815 -0.03770342 0.008565394 0.014609324 0.002026711 0.050906308 0.06895422 -0.022838302 -0.0039850487 0.011299799 -0.04104463 -0.003148408 -0.006751237 -0.01656298 -0.034048874 -0.006326503 -0.017755324 -0.06946637 -0.029999157 0.065796174 0.053578492 -0.05204869 0.030567188 0.07352526 0.034032315 -0.027293267 0.012273492 0.082027934 0.06516489 -0.03890715 -0.046166193 -0.020084273 -0.007124676 -0.07297926 0.078109115 -0.021032529 -0.015324493 0.071482055 -0.014746534 0.06609627 -0.07768199 -0.076669246
希望 0.03207741 0.0032457483 -0.038240667 -0.10457756 0.0067308396 -0.014936193 0.025418311 0.002820543 0.003507485 0.020574821 -0.0072949827 0.0193671 0.00936149 0.028106637 -0.06511605 0.007747689 -0.01329364 -0.090179324 0.028509123 0.0059699095 -0.052093223 0.0031507937 0.0073312507 0.018739656 0.025559 0.07212202 0.055182625 0.044815116 0.002304098 -0.01634928 0.019806847 -0.00260444 -0.07178558 0.027230177 0.028275086 0.031847194 0.020208452 -0.025352571 -0.010534553 0.06299473 0.0068934625 0.0004455133 0.0014245053 -0.0118904915 0.0086993165 0.045640185 -0.015521522 -0.05977611 0.0045255953 0.04335858 0.066043176 -0.026367905 0.02462842 -0.023747407 0.015021496 0.01597582 0.041264746 -0.04130305 -0.057934187 -0.031492274 0.0014130997 0.013298728 0.001994682 0.033419397 0.053495683 -0.016679974 -0.009209108 0.0089374855 -0.032788116 0.00025705952 -0.003739283 -0.01423259 -0.026614903 0.00065491936 -0.014869894 -0.046988547 -0.016365858 0.05289757 0.0361247 -0.037627082 0.026874261 0.055032592 0.02550528 -0.0156200295 0.011621908 0.06162182 0.0508829 -0.03361221 -0.030298963 -0.012500779 -0.001264648 -0.05227237 0.057647824 -0.012913327 -0.009787213 0.052008845 -0.017298969 0.047828976 -0.059964318 -0.05220965
王大路 0.052072253 -0.0018827007 -0.0717133 -0.17249037 0.010755094 -0.025838537 0.054102432 -0.0031822168 0.00023319719 0.035355978 -0.00641929 0.03895496 0.024860486 0.04822168 -0.11048929 0.010540049 -0.032353356 -0.15482277 0.045474373 0.020565348 -0.090318866 0.0097431075 0.022209551 0.030987844 0.040515315 0.12125255 0.09569277 0.07954055 0.008920522 -0.027922938 0.040933657 0.0035127301 -0.12614484 0.053507812 0.040080734 0.043239858 0.035095718 -0.040380426 -0.027379362 0.100937374 0.013404901 -0.0066421167 0.010192527 -0.030109668 0.020908862 0.0799095 -0.019795876 -0.09308778 0.01909964 0.08276353 0.11135533 -0.046112925 0.04845804 -0.04261749 0.030500714 0.03436572 0.06867799 -0.066225804 -0.096397445 -0.04866392 0.006812065 0.030166429 0.0026689174 0.061765052 0.09379828 -0.034564447 -0.0095156785 0.009629441 -0.063969135 -6.0062703e-06 -0.002866315 -0.020784263 -0.03833061 -0.0062099015 -0.021186192 -0.084263735 -0.03133348 0.089152865 0.060606554 -0.07185246 0.04032085 0.09520717 0.045671333 -0.032677557 0.011371281 0.110179536 0.09249598 -0.05294049 -0.05830277 -0.020368345 -0.008289733 -0.100259505 0.09441171 -0.021429526 -0.024323625 0.0908818 -0.02597162 0.0910109 -0.10690952 -0.09011729
梁璐 0.04837347 -0.007507555 -0.064944 -0.16139089 0.01851356 -0.024223803 0.048896365 -0.005554019 -0.002094146 0.036775924 -0.005115671 0.03345044 0.021728415 0.043283608 -0.100342564 0.0051801987 -0.030127455 -0.13637123 0.049155306 0.018758105 -0.08833181 0.0056904457 0.0190286 0.033386894 0.034561656 0.11112699 0.08337037 0.07419618 0.0076414687 -0.02126151 0.041161492 0.0010317197 -0.118355386 0.045364525 0.04399707 0.042636123 0.03859431 -0.032552574 -0.023331717 0.090588294 0.01747764 -0.007401556 0.0103179775 -0.019904612 0.020532025 0.07135244 -0.024894588 -0.092402235 0.00803193 0.082960725 0.1069242 -0.0456664 0.03851388 -0.044874057 0.022066336 0.036444817 0.06684549 -0.06341923 -0.08615231 -0.05412514 0.006819439 0.021364542 0.0051717 0.057404418 0.078540094 -0.031843767 -0.012136971 0.010168611 -0.055113323 -0.0040855687 -0.0053538433 -0.017986517 -0.035988886 -0.0015392381 -0.021188455 -0.083222754 -0.03693452 0.0787054 0.054314043 -0.06466867 0.039822306 0.08786434 0.042866264 -0.027722828 0.015299002 0.09653648 0.07949356 -0.049492132 -0.05316865 -0.025173888 -0.010050103 -0.09175482 0.092085965 -0.020866387 -0.022870472 0.08298014 -0.019736597 0.075983115 -0.09741968 -0.08115061
举报 0.04673662 -0.0025814716 -0.06113993 -0.14120355 0.007400397 -0.017573047 0.045744214 0.0004593464 -0.0029028156 0.03515953 -0.01160068 0.033129346 0.021257816 0.042209886 -0.090998895 0.007177618 -0.021696424 -0.123811334 0.04163915 0.009196916 -0.07764535 0.0040783393 0.013314848 0.028153563 0.032358155 0.10244222 0.08040043 0.059163556 0.010174475 -0.02320881 0.033619057 -0.0024199544 -0.100698896 0.04437933 0.036219113 0.04197806 0.03184148 -0.028554106 -0.017712113 0.086583726 0.016132198 0.0007378487 0.007043803 -0.017679729 0.019157294 0.068508305 -0.01936971 -0.079136945 0.008815555 0.06707458 0.09355305 -0.04368769 0.034692757 -0.033380017 0.025564143 0.034310617 0.049717624 -0.05599643 -0.077380195 -0.038831376 0.0046870597 0.019848118 -0.0030629386 0.05111164 0.06728208 -0.02477884 -0.0019332827 0.0050434615 -0.045392297 0.000826541 0.0030430765 -0.014370664 -0.039172284 -0.005214105 -0.010229242 -0.069826886 -0.03329176 0.069805056 0.05414987 -0.054310188 0.039820187 0.069256455 0.04148858 -0.030630602 0.004497816 0.091784514 0.07311975 -0.041642126 -0.047477186 -0.02515466 -0.010261542 -0.07570654 0.08248674 -0.015193811 -0.023976706 0.07403396 -0.018106107 0.06994477 -0.09093145 -0.074627675
汉东 0.04253073 -0.0014204276 -0.056403022 -0.13809158 0.013946019 -0.025203854 0.046498507 -0.0052568144 0.0057290043 0.03139611 -0.0051090606 0.02932673 0.024804695 0.0367029 -0.08768775 0.005451058 -0.027913997 -0.122038335 0.041009303 0.01135771 -0.07644821 0.0046692886 0.016798481 0.022326132 0.035164323 0.10088051 0.08166658 0.06582804 0.009088775 -0.017439907 0.03332415 -0.003300049 -0.10574797 0.039768144 0.036064442 0.043686796 0.03545356 -0.034259867 -0.018214207 0.08641134 0.014420922 -0.004049402 0.0090827495 -0.023431804 0.013172806 0.066198505 -0.015750699 -0.08273741 0.010722944 0.07059128 0.094733834 -0.04159831 0.03407317 -0.038749684 0.024793852 0.03104053 0.050284393 -0.057518408 -0.079066664 -0.045738466 0.0042748093 0.02039254 -0.0009867115 0.049179643 0.07408314 -0.020137172 -0.0059491284 0.005963041 -0.047557753 -0.007732736 0.00319607 -0.020099914 -0.034124747 -0.0010701377 -0.014015391 -0.07306489 -0.025339859 0.07388046 0.056051802 -0.0556839 0.038001526 0.074377246 0.034259874 -0.024682859 0.009578813 0.088185094 0.07746651 -0.04146042 -0.045183115 -0.021858156 -0.0061715464 -0.08068268 0.07634384 -0.012062276 -0.017233325 0.07031894 -0.019476587 0.06813108 -0.089253485 -0.0772855
事 0.045106873 -0.0020814189 -0.06076835 -0.15026021 0.013855621 -0.019762488 0.044383135 -0.0027103943 0.00011190295 0.027801484 -0.009591425 0.030237671 0.01764717 0.04336369 -0.096692465 0.0007922151 -0.03110327 -0.12972628 0.03992857 0.016809026 -0.077479295 0.0042417953 0.016844917 0.03319019 0.030401528 0.102826595 0.07753003 0.07077501 0.0045901313 -0.025994742 0.03168409 0.0040608915 -0.10994902 0.043044847 0.033788927 0.038798556 0.036008075 -0.031558923 -0.021970186 0.08541206 0.011245406 -0.0032580043 0.007449158 -0.020562336 0.013551741 0.07008738 -0.018771796 -0.08402035 0.007494822 0.07405188 0.09438519 -0.04647504 0.041575566 -0.037744407 0.02376367 0.03402636 0.060782753 -0.05865632 -0.08296533 -0.043354742 0.008414817 0.026029453 -0.00344596 0.057753235 0.07138846 -0.020906532 -0.002807748 0.008421864 -0.047339227 -0.005674811 -0.005039669 -0.015072659 -0.033593573 -0.0061265435 -0.014813051 -0.07428459 -0.02951751 0.07013841 0.053923868 -0.058386058 0.039150015 0.08207899 0.037492454 -0.030307986 0.009352748 0.09582411 0.07428157 -0.043291274 -0.04820503 -0.021961082 -0.011976319 -0.08283439 0.083476886 -0.016578192 -0.02470939 0.07526662 -0.018749423 0.073169306 -0.08600791 -0.074175514
山水集团 0.061656456 -0.0046685142 -0.06904815 -0.17381443 0.019391509 -0.032786295 0.04723681 -0.004952665 -0.0010130146 0.03743343 -0.0064987885 0.034501754 0.025868144 0.046977285 -0.10649971 0.0055132015 -0.036179673 -0.15721086 0.047587384 0.014336975 -0.09586025 0.0051627173 0.02049434 0.029712947 0.03818373 0.12166989 0.096004166 0.07910131 0.004280339 -0.025580062 0.039792877 0.0029590644 -0.13197291 0.05441557 0.04844773 0.05203117 0.04298453 -0.038397193 -0.024030637 0.10447084 0.015859438 -0.0054245163 0.014272867 -0.027489562 0.019762527 0.07932849 -0.030242918 -0.101735935 0.012932314 0.08154461 0.10877081 -0.047741465 0.04456194 -0.04902922 0.02417305 0.03235189 0.07226985 -0.06693297 -0.09452385 -0.057844605 0.012984686 0.026876941 0.006012915 0.06474006 0.08725927 -0.027016073 -0.00948184 0.011973912 -0.065316886 -0.0053338176 -0.0066094613 -0.023307538 -0.04239349 -0.0021249931 -0.014673043 -0.08524038 -0.03841131 0.09120356 0.06731012 -0.06471607 0.045862302 0.09341586 0.04652578 -0.032588087 0.0077362126 0.108211294 0.08760928 -0.050306007 -0.062735975 -0.027390085 -0.0066656144 -0.09552099 0.09558408 -0.0167563 -0.023447115 0.09517674 -0.022434296 0.08896549 -0.1129176 -0.09194201
吕梁 0.028499834 -0.0052412977 -0.037151463 -0.096536174 0.0052253897 -0.014355342 0.026496083 -0.0033880912 0.0021094482 0.021118982 -0.0074002305 0.020441625 0.010898725 0.02464456 -0.05965896 0.003304936 -0.021497218 -0.08411863 0.027764384 0.012043872 -0.050057 0.0071936073 0.015566147 0.019157827 0.026746118 0.06570721 0.055004932 0.047114067 0.0024858129 -0.01459543 0.018062994 -0.0013285009 -0.069857724 0.027367461 0.027617322 0.021433786 0.021583395 -0.018322285 -0.012317553 0.059838027 0.013098153 -0.0027259155 0.009712008 -0.015322272 0.012478884 0.04195856 -0.013412741 -0.04839076 0.007981882 0.043986242 0.058744177 -0.025611743 0.029889097 -0.030624375 0.018057944 0.024164453 0.037191626 -0.035785507 -0.054103456 -0.031039387 0.009437157 0.0089920815 0.0021354794 0.035062797 0.050301433 -0.0131769255 -0.0055631753 0.006311918 -0.035863336 -0.0044952165 0.0007533957 -0.01198946 -0.02711955 -0.005077457 -0.007688116 -0.04829307 -0.021426493 0.050863028 0.037183568 -0.038805183 0.022500362 0.045203086 0.029942302 -0.014572419 0.0038269677 0.063448355 0.05246524 -0.030936945 -0.02938542 -0.01846013 -0.001990156 -0.053565428 0.055599354 -0.012579263 -0.012523687 0.045770872 -0.011695934 0.049678057 -0.058156658 -0.048967417
劝 0.042345747 0.0004336692 -0.0433006 -0.124455236 0.008224279 -0.023522532 0.034287415 -0.005367293 -0.0008058808 0.02902343 -0.0076525314 0.019991534 0.014943948 0.034293372 -0.07461571 -0.00039241184 -0.025857797 -0.10081319 0.038044117 0.016313635 -0.066533946 0.005297996 0.009653127 0.024276998 0.03032237 0.08024362 0.060618892 0.04951828 0.0035936642 -0.023152636 0.02623325 -0.001986965 -0.08540797 0.03764155 0.03268876 0.037281826 0.029213505 -0.027994903 -0.019013356 0.07074888 0.01595243 -0.004735648 0.007555426 -0.021850377 0.01070721 0.056173068 -0.01935821 -0.07061384 0.014212565 0.06269593 0.078660496 -0.03380754 0.03470249 -0.03740483 0.013834023 0.026981208 0.05054793 -0.051688746 -0.06355413 -0.03740609 0.0044671716 0.01908615 -0.0023435997 0.045434367 0.06405823 -0.024821922 -0.003723275 0.008874378 -0.03869441 -0.0017221079 -0.00023941745 -0.011144148 -0.031531975 -0.0027401277 -0.012605345 -0.059144516 -0.02622054 0.060039558 0.048074257 -0.049706124 0.03404419 0.058200344 0.037095543 -0.025326692 0.008153557 0.07857863 0.06621158 -0.033850037 -0.044602755 -0.014312812 -0.004480542 -0.0681717 0.06943565 -0.009363464 -0.015159353 0.05830547 -0.01684728 0.057988152 -0.072528325 -0.06411436
发现 0.053916115 -0.0037877061 -0.05802277 -0.14659001 0.016475989 -0.021647451 0.03885055 0.001433025 -0.0013918923 0.030461708 -0.007212987 0.02663405 0.021235382 0.040502504 -0.09787964 0.011093262 -0.023428142 -0.13263994 0.04761564 0.019531304 -0.085972175 0.0053761536 0.014713173 0.026369113 0.033447646 0.10044814 0.08714422 0.06849399 0.011269967 -0.027318176 0.04036381 0.0061505334 -0.10819919 0.03754379 0.042116072 0.03862392 0.033684403 -0.035547424 -0.027017158 0.08655585 0.01965895 -0.0054446417 0.012738456 -0.021360716 0.011169057 0.06578491 -0.019953674 -0.085086 0.016920824 0.07699605 0.099342145 -0.042085808 0.04232498 -0.04161097 0.02622674 0.03527481 0.06205571 -0.06336851 -0.08111139 -0.051221926 0.007203526 0.023630781 0.006187274 0.05268133 0.080411315 -0.022463193 -0.007296631 0.0118870875 -0.05297293 -0.0028500278 0.0019481119 -0.020433638 -0.03281248 -0.005713802 -0.015956927 -0.081604086 -0.029806359 0.07856788 0.05156037 -0.062413882 0.03904544 0.0788963 0.041148018 -0.026749456 0.009179331 0.098637834 0.07332902 -0.04116885 -0.047447115 -0.021832788 -0.008389809 -0.08698821 0.084163606 -0.015081676 -0.023871535 0.08065974 -0.020621728 0.08099671 -0.08947073 -0.081650786
俩 0.042881925 0.001268177 -0.05434851 -0.1296027 0.006333859 -0.016793763 0.041600287 0.0028592835 -0.002604603 0.03229084 -0.006924587 0.027121454 0.016225955 0.031270143 -0.08546858 0.007459437 -0.019989667 -0.109143905 0.034287762 0.010675454 -0.068266064 0.009636725 0.011131844 0.021273255 0.025496839 0.0845393 0.06484585 0.053778585 0.0011081297 -0.024653286 0.034682207 0.006204255 -0.09660209 0.036177687 0.033248346 0.033756327 0.031011505 -0.032460086 -0.021952033 0.06935298 0.01585621 -0.0010094343 0.010591167 -0.0238212 0.012149169 0.056227744 -0.018792054 -0.070265345 0.0054953936 0.061180923 0.07713369 -0.038827393 0.038006928 -0.037395936 0.021094192 0.021723589 0.051710732 -0.05541432 -0.07339625 -0.035806708 0.011160551 0.01587498 -0.0029131267 0.05142654 0.06796452 -0.019949052 -0.0013497437 0.010928018 -0.045366537 -0.0045963386 -0.002146906 -0.01882553 -0.028211892 -0.0025570507 -0.0087976325 -0.067106456 -0.021814425 0.06246348 0.05065261 -0.046762783 0.031386886 0.07178444 0.034908526 -0.019747058 0.009191774 0.084077574 0.06402969 -0.04188844 -0.045647908 -0.022519907 -0.008434412 -0.07287437 0.07499529 -0.012585296 -0.017443668 0.070326336 -0.017896697 0.060834218 -0.080453545 -0.07088303
小皮球 0.03712029 -0.005400052 -0.05116456 -0.11962572 0.011360824 -0.021456905 0.041222725 -0.0065074256 0.0023931668 0.029772155 -0.002778878 0.026179807 0.020896452 0.03649428 -0.0754162 0.000944714 -0.018772813 -0.109640405 0.03937186 0.0107810795 -0.06543984 0.008407014 0.01397755 0.02338768 0.031116748 0.09108452 0.067453064 0.05618324 0.00957296 -0.020718062 0.031107329 0.0026630962 -0.093355075 0.035527006 0.027087495 0.03718977 0.029822957 -0.02875104 -0.017942283 0.076689355 0.013633645 -0.0056869877 0.009173979 -0.02378539 0.014874299 0.056311283 -0.018881708 -0.06763795 0.007723643 0.06452369 0.08268574 -0.035676 0.03579566 -0.033843163 0.02195203 0.026655778 0.04682709 -0.048938643 -0.07164183 -0.038095243 0.011081798 0.02034988 -0.002128095 0.041218594 0.06365046 -0.020066358 -0.0025899345 0.00771367 -0.044488758 0.0021676084 -0.007032761 -0.020111177 -0.029042775 -0.0024809162 -0.014460901 -0.058962416 -0.023928173 0.062678345 0.04601003 -0.051571548 0.032746516 0.069960445 0.034756083 -0.02736791 0.011989415 0.08031903 0.06856024 -0.037781578 -0.04254086 -0.017672302 -0.0057702297 -0.065936044 0.06890746 -0.011910482 -0.022069825 0.06422768 -0.02063945 0.05732246 -0.072066195 -0.06991411
赵德汉 0.035654258 0.0021971837 -0.045986716 -0.119517975 0.013390906 -0.018011367 0.030476669 0.0030170588 0.00076700264 0.020742817 -0.0044243475 0.027628018 0.015814176 0.029510781 -0.07683061 0.0066534304 -0.020462276 -0.09772563 0.029109268 0.007431798 -0.06523338 0.0009618222 0.013430322 0.023564512 0.026318496 0.084133744 0.06742515 0.053080097 0.0093542775 -0.013095968 0.025190212 0.0012543284 -0.08558581 0.02883388 0.025818942 0.03332346 0.023970064 -0.025532544 -0.012503004 0.0687733 0.016134666 -0.0064670537 0.006243825 -0.018149303 0.01640988 0.048773915 -0.013631866 -0.064712785 0.0051073143 0.051728293 0.07336518 -0.033742163 0.030317944 -0.036096405 0.020418404 0.022324359 0.047332093 -0.04475686 -0.06641005 -0.04082865 0.0076503903 0.01360464 0.0024178352 0.043315265 0.055761665 -0.02323783 -0.00840648 0.0040600607 -0.04253315 -0.0049434956 -0.0010642632 -0.019098723 -0.030115575 -0.007364688 -0.007907532 -0.062387243 -0.022137836 0.05878895 0.04251421 -0.040470257 0.027295504 0.061866473 0.02978326 -0.016939722 0.0053966874 0.07571629 0.059778832 -0.038115233 -0.04267045 -0.01182361 -0.0032251938 -0.0699601 0.06094912 -0.015603321 -0.020134833 0.06159026 -0.019844938 0.05888287 -0.06994187 -0.060130417
工作 0.04375497 -0.004578496 -0.056502793 -0.13436696 0.014266766 -0.021319786 0.038810667 -0.000611226 -0.0020714586 0.033783685 -0.0010976053 0.024439994 0.021059217 0.032986958 -0.08221567 0.009544653 -0.025500232 -0.11281464 0.040206723 0.01207937 -0.06814012 0.0072590364 0.016453404 0.023198146 0.02671234 0.096073255 0.06987581 0.061223853 0.002318347 -0.024908375 0.034223113 0.0006969475 -0.09712464 0.033938993 0.02980377 0.038540177 0.031125026 -0.03479916 -0.019394102 0.072519325 0.015056447 -0.004903267 0.0062935716 -0.015505753 0.01210625 0.059044868 -0.019484332 -0.07696076 0.014137672 0.06273766 0.08346691 -0.03401407 0.030706296 -0.031032778 0.021280803 0.024336277 0.051498976 -0.052096646 -0.06984008 -0.03596041 0.0030896338 0.024565967 -0.0025975707 0.043408815 0.06739231 -0.018518543 -0.008867071 0.0048369607 -0.04735286 -0.0017141666 -0.0003291797 -0.013813995 -0.03536773 -0.0015103575 -0.0103321895 -0.0656124 -0.021715418 0.06648271 0.04879918 -0.04665875 0.03437559 0.072331816 0.03802534 -0.022570802 0.0069222148 0.07882249 0.07052043 -0.04216537 -0.045274395 -0.015600285 -0.008402165 -0.07263295 0.07841727 -0.0144229205 -0.017075354 0.06471675 -0.016838849 0.070136994 -0.07874133 -0.06790815
没想到 0.036761247 -0.003457771 -0.050219927 -0.12243754 0.008801636 -0.019354511 0.034175165 -0.00310892 0.0059011043 0.028434485 -0.004914899 0.020914668 0.020596402 0.035427254 -0.073244765 0.007717198 -0.021256993 -0.1033939 0.035718318 0.008566604 -0.06831954 0.0064114756 0.011093342 0.027720027 0.02250128 0.08731062 0.062232766 0.05693873 0.009299139 -0.021035714 0.025555227 -0.0038420535 -0.08699172 0.030392416 0.028906487 0.029239208 0.022530843 -0.023264965 -0.0188976 0.07260001 0.016102009 -0.0009354438 0.008123759 -0.016359305 0.013230461 0.05591903 -0.014711664 -0.07048973 0.013161434 0.061876915 0.07935844 -0.036636032 0.029190026 -0.028290471 0.01686903 0.028041178 0.043828387 -0.0493698 -0.06768602 -0.038668126 0.009787127 0.01738079 0.0030979726 0.046127465 0.065511696 -0.019251406 -0.005870673 0.0052627767 -0.038007908 -0.00378971 0.00095520914 -0.01378055 -0.031636868 -0.0015710493 -0.007936416 -0.06237232 -0.026481269 0.059263725 0.0433474 -0.044269733 0.03565251 0.063978806 0.035818882 -0.021372806 0.010356524 0.076460145 0.056771215 -0.030796992 -0.039020743 -0.020546354 -0.012112134 -0.068238 0.064638 -0.012152401 -0.012979703 0.062875114 -0.018215094 0.059575748 -0.0700094 -0.062042706
周正 0.04340266 0.00032766134 -0.04344372 -0.11299106 0.008956938 -0.016336337 0.030328527 -0.0011259763 -0.003249612 0.024233323 -0.0076813726 0.025494946 0.015128594 0.033306334 -0.07130445 0.00743903 -0.020116974 -0.10252038 0.03190806 0.009084252 -0.0686011 0.0015979052 0.015605437 0.020020701 0.02920627 0.08230451 0.069153115 0.051613677 0.0006620876 -0.016923124 0.024466792 -0.0028277254 -0.08921336 0.03541844 0.034110256 0.03125242 0.02219686 -0.02276394 -0.015549537 0.06879381 0.01642447 -0.005810243 0.0038494905 -0.019362599 0.015613446 0.05546644 -0.019877968 -0.07025904 0.0050884695 0.053324915 0.07200553 -0.039080378 0.031431243 -0.032902792 0.018471459 0.025859052 0.042878736 -0.048258197 -0.06544598 -0.041564494 0.008730543 0.021546781 0.0051880227 0.04333679 0.055598892 -0.018351592 -0.005387346 0.0024716002 -0.038145334 -0.003104273 0.001401178 -0.017692676 -0.028357273 -4.503789e-05 -0.009274476 -0.056874674 -0.023089293 0.058227334 0.040694598 -0.040533643 0.025833225 0.06301454 0.029606855 -0.020321805 0.01132297 0.07131454 0.06241035 -0.032727893 -0.03421685 -0.017165529 -0.0038681447 -0.06578301 0.06358009 -0.01479433 -0.021399204 0.057792246 -0.014382519 0.058876716 -0.075959496 -0.057814594
孙连城 0.033375062 -0.005874214 -0.04368979 -0.10056025 0.010591602 -0.014668547 0.027131677 0.0038426032 -0.00038654756 0.021168176 -0.00034138936 0.019030062 0.014555307 0.030803433 -0.066854484 -0.0005022124 -0.021473065 -0.09545406 0.03102333 0.008766419 -0.055846956 0.0029591313 0.00889794 0.02426283 0.019915048 0.07095463 0.051958267 0.048273817 0.0011674043 -0.012029594 0.028707612 0.003296197 -0.073006354 0.025849648 0.021314703 0.026743041 0.0230908 -0.021422455 -0.01656399 0.06064614 0.0052473424 -0.003114323 0.0016162376 -0.0151571715 0.008205217 0.04718826 -0.010859888 -0.062468458 0.012078786 0.048429985 0.06924641 -0.033159934 0.023793807 -0.029358799 0.021013997 0.021278765 0.040188223 -0.041588012 -0.05938336 -0.034695994 0.0042458037 0.01783362 -0.0041630883 0.036989048 0.055148736 -0.022444248 -0.0029750278 0.009125754 -0.031118777 0.001418974 0.00035716072 -0.016276818 -0.022111554 0.0006628465 -0.008740632 -0.056539558 -0.022138232 0.047165245 0.03777849 -0.0411357 0.029996386 0.052726645 0.025232967 -0.020030184 0.0104036955 0.064304404 0.051290944 -0.03269812 -0.033530205 -0.01809014 -0.0030688506 -0.054831956 0.06144744 -0.008624626 -0.013168356 0.051366057 -0.017887898 0.056084234 -0.062429987 -0.051782675
回来 0.041183986 -0.001919985 -0.045251016 -0.114189714 0.006851918 -0.018321233 0.03861142 0.0032263272 -0.00067672983 0.022970531 -0.0020318392 0.027621455 0.017739546 0.03158348 -0.0780271 0.008323684 -0.016873239 -0.0987671 0.03336148 0.013775205 -0.06656565 -0.00013596458 0.0096283 0.023154896 0.023749966 0.081576616 0.06705591 0.049689773 0.0047173584 -0.016192472 0.024361715 -0.0016538581 -0.08307108 0.033307318 0.028633736 0.029750181 0.029540394 -0.023684563 -0.020192964 0.070236124 0.011932127 -0.0026116443 0.0048153964 -0.019525649 0.0166674 0.051935848 -0.01425447 -0.066744514 0.006614359 0.05113308 0.07181683 -0.035010077 0.035668902 -0.028125212 0.013209144 0.02249431 0.045802448 -0.04852367 -0.065816484 -0.0392468 0.0039043098 0.020032207 -0.00028912188 0.04352859 0.054566905 -0.01760056 -0.0059068296 0.0018152888 -0.0442918 -0.0022212798 -0.0027145683 -0.018395623 -0.024239037 -0.009217841 -0.013202572 -0.06198078 -0.026701078 0.05598814 0.041469738 -0.043299265 0.028037569 0.060723264 0.028039832 -0.023850204 0.008465326 0.07366825 0.05708282 -0.036867626 -0.04029663 -0.018693047 -0.008707509 -0.06370245 0.07002829 -0.009785925 -0.020679079 0.06021326 -0.01936138 0.062373143 -0.07536571 -0.06350552
听 0.034430623 0.00043420866 -0.047637388 -0.10686367 0.0069452566 -0.012166485 0.032282174 -0.0038682309 2.812549e-05 0.025894726 -0.003924208 0.022954213 0.012619058 0.029705254 -0.06976964 0.0024094197 -0.02490081 -0.09672984 0.029039389 0.011866924 -0.056018792 0.0043080975 0.011069351 0.02044608 0.027328739 0.079721466 0.057330187 0.051640682 0.0035538024 -0.014579052 0.023559455 0.002402448 -0.082780905 0.033357468 0.031601742 0.031171933 0.026506647 -0.024605649 -0.020764066 0.06715154 0.01516524 -0.0015764129 0.0040370347 -0.016547581 0.0081158085 0.054139715 -0.019179398 -0.059103586 0.013217595 0.05545466 0.06828081 -0.03153774 0.02926312 -0.029025827 0.018999012 0.028357226 0.038378164 -0.04008272 -0.06289596 -0.032109085 0.010207198 0.020849729 0.002161534 0.044931002 0.059751447 -0.021867033 -0.0026222446 0.00701821 -0.03543649 -0.002099261 -0.0037938338 -0.019610837 -0.023603424 -0.008102065 -0.0153330015 -0.055005744 -0.025526775 0.059756543 0.041312832 -0.04403563 0.025559189 0.05911077 0.0313878 -0.024061855 0.01092893 0.073273785 0.05957604 -0.03553119 -0.032183506 -0.017650736 -0.009606868 -0.06187518 0.06579648 -0.009154707 -0.0105647575 0.059868935 -0.018862907 0.051842473 -0.06507068 -0.054178804
秘书 0.047264773 -0.006461101 -0.06007375 -0.1501016 0.011182619 -0.020440644 0.044093914 -0.0035766198 -0.0025003103 0.033327702 -0.009175595 0.034997877 0.02505469 0.04068947 -0.09261035 0.00190094 -0.03027604 -0.13357633 0.042836268 0.010785659 -0.08223278 0.008380421 0.020117374 0.032458562 0.03884293 0.10472008 0.08486065 0.071644664 0.004245167 -0.022382822 0.038631327 -0.002181769 -0.1124194 0.037680313 0.03874234 0.041100495 0.03264229 -0.03384421 -0.021216983 0.08677386 0.016625412 0.00032084974 0.011629053 -0.024521545 0.01757279 0.06509674 -0.016895594 -0.081591 0.0070527294 0.0756191 0.095036484 -0.044578277 0.040423844 -0.03961378 0.02791139 0.030457854 0.05837991 -0.06107532 -0.07620085 -0.05021958 0.0063959435 0.021096414 0.0019551707 0.057029463 0.07983402 -0.025352648 -0.008149483 0.00960262 -0.048163038 -0.006706158 -0.0050086835 -0.020901257 -0.03842039 -0.009512534 -0.015693067 -0.07706612 -0.033913497 0.074920356 0.052285757 -0.061335534 0.040115412 0.07861958 0.044750705 -0.026385453 0.008655212 0.09537272 0.0730813 -0.045884702 -0.051703267 -0.026425889 -0.0092112655 -0.08519239 0.081261985 -0.019609123 -0.020506423 0.080864884 -0.026064608 0.0775206 -0.08860954 -0.081209905
　 0.062968396 -0.0020457644 -0.07915611 -0.19332133 0.014021049 -0.032985207 0.05695203 -0.0012119518 0.002190112 0.039643783 -0.005669517 0.035989262 0.03170937 0.058107734 -0.12474887 0.007755373 -0.039034102 -0.17314352 0.056974605 0.017701184 -0.10997871 0.009577789 0.025668565 0.043257814 0.046459153 0.1325643 0.10104085 0.09199579 0.012477284 -0.027430598 0.040932298 0.0016790552 -0.14179435 0.05885388 0.04317563 0.058312885 0.04311333 -0.049675748 -0.027989449 0.11775201 0.018363958 -0.010273575 0.0059690676 -0.026418855 0.020231336 0.09499707 -0.031880487 -0.105883546 0.016110562 0.098464295 0.1196383 -0.054137457 0.05636777 -0.051364835 0.025916243 0.04237057 0.07736482 -0.07812388 -0.10446298 -0.058738593 0.0089691905 0.024672821 -0.0014761642 0.072074614 0.10069767 -0.031458005 -0.009606998 0.008533024 -0.06401506 -0.00567841 -0.0066653797 -0.024322007 -0.047956713 -0.008089844 -0.019916736 -0.102106564 -0.042929273 0.10139746 0.07553552 -0.07320099 0.055655424 0.10290546 0.057886366 -0.042946335 0.013955921 0.1251654 0.10306808 -0.05794272 -0.060412556 -0.026333034 -0.0073841596 -0.108735435 0.111585975 -0.02377625 -0.032429524 0.096860796 -0.033707205 0.09495647 -0.11971649 -0.10521548
肖钢玉 0.030891154 -0.0054570935 -0.032898672 -0.085685104 0.011860231 -0.010514696 0.025598379 -0.0052344482 0.00032290016 0.013142211 -0.0056659672 0.017505156 0.0074858656 0.023149833 -0.048476428 0.0018990065 -0.013572921 -0.06947181 0.026158705 0.008778045 -0.04881074 -0.00015258827 0.013972554 0.013493401 0.020251239 0.060205866 0.046866644 0.03433121 0.0035083855 -0.015496791 0.015807817 0.0057794377 -0.06376044 0.027221762 0.024635596 0.02375243 0.021400169 -0.015116227 -0.016373277 0.04302138 0.010357802 0.001455402 0.0064467518 -0.012792123 0.011496491 0.035621956 -0.013930613 -0.04227109 0.007159944 0.036687274 0.05393188 -0.023012856 0.024411555 -0.018675048 0.016219107 0.014961437 0.026953533 -0.033534657 -0.04651239 -0.023836562 0.006615804 0.012455539 0.004074074 0.02882563 0.03905973 -0.016146736 0.0011817747 0.00079610903 -0.026304694 -0.000487251 0.00047557466 -0.008091542 -0.023190752 -0.00749867 -0.0077936393 -0.041818358 -0.020020483 0.036831085 0.031048376 -0.029437862 0.022967625 0.04088983 0.024270035 -0.016017672 0.009258575 0.053891897 0.042944606 -0.025536135 -0.029042337 -0.015801098 -0.006254133 -0.047842935 0.04974884 -0.010254886 -0.009834448 0.047430348 -0.011066128 0.045836177 -0.046901286 -0.04422229
接到 0.040494677 -0.0013067799 -0.049277216 -0.11613611 0.012151854 -0.018339427 0.029835548 -0.004706389 -0.0022488497 0.023877488 -0.006302689 0.019734943 0.013719001 0.034490403 -0.07476411 0.005555582 -0.017987236 -0.100487635 0.038105875 0.015948325 -0.06787947 0.007823514 0.016213141 0.023878744 0.026643552 0.081516236 0.06485756 0.047953594 0.006657891 -0.01667789 0.024568046 -0.0009867696 -0.090842895 0.037435457 0.029186783 0.035782926 0.025885094 -0.027230613 -0.020087983 0.06957712 0.014006007 -0.0035503495 0.008303714 -0.01627554 0.014459184 0.052911405 -0.021417791 -0.06293282 0.0073900255 0.056934103 0.074660875 -0.038580537 0.03150015 -0.02987665 0.014399102 0.028749347 0.04303027 -0.047943443 -0.059650563 -0.041369442 0.008602605 0.019172814 -0.0033261592 0.045919757 0.06407499 -0.02027583 -0.008197182 0.008378697 -0.04033042 -0.0041645947 -0.0042149047 -0.011711226 -0.031842716 -0.007624076 -0.011560317 -0.06339373 -0.020977018 0.061041713 0.039251722 -0.048250332 0.032129146 0.058962937 0.034272682 -0.02443649 0.007202447 0.07602259 0.0645472 -0.031018695 -0.03444153 -0.01963243 -0.006895951 -0.06606012 0.06496753 -0.01135516 -0.013484867 0.06275216 -0.017756436 0.06321812 -0.07346649 -0.06500973
检察院 0.043821372 -0.00026786872 -0.05193043 -0.12638293 0.0076420344 -0.021058755 0.03962556 0.0028100803 -0.0025695113 0.027424617 -0.0069674384 0.025383024 0.018562686 0.030629909 -0.08635012 0.0077066845 -0.027332263 -0.11810571 0.040920984 0.017544629 -0.072380446 0.0030681202 0.019454902 0.024849227 0.029619077 0.09034787 0.06616577 0.054004613 0.002882728 -0.016498195 0.029761072 0.0048347544 -0.097756386 0.03597002 0.03357289 0.036194593 0.029113784 -0.027009267 -0.022802701 0.073892765 0.012127332 0.0001344479 0.00701802 -0.02066529 0.012125156 0.062524505 -0.017825492 -0.07351893 0.0069369744 0.06343076 0.0885891 -0.035648335 0.032318775 -0.03167004 0.022266349 0.02684007 0.050560474 -0.05071597 -0.07495062 -0.04326168 0.009199926 0.016719397 -0.0034687268 0.046392616 0.062275738 -0.021390514 -0.010662727 0.0037822481 -0.040397994 -0.0069820234 -0.0066407956 -0.019789651 -0.028060947 -0.0009610342 -0.012786793 -0.07055349 -0.024721606 0.06710452 0.05144841 -0.04905612 0.038515665 0.073049426 0.03880155 -0.023708377 0.0072978605 0.08418644 0.06198609 -0.034183126 -0.041088313 -0.01883193 -0.012271424 -0.0758684 0.07526671 -0.019295491 -0.0138097685 0.06889758 -0.020583237 0.070166655 -0.07775787 -0.07015102
省委 0.038375687 -0.0028449912 -0.052802388 -0.1323124 0.014488672 -0.023803832 0.03629407 0.001021231 0.0043548234 0.029032113 -0.010868041 0.026803158 0.023224957 0.0396133 -0.082818896 0.005204052 -0.022474838 -0.11847896 0.03613974 0.016387565 -0.077143185 0.008719452 0.019491384 0.02161634 0.030498883 0.09247187 0.0758328 0.06278549 0.007098133 -0.025013793 0.031123323 0.0062478464 -0.09765489 0.041716762 0.032061085 0.038007163 0.03441284 -0.027762754 -0.018091055 0.0715088 0.012639954 -0.002841489 0.0036594754 -0.022530649 0.01169715 0.06299409 -0.022689635 -0.07756987 0.006532355 0.06511182 0.08290139 -0.04042983 0.029994018 -0.03813452 0.019801846 0.025524348 0.046271976 -0.055687334 -0.06827823 -0.04313564 0.009134278 0.01722291 0.005271084 0.050306484 0.07135927 -0.020757154 -0.00845647 0.011674877 -0.040146686 -0.0003069834 0.0027982015 -0.018575264 -0.03525808 -0.0054539004 -0.009057512 -0.06831315 -0.029382713 0.061040923 0.04713688 -0.047872256 0.03607661 0.072854996 0.039429974 -0.026948757 0.009868342 0.085789196 0.06971719 -0.039621837 -0.044161063 -0.018242605 -0.007934772 -0.07649853 0.078854404 -0.015435578 -0.018509194 0.071919054 -0.023876015 0.061143246 -0.081423774 -0.07231981
钱 0.04865779 0.002081612 -0.05745695 -0.14766751 0.008932331 -0.01978053 0.048534065 0.0005814799 0.0032908802 0.037511855 -0.004620929 0.026070112 0.024500944 0.04430217 -0.10163706 0.0069595543 -0.031989805 -0.13225476 0.04739729 0.011697806 -0.08299676 0.0063452474 0.019420428 0.029350182 0.03599712 0.10908272 0.08088557 0.06944169 0.008231188 -0.019679945 0.031675268 -0.0010457855 -0.10842925 0.048064776 0.03276833 0.041674383 0.035728127 -0.03371356 -0.024170427 0.09016501 0.019551007 -0.008444032 0.012360302 -0.020873636 0.020692095 0.07369506 -0.02081211 -0.08422285 0.015835928 0.070723265 0.10203227 -0.047734167 0.03863692 -0.04612103 0.02027389 0.035526734 0.063074715 -0.06333832 -0.08165965 -0.047418777 0.01005337 0.0192517 0.0021720731 0.054908853 0.076629505 -0.029445035 -0.008091566 0.00821847 -0.04841114 -0.0006347688 -0.0055645565 -0.024228394 -0.035232116 -0.0057962383 -0.012551192 -0.07432949 -0.03422341 0.07391225 0.05954818 -0.055681568 0.036176465 0.08533323 0.04219327 -0.030595638 0.012613357 0.092375875 0.08005791 -0.04123665 -0.05539825 -0.019470885 -0.008020625 -0.08618644 0.09076224 -0.022132862 -0.018318372 0.08203362 -0.024715345 0.07634143 -0.09300602 -0.07978859
指责 0.04152256 -0.0018520588 -0.051577136 -0.12461737 0.01124641 -0.022668682 0.03994447 -0.004455468 0.003004125 0.024097968 -0.0056795874 0.027336897 0.013213959 0.037441745 -0.07836214 0.00033100013 -0.026406769 -0.115481436 0.036830988 0.013157553 -0.07265221 0.0043352726 0.01937545 0.029024152 0.032156236 0.08429125 0.07375315 0.05996898 0.0038007933 -0.017122874 0.032230962 0.00049266906 -0.09269834 0.03489739 0.03106908 0.030873341 0.03009628 -0.03313229 -0.021212883 0.07495964 0.012926516 -0.0042123892 0.009969714 -0.015419002 0.011485215 0.054021146 -0.02247866 -0.067357294 0.014986577 0.06577472 0.07597144 -0.035880353 0.034443654 -0.033901766 0.018283471 0.030646417 0.051114157 -0.054456223 -0.0717299 -0.040524732 0.007966274 0.021688646 -0.0029448778 0.047298074 0.0654985 -0.02427927 -0.006895206 0.003834963 -0.044262387 -0.006490196 -0.004268338 -0.015226139 -0.027395971 -0.0031263542 -0.017832149 -0.06540681 -0.0216645 0.06018587 0.0468785 -0.049287483 0.032803282 0.06847994 0.032339435 -0.028624754 0.011976011 0.08332915 0.06721549 -0.037125196 -0.04376902 -0.022261148 -0.010743116 -0.07203739 0.071894184 -0.014821805 -0.020744016 0.064229004 -0.015643032 0.060416903 -0.08016069 -0.067139976
解释 0.047972865 -0.003234678 -0.05268812 -0.12514615 0.014009992 -0.02110931 0.035018746 0.00028141632 0.004765407 0.02490963 -0.0012256703 0.024761753 0.019790055 0.03439031 -0.07797049 0.008954147 -0.025126291 -0.11330626 0.040101055 0.017408604 -0.07069264 0.00039711138 0.013301886 0.027994474 0.02897838 0.095013656 0.07095118 0.062475543 0.005550802 -0.02118769 0.034406535 0.0005554272 -0.09358172 0.039328963 0.029509386 0.03458028 0.026432535 -0.0271579 -0.015443371 0.072175115 0.00927939 -0.001931843 0.003629618 -0.019519225 0.009158289 0.05678904 -0.023467721 -0.076236784 0.009357502 0.064768106 0.08311009 -0.036860105 0.03330759 -0.03246684 0.020763109 0.024413157 0.046833735 -0.05561019 -0.07172174 -0.03530933 0.010564007 0.021486178 0.0025509046 0.051551756 0.062009797 -0.023702428 -0.0040103435 0.002426504 -0.043650612 -0.0005427183 0.0017216535 -0.02083618 -0.02978761 -0.003980216 -0.009221967 -0.06560181 -0.022693101 0.060199276 0.049349204 -0.04720737 0.035413593 0.06640252 0.03585219 -0.028154772 0.008199734 0.08336135 0.061294243 -0.036903556 -0.04025558 -0.020492138 -0.005327328 -0.077446915 0.069607034 -0.014170019 -0.022123225 0.06911015 -0.017294051 0.066635184 -0.07996535 -0.06505416
这时候 0.023031307 -0.005439509 -0.032578554 -0.07780442 0.011220399 -0.01213186 0.028669761 -0.0031167076 9.136364e-05 0.018500919 -0.0075988597 0.013133116 0.014104868 0.01760755 -0.056583233 0.0019386185 -0.017199414 -0.07499046 0.022793554 0.006961467 -0.049586404 0.006669092 0.007004588 0.0186999 0.022479484 0.058483306 0.04486188 0.033330873 0.004588738 -0.014790361 0.01630386 0.0031550254 -0.06099126 0.020815333 0.016218867 0.0217476 0.014952968 -0.017354032 -0.01654541 0.045666106 0.012772673 -0.00026314042 0.001425337 -0.008266773 0.0045243464 0.039567444 -0.010205452 -0.046414692 0.008921047 0.04364285 0.0499815 -0.027248519 0.01690764 -0.021279145 0.012954065 0.016252989 0.03662316 -0.032361694 -0.04703477 -0.021686828 0.0010181714 0.014817435 -0.002700686 0.033575624 0.03967377 -0.01005048 -0.00470295 0.0009968404 -0.023307094 0.0015665063 -0.0023411731 -0.013767401 -0.01717375 -0.0074214237 -0.0055190087 -0.039485324 -0.013946674 0.040800314 0.03238598 -0.027341722 0.01813774 0.048665687 0.019365272 -0.019159984 0.0070714834 0.055584706 0.04156242 -0.021520615 -0.027355274 -0.0114103025 -0.0014934437 -0.044178586 0.050887126 -0.011819024 -0.013974876 0.038374778 -0.009059644 0.04370415 -0.050284706 -0.045118652
怀疑 0.028960187 -0.0061741183 -0.042323507 -0.103759155 0.012835715 -0.012658438 0.025661487 -0.0055384473 -0.0011222113 0.019032067 -0.0062191966 0.022037195 0.013256361 0.023402955 -0.06678326 0.0029524167 -0.016970595 -0.09065669 0.02600347 0.010252124 -0.058021158 0.0018144342 0.011284699 0.022757078 0.024238672 0.067883104 0.0503933 0.045283496 0.009385779 -0.020233605 0.023806024 0.0015832874 -0.07482313 0.03052037 0.024477988 0.027009549 0.019671177 -0.017685825 -0.014713419 0.059264515 0.006250087 -0.006337632 0.0017310466 -0.01957998 0.008425973 0.042094585 -0.018398013 -0.05794392 0.0106510315 0.0527601 0.06382257 -0.024506092 0.030401265 -0.026559884 0.016102085 0.020279968 0.041686255 -0.036581293 -0.057111837 -0.030649245 0.005382779 0.010088685 -0.0027551823 0.033334892 0.056038838 -0.017632127 -0.0018801942 0.004401345 -0.0313856 -0.0011619263 -0.0042709247 -0.015695402 -0.024629153 4.2809042e-05 -0.009583583 -0.051268388 -0.024573795 0.049272623 0.0364323 -0.03439992 0.02329582 0.050388686 0.028664803 -0.022058187 0.008959365 0.065540634 0.0557958 -0.024961445 -0.028014533 -0.014374379 -0.0046962537 -0.059873123 0.05693229 -0.008537548 -0.011451507 0.048854098 -0.019632207 0.049309723 -0.058096517 -0.05292193
交代 0.042241283 -0.005562164 -0.05557345 -0.1361882 0.0072480235 -0.019375777 0.035768677 -0.005494043 0.0014498102 0.027559051 -0.0046374537 0.027906531 0.014385448 0.031420384 -0.08191924 0.002240228 -0.01902688 -0.12001335 0.037053052 0.010478077 -0.07397064 0.0074538486 0.018232109 0.028097862 0.029325694 0.09144015 0.07046121 0.057949312 0.0020011438 -0.020566652 0.029706009 0.004270948 -0.09441501 0.03633634 0.030189648 0.033469416 0.029713241 -0.028856255 -0.019579286 0.07847587 0.018359184 0.00069070846 0.0039523435 -0.023760539 0.009188405 0.062542915 -0.023900658 -0.0699257 0.009755663 0.06287534 0.082611896 -0.040649034 0.03257714 -0.040606223 0.017407037 0.022951964 0.04848705 -0.05715917 -0.07410715 -0.03748711 0.0026272146 0.023653764 0.0008193539 0.05223394 0.07138866 -0.026725814 -0.010647117 0.0059212954 -0.04323948 0.0012187927 -0.0017862226 -0.020831639 -0.029948398 -0.0049145343 -0.009409093 -0.07017754 -0.024349274 0.06271401 0.046249773 -0.05286087 0.034229368 0.070074566 0.03574451 -0.027785242 0.008366232 0.08478085 0.06270614 -0.037033066 -0.044018578 -0.021163011 -0.009228253 -0.07935177 0.07250874 -0.012700634 -0.022676004 0.069014095 -0.014591561 0.06442936 -0.084737174 -0.07302322
