500 30
侯亮平 -0.2542533 -0.3344545 -0.04140248 0.30320305 0.07984026 -0.27530777 -0.16972722 -0.048385903 0.7680785 -0.59020543 0.12143728 0.19018118 -0.28753668 0.25387487 0.52566344 0.14774993 0.30541843 -0.22122262 0.2942843 0.024225842 -0.42575985 0.31110734 0.09791705 -0.3415311 0.0066126054 0.048576705 -0.027197052 0.53238726 0.1203926 -0.114669
李达康 -0.20278297 -0.267861 -0.018596537 0.2256445 0.054990225 -0.23581691 -0.15181418 -0.05812198 0.5852398 -0.44794908 0.10809136 0.12695941 -0.22664887 0.18751949 0.41969675 0.09340722 0.20975229 -0.16598447 0.24681644 0.0025999707 -0.31755474 0.26242888 0.08886041 -0.25680912 0.012425612 0.04634826 -0.025187526 0.40169644 0.09210676 -0.07064052
高育良 -0.15520072 -0.2220798 -0.041384313 0.20675892 0.04193956 -0.19015476 -0.10173729 -0.033908978 0.48001176 -0.3911888 0.07880641 0.107181944 -0.18438631 0.15471794 0.340383 0.087253295 0.19725546 -0.15407242 0.19924517 0.017452292 -0.26033095 0.22048908 0.054735873 -0.23695996 -0.0041598207 0.04121988 -0.02099621 0.3438457 0.07497472 -0.049807344
祁同伟 -0.1694963 -0.2432461 -0.012722434 0.19955894 0.055224486 -0.20289351 -0.12603983 -0.031748436 0.5162337 -0.4036969 0.09813084 0.1372389 -0.19371183 0.15434584 0.3687494 0.08797494 0.21048038 -0.17522015 0.20470713 0.0036322405 -0.28363815 0.22807683 0.06537812 -0.24615958 -0.004462397 0.043352377 -0.02122538 0.3687706 0.0759252 -0.08279571
蔡成功 -0.17441082 -0.25008324 -0.015262668 0.2042087 0.068421505 -0.18684404 -0.10707644 -0.05313648 0.52396166 -0.39184666 0.09473306 0.13626924 -0.21520008 0.17861581 0.35692585 0.10419016 0.20377675 -0.15756802 0.21400769 0.009324351 -0.3022656 0.23221414 0.062465858 -0.22074214 0.011984373 0.023766302 -0.0005519584 0.3686796 0.106980085 -0.082696974
沙瑞金 -0.13936496 -0.19334199 -0.040395208 0.19089334 0.0507981 -0.15557478 -0.10431059 -0.019788722 0.42934155 -0.33659926 0.07310428 0.121527106 -0.16255324 0.15741542 0.31884804 0.10046273 0.16338389 -0.13945049 0.17934766 0.009085019 -0.25413865 0.19772421 0.053239554 -0.1977238 -0.0027949107 0.019154508 -0.026213503 0.32130668 0.0922203 -0.060122762
高小琴 -0.14410463 -0.21531874 -0.033786044 0.20424701 0.053665504 -0.18724039 -0.10922881 -0.024316413 0.46337447 -0.34869754 0.08031615 0.11364151 -0.17080551 0.15519966 0.3147701 0.09812445 0.18667322 -0.15187901 0.20340528 -0.0054295664 -0.26072228 0.20582621 0.07312088 -0.1954673 -0.013227522 0.032761507 -0.020429576 0.32600787 0.068676606 -0.07461685
陆亦可 -0.17364609 -0.22436403 -0.02942311 0.1888067 0.045055732 -0.18998107 -0.10132554 -0.04687147 0.49179003 -0.35304216 0.077198446 0.12865503 -0.19195168 0.15862937 0.32582104 0.108858414 0.18853465 -0.14748265 0.18714182 -0.0060255844 -0.2799087 0.22020397 0.06829189 -0.21113577 -0.007900062 0.04380219 -0.0031579451 0.3427126 0.07937409 -0.04700949
 -0.07592071 -0.105530806 -0.012481957 0.0906876 0.0015200331 -0.08445355 -0.056019392 -0.030576978 0.18135868 -0.13944018 0.020329855 0.039836466 -0.07880239 0.07630587 0.13140304 0.04145879 0.08610904 -0.06535708 0.09272043 0.01694496 -0.09788776 0.08184843 0.039350785 -0.08050608 -0.0056322743 0.022396669 -0.0063515846 0.13224635 0.050048023 -0.007016101
赵瑞龙 -0.1575953 -0.17538604 -0.03831638 0.17209809 0.05542319 -0.1695088 -0.116021074 -0.015969664 0.4241869 -0.31972143 0.079461254 0.09907307 -0.14785215 0.13363914 0.31016514 0.08293852 0.14951436 -0.14723867 0.16917801 -0.0021955478 -0.229614 0.18068641 0.048147034 -0.18561818 -0.005605033 0.047163855 -0.0025642691 0.28049615 0.08826086 -0.047728695
丁义珍 -0.1521087 -0.2247644 -0.03530851 0.20778193 0.06399968 -0.1891049 -0.11961384 -0.036521446 0.4771934 -0.37667197 0.08344763 0.12723139 -0.16916697 0.15240704 0.33283216 0.07896423 0.1678963 -0.13239217 0.20606226 -0.00044007585 -0.2751264 0.18967749 0.05384964 -0.1971126 -0.0010503104 0.02819222 -0.02368842 0.33287513 0.097233154 -0.05573117
赵东来 -0.1736617 -0.21817313 -0.043056715 0.211014 0.06171814 -0.18391569 -0.12255894 -0.047116507 0.5205073 -0.38726482 0.101913884 0.114499204 -0.19067197 0.15660116 0.3410484 0.10932612 0.21055056 -0.15089652 0.22375116 0.0016671076 -0.27260938 0.22904602 0.07871213 -0.22567768 -0.011803749 0.046035003 -0.005169319 0.35403368 0.09053779 -0.07072449
陈岩石 -0.11095092 -0.12977062 -0.0071623945 0.11687869 0.043909777 -0.11250058 -0.08453499 -0.039228287 0.32879916 -0.23908676 0.042770773 0.07131286 -0.13827759 0.09961143 0.23926456 0.068904065 0.13953742 -0.105606645 0.12041612 0.0019287893 -0.19705331 0.12355869 0.051489666 -0.15072006 0.010329453 0.035754375 -0.015287011 0.2092141 0.05965597 -0.026633114
陈海 -0.1485026 -0.19597891 -0.009271364 0.16373649 0.063257515 -0.16527008 -0.109484114 -0.027136076 0.42220986 -0.31674328 0.07930813 0.09930527 -0.14089361 0.1441071 0.27449226 0.07140627 0.17026716 -0.12955292 0.18161762 0.0065164757 -0.23409674 0.16058394 0.0651917 -0.18398254 0.011247986 0.030969152 -0.012646942 0.29830015 0.06563917 -0.043136835
郑西坡 -0.13791439 -0.19226047 -0.034946747 0.15204589 0.04084792 -0.14078781 -0.095124744 -0.028645197 0.38731587 -0.3034296 0.084390834 0.11125896 -0.16619267 0.13723257 0.2934752 0.06590122 0.13407686 -0.1364431 0.14879645 -0.01045282 -0.22971608 0.17007276 0.0418465 -0.17440607 -0.0013261907 0.044272777 -0.019058954 0.2742145 0.06231979 -0.05685843
欧阳菁 -0.12542349 -0.19267881 -0.016162757 0.18607573 0.057357952 -0.15837786 -0.086349554 -0.041236624 0.44469616 -0.32881957 0.061081607 0.11468698 -0.15564603 0.14155647 0.29697287 0.093294986 0.15932228 -0.14686804 0.18617146 0.016829338 -0.25232533 0.19789653 0.062008094 -0.1891228 -0.013157962 0.04585021 -0.020480623 0.3015283 0.08166812 -0.052579664
找 -0.14039071 -0.1832824 -0.0078033437 0.17380068 0.029946735 -0.15798153 -0.10866565 -0.026524723 0.41409945 -0.30609187 0.07224019 0.106850736 -0.16063368 0.13652281 0.2820339 0.072613 0.13706806 -0.12463826 0.15034975 -0.004533665 -0.22557929 0.18284254 0.054708794 -0.18147135 -0.012521396 0.023212297 -0.0213521 0.26439402 0.070516184 -0.040192377
刘新建 -0.17266749 -0.22167085 -0.014271914 0.20363085 0.055209097 -0.19878912 -0.120630115 -0.04991755 0.4710273 -0.36014652 0.08372463 0.103352726 -0.19210021 0.13350919 0.33714956 0.072943255 0.17341974 -0.16201077 0.19572808 0.012990351 -0.25787565 0.19197643 0.062150985 -0.20392992 -0.013823675 0.043527223 0.0035175409 0.33216685 0.087914914 -0.050443407
季昌明 -0.12169274 -0.1564463 -0.005404076 0.13603032 0.053212892 -0.12267653 -0.0682518 -0.018655699 0.32057855 -0.25867072 0.041108564 0.066380255 -0.1070361 0.09210949 0.23516805 0.066469856 0.12119975 -0.091335386 0.1324741 -0.0077883895 -0.1718928 0.12795773 0.034781758 -0.15601088 -0.0152707575 0.022386495 -0.009705039 0.23373348 0.048631735 -0.04412509
说 -0.13615286 -0.17127566 -0.033371728 0.15532798 0.037486795 -0.13944924 -0.09128029 -0.026251296 0.36964557 -0.28969577 0.052882098 0.07555775 -0.1324058 0.10134774 0.25560778 0.07650269 0.15537985 -0.117067605 0.15059225 0.014752684 -0.1994993 0.14868373 0.032155566 -0.16701998 -0.018069094 0.01877735 -0.024221813 0.24579526 0.06623579 -0.04575828
想 -0.13455944 -0.16571216 -0.0234388 0.1641894 0.043341704 -0.13748375 -0.079638645 -0.020899367 0.38728008 -0.30520284 0.056528166 0.089019425 -0.14409852 0.11999166 0.26041394 0.055542286 0.1379703 -0.11356452 0.13867843 0.015381941 -0.21996684 0.175458 0.055445258 -0.18367375 0.004452452 0.032478333 0.0007611579 0.25159183 0.077049874 -0.054760456
郑乾 -0.14088172 -0.15723753 -0.018254781 0.17285027 0.05621531 -0.15828823 -0.083749995 -0.020077048 0.40340897 -0.28450707 0.05681377 0.1011116 -0.15677236 0.11377553 0.2834016 0.07966715 0.16007759 -0.13504818 0.15850885 -0.0075171366 -0.21301618 0.16835089 0.057141025 -0.18170412 0.00037777095 0.025687682 0.0006446959 0.26302528 0.054671865 -0.05370434
大风厂 -0.13292478 -0.14484066 -0.0068789893 0.15515389 0.050145514 -0.15181799 -0.08951793 -0.040419266 0.35628656 -0.26409024 0.07568762 0.081407934 -0.13161488 0.116900355 0.25243598 0.079695806 0.12306195 -0.10273302 0.13701546 0.010763756 -0.1939109 0.14565521 0.059904467 -0.15031792 -0.009345169 0.024629628 -0.0037952093 0.24963523 0.055954803 -0.040112514
做 -0.10569492 -0.1513623 -0.02510985 0.14850798 0.025633918 -0.12828708 -0.10100939 -0.012612871 0.3734892 -0.29548937 0.058882985 0.08825673 -0.14026262 0.10313596 0.24596475 0.06795744 0.12583171 -0.12465372 0.15080905 -0.00500353 -0.18950863 0.16643949 0.042145427 -0.17213762 -0.01443536 0.033624656 0.0036523924 0.2721267 0.07804994 -0.06475713
易学习 -0.11361209 -0.16753301 -0.03284706 0.15806699 0.02707837 -0.14012104 -0.08467709 -0.028382132 0.37655422 -0.2928488 0.07976419 0.10575839 -0.13180895 0.12470991 0.25976557 0.0893378 0.14002614 -0.104692705 0.16451985 0.0041757585 -0.22136107 0.15802771 0.035367977 -0.1902171 -0.013353788 0.013452633 -0.001851074 0.26686645 0.07305138 -0.057150714
集 -0.042382725 -0.05338642 -0.010151313 0.04918076 -0.00054696377 -0.049445517 -0.036725484 -0.025476402 0.091209844 -0.08852081 0.023360586 0.014688938 -0.022830142 0.04307808 0.071002975 0.0104704015 0.049087986 -0.043095984 0.039363645 0.014843838 -0.05233761 0.049070403 0.010763522 -0.051525712 0.0144467745 -0.00061571534 0.013741467 0.07718226 0.026740706 -0.011793364
打电话 -0.13317807 -0.17159538 -0.01528835 0.16277683 0.04139406 -0.14448304 -0.074974746 -0.03767206 0.38090184 -0.29959583 0.06398447 0.0782147 -0.13555808 0.10489737 0.26051614 0.0730152 0.15616418 -0.10445874 0.15291561 -0.008015091 -0.20782948 0.14723752 0.06497411 -0.17733966 0.0037010422 0.021606814 -0.021165373 0.2623789 0.05113763 -0.041038696
得知 -0.10720444 -0.15056463 -0.0021833722 0.133178 0.05615808 -0.13982026 -0.087831154 -0.021588488 0.35277936 -0.26042283 0.07060409 0.07258629 -0.13969351 0.103251055 0.23215345 0.06529465 0.13426669 -0.09587349 0.14065944 0.01671402 -0.20772012 0.15920088 0.030734653 -0.15670195 -0.0069824485 0.018315023 0.0017622875 0.22932446 0.064688675 -0.05880327
告诉 -0.12052461 -0.15025765 -0.0325074 0.1414443 0.058273744 -0.13854375 -0.0883572 -0.014989809 0.37560728 -0.26166677 0.07638986 0.09694926 -0.12056354 0.11916927 0.23712167 0.07012512 0.15162304 -0.11828424 0.15830714 0.012524576 -0.18887313 0.16707511 0.055793054 -0.14808752 -7.969939e-05 0.035826262 -0.020731505 0.25147444 0.06852908 -0.064098656
林华华 -0.11076165 -0.14517128 -0.012115212 0.119435295 0.040677503 -0.11526847 -0.07335362 -0.02253929 0.31843448 -0.21797235 0.06017078 0.077841766 -0.120737806 0.094421655 0.20458633 0.069671236 0.12799805 -0.08500034 0.11564506 0.018697206 -0.15911528 0.13981389 0.05281507 -0.12602107 -0.017714627 0.025707496 0.0044819196 0.22720245 0.06299662 -0.048689023
吴惠芬 -0.10946235 -0.12221607 -0.01917786 0.11783722 0.027982999 -0.11275442 -0.08711563 -0.013180682 0.3031728 -0.231564 0.042178933 0.07098537 -0.12729685 0.085595004 0.2274427 0.040713698 0.12747394 -0.08705313 0.13741326 -0.007003568 -0.17399514 0.12611902 0.052701276 -0.13287565 -0.01965911 0.022573931 -0.012425618 0.2032537 0.03844494 -0.033796355
程度 -0.074957296 -0.096410744 -0.013826847 0.08927039 0.027261289 -0.07435415 -0.06493778 -0.027903073 0.25187394 -0.1784431 0.057829052 0.058956873 -0.09755474 0.091857076 0.18350472 0.034262177 0.088556275 -0.09079671 0.10690341 0.013506208 -0.13023964 0.1081234 0.027639473 -0.09899799 -0.007187163 0.026802817 -0.000989228 0.18311818 0.054736093 -0.02734517
电话 -0.110777214 -0.15643775 -0.025026083 0.14434785 0.033338256 -0.12703697 -0.059789963 -0.03654158 0.33996016 -0.25857648 0.0682356 0.09580761 -0.12662786 0.09132687 0.2334404 0.07278829 0.13374887 -0.0912864 0.12896916 0.020294596 -0.18123077 0.12805356 0.052586034 -0.15719952 -0.008488155 0.0073411246 0.0062594125 0.23408128 0.05336816 -0.044486273
汇报 -0.08465982 -0.11193847 -0.030440228 0.1214146 0.031083642 -0.1098162 -0.06526132 -0.014226912 0.27390024 -0.21164742 0.06448613 0.058713973 -0.10954418 0.08028444 0.18033993 0.0687821 0.1009842 -0.08547315 0.09772005 0.0022720557 -0.15995188 0.11540902 0.02296359 -0.13050121 -0.009811344 0.014009017 -0.020049071 0.20037095 0.06404057 -0.026988864
来到 -0.09777889 -0.12856534 -0.022114929 0.10223032 0.025518589 -0.09870984 -0.07201783 -0.017349945 0.2961243 -0.20705582 0.052163646 0.06350646 -0.104058504 0.09792767 0.19225447 0.047957588 0.11229013 -0.084122665 0.12104596 -0.0041421843 -0.1406598 0.11248304 0.042007454 -0.13947614 -0.0005435456 0.018712156 -0.018488675 0.21035409 0.06313676 -0.033970065
干部 -0.13505208 -0.16498433 -0.021432597 0.1280765 0.048110083 -0.1464385 -0.08204264 -0.038125534 0.33921704 -0.26448318 0.07303665 0.091761716 -0.12417237 0.10598596 0.2566337 0.05839947 0.1352017 -0.11931615 0.13255696 0.008597101 -0.18624319 0.16279784 0.029540703 -0.15608846 0.004363051 0.012838711 -0.0018180081 0.25059333 0.05344673 -0.050406486
田国富 -0.0770123 -0.08518718 -0.0025280716 0.099503346 0.026398364 -0.077824906 -0.04289677 -0.001852883 0.21534836 -0.19086288 0.054834753 0.063397 -0.07737724 0.07227614 0.16870789 0.04822774 0.08342443 -0.06456834 0.08449651 -0.004737379 -0.113942906 0.11286638 0.031668708 -0.09959594 -0.008476064 0.006257576 0.009320958 0.17565979 0.04066813 -0.033412777
陈清泉 -0.14549766 -0.16886225 -0.028520145 0.17113093 0.044065986 -0.16326798 -0.07591278 -0.041050978 0.38855195 -0.3089741 0.054678112 0.08712506 -0.1467964 0.11635924 0.25551584 0.06404924 0.13947704 -0.1254813 0.1526154 0.017811237 -0.21654259 0.1644108 0.06016902 -0.15836659 -0.014743851 0.039159104 -0.018731393 0.27998593 0.05241302 -0.035712756
两个 -0.070823155 -0.09151377 -0.0070579615 0.09236781 0.015935916 -0.07297373 -0.054863006 -0.012394998 0.22323224 -0.1781158 0.030139752 0.048838995 -0.076925434 0.06279187 0.15770645 0.05666599 0.08374543 -0.06966192 0.09365258 0.014088437 -0.11692644 0.08186801 0.028692758 -0.1024117 0.0047226176 -0.00013863051 -0.0030220128 0.14792402 0.054205365 -0.024335433
工人 -0.09621585 -0.14214475 -0.012443396 0.11103165 0.025375644 -0.123726375 -0.057593554 -0.016036985 0.32361242 -0.24700472 0.03916553 0.09344802 -0.12665589 0.11084072 0.22129475 0.04789652 0.10948834 -0.10743299 0.10835014 -0.0057759453 -0.1610316 0.1379607 0.055457626 -0.13577591 -0.0129095465 0.020611743 -0.015457206 0.20648731 0.05389848 -0.034990054
赵立春 -0.11631771 -0.13988994 -0.018279199 0.13750172 0.054864284 -0.13718638 -0.08676563 -0.019452486 0.3617702 -0.25712183 0.047313128 0.103442945 -0.13808104 0.11445968 0.26067597 0.055461787 0.13627896 -0.10758366 0.14144474 -0.010387293 -0.19915697 0.14467953 0.047401287 -0.15661676 0.0023053053 0.03174067 -0.0008064325 0.23002861 0.052986726 -0.06281126
离开 -0.094581604 -0.14332338 -0.03109863 0.13726301 0.034617573 -0.120435216 -0.08776028 -0.02291356 0.3061388 -0.24734914 0.05886623 0.090730615 -0.13490948 0.08505867 0.23706317 0.05945711 0.108764246 -0.083323 0.14331245 7.754495e-05 -0.17580086 0.15199111 0.040063597 -0.14314908 -0.015204566 0.029817242 -0.008910838 0.21633312 0.058280602 -0.04693306
里 -0.09466502 -0.12694016 -0.01599692 0.11908291 0.035447665 -0.12717842 -0.077174835 -0.027551604 0.31319308 -0.22295533 0.07157396 0.089956746 -0.11171904 0.080300175 0.20461081 0.06549942 0.11516264 -0.08309612 0.13420123 -0.006062173 -0.17743784 0.13593112 0.056020606 -0.12512867 0.013523064 0.026536658 -0.0048936224 0.22478013 0.051918916 -0.036522478
担心 -0.121918626 -0.12831186 -0.027503844 0.13476728 0.033714812 -0.13630725 -0.07019524 -0.007574747 0.31897122 -0.26040712 0.07445404 0.07459178 -0.12656985 0.109780066 0.23372804 0.05404684 0.116701484 -0.11642088 0.11877007 0.015535449 -0.18547837 0.1278894 0.030268094 -0.13801096 0.006335545 0.039398987 -0.022079704 0.21890964 0.046834677 -0.042933345
钟小艾 -0.09318054 -0.1160626 0.0017931112 0.10471521 0.031528115 -0.11368776 -0.05965716 -0.0054734536 0.2499666 -0.18968643 0.037838053 0.072961375 -0.11343653 0.076871574 0.19956173 0.05456361 0.08481142 -0.083614215 0.11571496 -0.008106272 -0.16390313 0.09581409 0.05151054 -0.12731524 0.013081519 0.021555541 -0.017339662 0.19557944 0.0475016 -0.038762156
事情 -0.12562938 -0.13660535 -0.0021190937 0.13249125 0.051656127 -0.11425052 -0.089937575 -0.019615129 0.34631702 -0.25035003 0.054063268 0.08032636 -0.12551756 0.11817129 0.22603758 0.04613102 0.13247642 -0.104372784 0.12385943 0.01238283 -0.18445571 0.14848718 0.032439306 -0.16398336 0.001298129 0.013255757 -0.010418 0.21343628 0.04433851 -0.054747447
只好 -0.098845415 -0.12712342 -0.025774926 0.11723169 0.024130821 -0.079228066 -0.056013495 -0.03144757 0.24939431 -0.19537973 0.04771296 0.053171784 -0.094267085 0.09278237 0.18902612 0.037047308 0.10585574 -0.06533347 0.09340078 -0.009133499 -0.15279026 0.09078403 0.04225097 -0.101275526 -0.01761663 0.024473317 0.0023076718 0.15855268 0.03507962 -0.04442586
走 -0.056108944 -0.11038574 0.0015341458 0.097306736 0.019415399 -0.06849582 -0.04632668 -0.02119271 0.22211428 -0.15412311 0.053793233 0.037291322 -0.0737388 0.07367401 0.14748481 0.026234522 0.08168687 -0.055104744 0.083627105 -0.00085156 -0.123064145 0.083500326 0.038917154 -0.09532458 0.0034132816 0.021717194 -0.018141361 0.1435353 0.031992607 -0.026723437
照片 -0.07446127 -0.08867193 -0.026970247 0.08743308 0.035130993 -0.06978247 -0.05456589 -0.024607569 0.18385366 -0.14411275 0.035822112 0.052554242 -0.07661292 0.05165394 0.14640287 0.04637785 0.06081566 -0.06716807 0.066232115 -0.010260158 -0.09511742 0.07443042 0.021134455 -0.08307996 -0.0030655435 0.021422531 -0.020628022 0.12740284 0.018041609 -0.0375849
审讯 -0.10063728 -0.116791114 -0.007894297 0.094864555 0.035405535 -0.10461708 -0.06814062 -0.015900947 0.27107722 -0.19666211 0.061217606 0.0680116 -0.11312795 0.08762939 0.16988252 0.035508975 0.09898935 -0.09089913 0.104454406 -0.0143138245 -0.12688485 0.10967103 0.034350317 -0.115427576 0.002787893 0.008018985 0.0053909663 0.1932088 0.05225921 -0.046255037
希望 -0.075198665 -0.07539217 -0.0011171291 0.08210559 0.013437595 -0.09307334 -0.038867272 -0.004783987 0.21650618 -0.16589357 0.038213298 0.0639679 -0.09003148 0.06456133 0.15372925 0.029136745 0.074759066 -0.04625417 0.09800154 0.014368986 -0.119301036 0.06944696 0.009874541 -0.10131033 0.008414648 0.0012016055 -0.019751662 0.15578833 0.038133834 -0.02247548
王大路 -0.12385617 -0.15981166 -0.011571504 0.15902527 0.050555862 -0.13710445 -0.09101558 -0.032391872 0.35973516 -0.29875988 0.077160835 0.08482271 -0.1256754 0.12311215 0.2649683 0.057198588 0.1455585 -0.123407245 0.1395804 0.011252609 -0.19288597 0.16914994 0.04516135 -0.15949716 -0.00019768019 0.019733474 -0.0060797883 0.24363844 0.07024241 -0.064030394
梁璐 -0.102699965 -0.1391946 -0.033392 0.14586884 0.034848254 -0.14291917 -0.08995492 -0.030194277 0.34498188 -0.24411032 0.06708542 0.086251184 -0.11912723 0.09696808 0.23737015 0.05097076 0.13497089 -0.09666291 0.1320892 -0.009531829 -0.17103343 0.1541897 0.053514343 -0.15273343 -0.0021498434 0.035532154 -0.01994663 0.23019531 0.05955515 -0.0577057
举报 -0.113089524 -0.11758291 -0.019359587 0.123727344 0.026743595 -0.10033347 -0.054952372 -0.0054206178 0.30498788 -0.22772369 0.044832442 0.09108888 -0.11949164 0.087328285 0.20648587 0.07385871 0.10049226 -0.0931824 0.139897 -0.0019240307 -0.18394643 0.13357705 0.027118035 -0.12501241 0.013099142 0.018032206 0.0038806442 0.21910313 0.046703715 -0.033227798
汉东 -0.08300457 -0.12235102 -0.024389084 0.110211775 0.02359675 -0.09987835 -0.06147679 -0.022500534 0.29996487 -0.20968615 0.045770556 0.0706921 -0.11921326 0.1058686 0.21618442 0.05504628 0.10941853 -0.09818361 0.115197726 0.019487675 -0.16997968 0.12171584 0.029394297 -0.117073126 -0.009644412 0.014399744 -0.016524455 0.19009876 0.055683345 -0.054383103
事 -0.09972071 -0.14412181 -0.029791526 0.12423221 0.045201313 -0.108743764 -0.065510914 -0.037644397 0.2822163 -0.227587 0.048646256 0.07608523 -0.0937489 0.07589977 0.21963982 0.055085663 0.09951896 -0.09347541 0.13130923 0.0032293433 -0.16618933 0.12909889 0.045939792 -0.13758986 -0.006683886 0.0185699 0.0028191193 0.20861802 0.05450006 -0.047313876
山水集团 -0.11315558 -0.17394955 -0.0057126586 0.15564257 0.040438276 -0.15059479 -0.09792707 -0.016463289 0.3769395 -0.29606524 0.07338532 0.09975511 -0.12895519 0.110000685 0.24798164 0.057896163 0.13392325 -0.11153068 0.15738396 -0.008776414 -0.21170957 0.14571734 0.045480013 -0.17327061 -0.013635117 0.03729793 -0.0069458857 0.24101889 0.060648654 -0.058290917
吕梁 -0.05138089 -0.0900831 -0.005991078 0.08196001 0.009914686 -0.05480527 -0.039175138 -0.029527945 0.16445681 -0.13673396 0.03175254 0.031717725 -0.049777742 0.06763259 0.12669204 0.045850214 0.08047417 -0.066834666 0.064424865 0.005796876 -0.104446836 0.08119383 0.007640579 -0.05933832 0.0071252002 0.021667045 0.011023593 0.11033215 0.018526414 -0.034189466
劝 -0.09163153 -0.09628968 -0.006469523 0.083630286 0.032679744 -0.10035209 -0.04178779 -0.006681047 0.23297562 -0.1778759 0.04399975 0.04399264 -0.0799622 0.09044917 0.17879167 0.041055154 0.105086684 -0.070636824 0.108800896 -0.005203941 -0.13608776 0.089597456 0.029391939 -0.11313147 0.013720223 0.031188345 -0.019500036 0.15951516 0.031782962 -0.04217788
发现 -0.0939686 -0.14018625 -0.029741237 0.11901403 0.045762174 -0.13248828 -0.059311394 -0.011054408 0.30425102 -0.24221794 0.04725567 0.09268852 -0.12615635 0.083258614 0.20838574 0.07244106 0.11242089 -0.108766004 0.13295624 -0.009069822 -0.16590267 0.13073283 0.035291664 -0.13467433 -0.004038182 0.03012033 0.001120396 0.21717933 0.058118585 -0.053447
俩 -0.08472656 -0.1226539 -0.029079385 0.09623823 0.03831871 -0.11043927 -0.049840584 -0.0303714 0.2621821 -0.17551291 0.06056416 0.066570885 -0.10123689 0.08397418 0.17401256 0.039552037 0.09314089 -0.07863919 0.10970091 0.012897931 -0.14099114 0.08966991 0.044263463 -0.12840332 -0.009089247 0.0023209073 0.0045232703 0.18609482 0.033725828 -0.017608868
小皮球 -0.10309812 -0.121295705 -0.015996806 0.110990584 0.029896863 -0.10371882 -0.080030076 -0.0053180587 0.2756755 -0.22232485 0.057565365 0.052488826 -0.11062158 0.077091 0.19839524 0.05097336 0.1013497 -0.104681075 0.12843013 0.020679189 -0.15930274 0.12131637 0.025655102 -0.120854765 -0.0038909144 0.026100667 -0.0018251913 0.19724862 0.062336627 -0.027464185
赵德汉 -0.06939537 -0.10249329 -0.015979445 0.09835074 0.036615394 -0.07866807 -0.05149367 -0.033395328 0.22698349 -0.19072253 0.055268463 0.05043787 -0.086534835 0.07418074 0.16171815 0.029172022 0.095048435 -0.07660511 0.10884225 -0.0070471903 -0.14742921 0.090144746 0.022968993 -0.09554942 0.012421623 0.023111658 -0.014670048 0.16493808 0.032265153 -0.015487366
工作 -0.09322036 -0.10823502 -0.007342514 0.09422358 0.045770224 -0.10734282 -0.05461161 -0.006371974 0.26313296 -0.22090805 0.042506505 0.0830351 -0.11655872 0.09106939 0.18152778 0.064283095 0.11112626 -0.099833764 0.10275789 0.010206844 -0.13361588 0.11240687 0.038215194 -0.12977268 0.008661568 0.0075389454 -0.014688938 0.20197207 0.03798331 -0.02860481
没想到 -0.06531294 -0.1188468 0.001707539 0.09469955 0.04151733 -0.08173448 -0.0483759 -0.010219247 0.2507206 -0.1935848 0.041351203 0.054901373 -0.102286324 0.076965556 0.18098202 0.047305625 0.083610564 -0.09117738 0.09401587 -0.0011300338 -0.14936283 0.08564175 0.03744739 -0.11754476 0.011296451 0.030736161 -0.021809924 0.18279262 0.028322373 -0.025988989
周正 -0.08664433 -0.123831354 -0.01750047 0.10788168 0.022582958 -0.113952324 -0.06909603 -0.016444359 0.2638638 -0.21439546 0.054509673 0.08141223 -0.10430622 0.09091165 0.1841572 0.04605324 0.11317527 -0.09481513 0.114391394 -0.0035807756 -0.13423844 0.10500095 0.025452835 -0.10186223 0.013481259 0.03371212 0.005801083 0.17473175 0.045590196 -0.02276951
孙连城 -0.06505289 -0.090666786 -0.015072953 0.10098574 0.014296452 -0.07708747 -0.041671336 -0.030763933 0.22547112 -0.18425918 0.023418814 0.040333245 -0.07450066 0.069461875 0.14571632 0.03387525 0.09596989 -0.06340886 0.106529646 -0.005825744 -0.13340804 0.08030377 0.035569355 -0.11318877 4.4306933e-05 0.0070386822 -8.9091714e-05 0.14342381 0.033409204 -0.023017708
回来 -0.073493615 -0.116072565 -0.025225736 0.099819556 0.025319288 -0.09478776 -0.06485688 -0.031424493 0.22630778 -0.17897497 0.03733248 0.049431115 -0.09290776 0.056878615 0.1681874 0.054474957 0.08450654 -0.07194593 0.09611308 -8.880612e-05 -0.11908413 0.10091628 0.02127852 -0.0970696 0.01480923 0.011387576 -0.00127995 0.15892151 0.049798902 -0.035554145
听 -0.08326668 -0.10334668 -0.01556189 0.09333807 0.009210385 -0.09266751 -0.06610659 0.00060295605 0.22691219 -0.15626122 0.046444576 0.060267735 -0.095581226 0.07836948 0.17451473 0.050344117 0.09130801 -0.07811493 0.090005174 5.6351688e-05 -0.12071059 0.0906938 0.034292337 -0.09319893 -0.00990172 0.010972175 -0.00528201 0.14559065 0.055256806 -0.01677685
秘书 -0.10791622 -0.13230452 -0.021633556 0.11166 0.03364958 -0.130936 -0.08310688 -0.022328988 0.29302877 -0.24656403 0.04503818 0.08720712 -0.11691082 0.083352976 0.21310882 0.06819402 0.12402005 -0.10981517 0.11817869 -0.008833422 -0.16896528 0.12577218 0.051048674 -0.14397033 -0.0126999 0.024583286 -0.021558985 0.22475848 0.04832834 -0.04013608
　 -0.112643465 -0.17807893 -0.0404283 0.15290278 0.02733847 -0.16629364 -0.07334359 -0.02553387 0.3928885 -0.30612686 0.05613099 0.11351268 -0.13154134 0.13315842 0.26649502 0.07991604 0.15966962 -0.12177941 0.17207284 -0.0059073544 -0.20068772 0.15696344 0.0581466 -0.17114618 0.006950368 0.01768648 -0.0023004517 0.28780624 0.08765072 -0.04603506
肖钢玉 -0.03105768 -0.07717819 -0.024261868 0.05643069 0.005765489 -0.06377474 -0.038219847 0.0035384065 0.14553031 -0.111079626 0.02804174 0.025603326 -0.06981148 0.036196206 0.087995835 0.024921816 0.044013273 -0.03783454 0.06997548 0.01411858 -0.08049518 0.07463583 0.017555509 -0.063860945 0.0033092443 0.020891286 -0.015396286 0.105499655 0.03905662 -0.017933166
接到 -0.07312561 -0.11564024 -0.011867894 0.10466938 0.027597176 -0.08536739 -0.06838799 -0.025698902 0.24957365 -0.18275094 0.048113734 0.07558309 -0.08498978 0.070407584 0.17293593 0.034650594 0.105456226 -0.06653233 0.10110116 0.012483497 -0.12177508 0.10567577 0.017761916 -0.105265014 0.0019107788 0.007466771 0.0050325594 0.16897017 0.05687344 -0.036451012
检察院 -0.0997421 -0.11367809 -0.013911038 0.10303579 0.04105593 -0.08824608 -0.056164827 -0.018561494 0.27670577 -0.19931614 0.031640593 0.05373553 -0.09420394 0.09221593 0.17163117 0.034684986 0.097854905 -0.08880018 0.10724862 -0.0029082468 -0.15605693 0.11608773 0.016534992 -0.117908336 0.013142513 0.0246983 0.007371963 0.17275755 0.04185509 -0.042926215
省委 -0.096783526 -0.108467445 -0.030540338 0.111604236 0.04724777 -0.11404147 -0.059764136 -0.0025576719 0.27790812 -0.21747886 0.041611344 0.058810532 -0.09293821 0.07728692 0.17315012 0.051456016 0.08804885 -0.06956718 0.12332451 -0.007987547 -0.14786121 0.10417034 0.03258119 -0.13927066 -0.016329948 0.02044206 -0.008885819 0.20136513 0.05571507 -0.046596143
钱 -0.105603285 -0.13044697 -0.01848406 0.12388901 0.04251174 -0.13286205 -0.058842808 -0.026413286 0.31991664 -0.24219632 0.055066925 0.07676591 -0.13011268 0.11191612 0.23675947 0.072619274 0.121677555 -0.0849445 0.14043273 0.010561131 -0.18515787 0.14521919 0.047453813 -0.14285587 -0.0019221001 0.011742892 -0.014155881 0.2236483 0.072327144 -0.04099658
指责 -0.07187551 -0.10496023 -0.025693633 0.10302628 0.017438462 -0.09010025 -0.04802775 -0.025621824 0.27139133 -0.20151486 0.041703552 0.07821267 -0.11258543 0.09103449 0.17321368 0.03421423 0.09550944 -0.074062645 0.09287775 0.009626034 -0.14402342 0.12091525 0.044200096 -0.10812355 0.012545435 0.032686394 -0.015857782 0.1743505 0.046915676 -0.041219536
解释 -0.10202927 -0.12762068 -0.028142065 0.096992254 0.038431063 -0.11935757 -0.047361158 -0.008013332 0.28156134 -0.21480966 0.050888773 0.058561727 -0.11409531 0.07941163 0.18566981 0.048340477 0.0872997 -0.081693016 0.1191051 -0.0052720658 -0.16615713 0.13021305 0.01903204 -0.12976561 0.0064308313 0.019882906 -0.020191722 0.18912478 0.064406 -0.028658567
这时候 -0.0694789 -0.057532653 -0.0030927977 0.05855073 0.034760606 -0.06572855 -0.03908392 -0.015014435 0.15981773 -0.113173515 0.03545182 0.055237234 -0.057891358 0.037794415 0.12782155 0.022436347 0.05709399 -0.06394194 0.0684663 0.011531981 -0.10270216 0.0814976 0.025119612 -0.07754365 -0.00089133746 0.020559452 -0.016703734 0.11952062 0.025272677 -0.030299086
怀疑 -0.06813706 -0.09544198 -0.0067167613 0.09991606 0.012418678 -0.07824809 -0.05757804 -0.021010539 0.22167829 -0.1474697 0.03945834 0.03514719 -0.09368466 0.05946261 0.13209794 0.033654902 0.062352076 -0.07354884 0.06837595 0.017930334 -0.106419586 0.08074963 0.04144902 -0.081166215 -0.009591061 0.009601675 -0.007311254 0.12639195 0.03659549 -0.040309805
交代 -0.087151535 -0.09829784 -0.009099053 0.10634832 0.016891127 -0.0969648 -0.06881066 -0.026266586 0.27499768 -0.1931608 0.04834169 0.05324282 -0.110684544 0.08284879 0.1743864 0.05164496 0.1140653 -0.090136364 0.09287256 0.00923821 -0.13669641 0.10902724 0.026017334 -0.12435013 -0.0019186711 0.027457617 0.0078083468 0.18334055 0.0334831 -0.01848752
通知 -0.08696289 -0.106860414 -0.017176045 0.084075615 0.0098908935 -0.09331377 -0.05171249 -0.011953018 0.23615916 -0.1618564 0.031464566 0.06755717 -0.06863913 0.059499234 0.17289753 0.03536826 0.087582245 -0.05832247 0.09209744 0.00054391735 -0.11699374 0.104859464 0.032467075 -0.09313293 0.0070023327 0.022325372 -0.022484988 0.1541321 0.05223754 -0.02915828
吕州 -0.084294 -0.11299354 -0.0022838083 0.11928869 0.04043348 -0.1109834 -0.076980814 -0.019273143 0.2902729 -0.2068092 0.04843686 0.06785227 -0.10378464 0.09116618 0.20526904 0.047224276 0.11434908 -0.10352747 0.11267686 0.014625766 -0.14882345 0.120605 0.0221647 -0.14697471 -0.01791052 0.0052095726 -0.019230481 0.19311084 0.059217606 -0.027304746
家 -0.06799781 -0.11866274 -0.017957212 0.11650075 0.030383654 -0.095376745 -0.07324974 -0.02643973 0.2563446 -0.19563521 0.041503634 0.06761917 -0.0877849 0.08643681 0.17625254 0.060874783 0.10726487 -0.08116222 0.10110142 -0.005531808 -0.15145335 0.10545364 0.04048947 -0.09340947 0.0020915067 0.019195965 -0.0135288 0.16013464 0.042250186 -0.044573415
提醒 -0.05523445 -0.08128984 -0.026362678 0.09529789 0.010413708 -0.07494029 -0.04439938 -0.020301228 0.19696617 -0.16134045 0.05095487 0.05694941 -0.09414148 0.064537175 0.15128967 0.04791122 0.073369786 -0.07947872 0.07360751 0.0015301016 -0.1033874 0.09453606 0.013189525 -0.08473767 0.009088261 0.027089886 -0.0096552335 0.14455405 0.038983997 -0.016235461
完 -0.0778903 -0.10369167 -0.02171425 0.09912062 0.012158687 -0.07352904 -0.061362155 -0.020482007 0.21534394 -0.18166114 0.044000704 0.05464199 -0.072249696 0.08848991 0.15957266 0.027566228 0.09095487 -0.084684156 0.10458052 -0.0005721953 -0.13042408 0.07791985 0.0378697 -0.109903835 -0.0014967696 0.02999528 -0.0037588738 0.16495763 0.05411521 -0.03766211
警察 -0.063656196 -0.11457792 -0.0051253634 0.095229365 0.014881298 -0.09572318 -0.043015175 -0.0073496704 0.22020186 -0.1868285 0.042569358 0.053499233 -0.08450612 0.083304785 0.16947849 0.04907737 0.095741406 -0.07890977 0.1051252 -0.013394337 -0.14141102 0.099854104 0.037815273 -0.1071353 -0.0052409563 0.003923085 0.0068557453 0.15072873 0.027181435 -0.03124613
股权 -0.0781181 -0.11218019 -0.000431248 0.09300596 0.015848784 -0.097133644 -0.06506649 -0.010405288 0.2513301 -0.18536195 0.03445382 0.053908866 -0.082591146 0.061741676 0.17260352 0.041983955 0.08235571 -0.06568453 0.11699036 0.0095640505 -0.15473086 0.11243396 0.046908967 -0.11866048 0.011172212 0.03126578 -0.010200281 0.17295916 0.0394602 -0.024388652
职工 -0.082685836 -0.146775 -0.0073089967 0.110442504 0.046568125 -0.10054313 -0.07890236 -0.009311801 0.3007452 -0.22645247 0.03735733 0.06266753 -0.096700355 0.10641115 0.1986611 0.0641517 0.10231448 -0.10443823 0.124496385 0.0071892007 -0.16476534 0.1240656 0.030856391 -0.1311708 -0.010946536 0.012149551 -0.004667988 0.21278577 0.037843544 -0.031122187
情况 -0.09061123 -0.0929057 -0.004269868 0.08974993 0.042612486 -0.100626245 -0.04853755 -0.0039512394 0.24734724 -0.19506526 0.028500358 0.060764063 -0.10420394 0.08053725 0.15996096 0.040464345 0.07490139 -0.08750805 0.11460423 -0.0011733082 -0.12244255 0.0956693 0.015260044 -0.10485315 -0.00834115 -5.253931e-05 -0.010660327 0.1748866 0.035266634 -0.03671505
调查 -0.06052442 -0.08483444 -0.02029464 0.06335237 0.021069435 -0.07265727 -0.039122593 -0.025240308 0.18914877 -0.14099182 0.033607844 0.03631274 -0.08938765 0.06963865 0.1397261 0.05070389 0.089977965 -0.059270542 0.080274 -0.009093295 -0.097368516 0.08740909 0.009774724 -0.080602296 -0.005028485 0.022963943 -0.010526362 0.128284 0.032342825 -0.037254192
京州 -0.08180047 -0.1113666 -0.011215348 0.09075291 0.013754622 -0.10118342 -0.062443733 -0.007355485 0.26658395 -0.187571 0.035798747 0.06455564 -0.10507365 0.068090826 0.1997168 0.0503213 0.10520209 -0.07443783 0.1010896 -0.0002972782 -0.15454543 0.10775848 0.021064196 -0.11484572 0.003857933 0.0029083453 -0.0064268243 0.18741849 0.053031474 -0.04613115
安排 -0.09139372 -0.11227223 -0.017588155 0.089878626 0.03164492 -0.08459973 -0.058258943 -0.021160148 0.24806702 -0.1893189 0.03585138 0.06390855 -0.08400477 0.08452218 0.17131552 0.05838179 0.10177081 -0.08686803 0.09140343 0.0139077855 -0.12286114 0.120168895 0.03607723 -0.10016775 -0.003456387 0.0030739068 0.007867889 0.18534511 0.05371977 -0.028618995
事件 -0.081212915 -0.09532485 -0.015193414 0.084579825 0.027923713 -0.07113692 -0.037018195 -0.028412431 0.20306057 -0.18057697 0.023899416 0.0369597 -0.07463359 0.053208333 0.14949691 0.047029972 0.09959024 -0.05561811 0.10246363 -0.011690627 -0.1296542 0.0772908 0.01212543 -0.1038607 -0.00908412 0.008068444 0.004689638 0.16655147 0.022820204 -0.031702258
尤瑞星 -0.04137998 -0.090783276 -0.010762333 0.08681211 0.023800842 -0.05643307 -0.05232439 -0.006999704 0.16453627 -0.14338584 0.034286562 0.03176705 -0.06950109 0.052096408 0.13634163 0.049479373 0.06680586 -0.057966005 0.06633555 0.011495991 -0.09186466 0.0813977 0.008802527 -0.09476776 -2.3170081e-05 0.0019897677 -0.001970821 0.11916881 0.045904577 -0.00853816
称 -0.06485681 -0.095394045 -0.026495414 0.07462101 0.027908761 -0.058890596 -0.0421042 0.0018950818 0.18871029 -0.15796323 0.04051543 0.04487362 -0.085723646 0.061583113 0.12667622 0.027668107 0.077411056 -0.05129391 0.08468173 0.012281146 -0.10759841 0.07030093 0.010138654 -0.08520251 0.012871804 0.011288233 0.008797245 0.15014124 0.051273882 -0.013732982
光明 -0.055478025 -0.09564249 -0.0019843655 0.095377006 0.011236221 -0.09324517 -0.042971358 -0.024397166 0.21403043 -0.17668061 0.02751151 0.067522585 -0.09401714 0.06533794 0.13974537 0.05139814 0.09640923 -0.06832664 0.09135012 0.0054609696 -0.11846654 0.09047208 0.04293282 -0.09627791 -0.011149423 0.010429992 -0.005572375 0.14944553 0.030433588 -0.022833997
问 -0.07982993 -0.08927362 -0.0073751886 0.0895838 0.011384883 -0.05804211 -0.03047405 -0.025981454 0.20195413 -0.15945268 0.044410806 0.049311075 -0.08612287 0.05081616 0.14141323 0.044008225 0.060846616 -0.055054203 0.09312496 0.0042081173 -0.09627734 0.07515156 0.013145058 -0.09425595 -0.0074170562 0.004382579 -0.012121591 0.119995445 0.046951976 -0.037511893
讲 -0.061279442 -0.075921856 -0.0005487695 0.08701901 0.013615685 -0.05549061 -0.027062321 -0.019003099 0.17308635 -0.12674783 0.046530012 0.055803984 -0.0775275 0.06317096 0.13464351 0.024017835 0.07779729 -0.053876787 0.06217995 0.011109884 -0.10379959 0.07183921 0.020825744 -0.09404251 0.005440509 0.003396654 0.0076338868 0.11230915 0.032370545 -0.026081093
有人 -0.08696473 -0.11700488 -0.010383466 0.11686813 0.025517285 -0.09798058 -0.051685136 -0.03026932 0.25313076 -0.20953085 0.050053712 0.052663222 -0.093336195 0.089702375 0.16771482 0.039258245 0.09728066 -0.088421464 0.09737746 -0.008006715 -0.14235602 0.12443098 0.03079024 -0.11232031 0.011439841 0.00886399 0.0006577156 0.16813287 0.048033495 -0.047633052
郑胜利 -0.061702296 -0.0970297 -0.0033516306 0.09019252 0.039086603 -0.095808014 -0.052050143 -0.01781932 0.23129717 -0.16374433 0.03448089 0.064718775 -0.084857285 0.05322945 0.15075105 0.05074502 0.084375784 -0.08346075 0.07018139 -0.008917608 -0.10468995 0.07977028 0.029431779 -0.11255474 -0.015765535 0.01661267 -0.007061372 0.14448203 0.050930515 -0.018830711
孩子 -0.07967505 -0.09470343 -0.018787852 0.07322711 0.03531654 -0.07371477 -0.044674505 -0.0060184444 0.21000895 -0.16419087 0.042201232 0.061673738 -0.085906066 0.06326001 0.14843461 0.036090363 0.08071822 -0.07549674 0.07394683 -0.003719156 -0.10201601 0.07600626 0.036291815 -0.10212778 -0.01059099 0.009736647 -0.0106085995 0.14624612 0.036604553 -0.013339741
校长 -0.103793494 -0.11274761 -0.013575325 0.11418912 0.018308708 -0.1154939 -0.06497135 -0.025025068 0.283878 -0.20955722 0.06644654 0.08020524 -0.0983201 0.08229434 0.20356166 0.04096131 0.10551734 -0.09497115 0.13203184 -0.0035173043 -0.16198918 0.12055862 0.053068027 -0.11222249 -0.017884612 0.009808592 -0.01074956 0.20675124 0.061944447 -0.033706337
山水 -0.11797972 -0.1234 -0.01908987 0.10774341 0.030049535 -0.13098677 -0.07147177 -0.038145285 0.28768873 -0.24475504 0.05834995 0.08841083 -0.13075876 0.08234062 0.21837492 0.04982891 0.12486501 -0.11147198 0.115416095 -0.012988893 -0.16880615 0.13690992 0.05650949 -0.13883561 -0.0054041087 0.0037986545 -0.01844576 0.226995 0.064760044 -0.0538057
庄园 -0.11712275 -0.12359589 -0.0124359075 0.109786466 0.039443135 -0.12596494 -0.071454644 -0.028375559 0.30912557 -0.23464513 0.065151185 0.085032515 -0.09988565 0.10673446 0.20552906 0.0457469 0.12885883 -0.09256355 0.13234007 -0.010051713 -0.16323523 0.12731487 0.03914242 -0.14817108 -0.010261694 0.034428325 -0.017479323 0.22088781 0.058587823 -0.033002283
杜伯仲 -0.04876817 -0.04406478 0.0036499414 0.06286253 -0.00064834877 -0.055288795 -0.035405643 -0.014459674 0.107143156 -0.07587317 0.029266836 0.025382563 -0.042581555 0.03729132 0.090125546 0.035496168 0.029130211 -0.032988314 0.06062516 -0.004054795 -0.059375037 0.039439697 0.015798138 -0.043192916 0.013921402 0.0026276484 0.011183838 0.07816548 0.008325635 -0.027965873
项目 -0.071858965 -0.088249 -0.029351618 0.10121004 0.034618974 -0.07835364 -0.038314257 -0.018252525 0.24862769 -0.17602134 0.03747739 0.074079484 -0.0786439 0.05889568 0.17279 0.057245754 0.0939913 -0.06902291 0.09224453 -0.00035291605 -0.12923142 0.10433887 0.026111761 -0.0961971 0.0101693105 0.032114074 -0.0068218377 0.17259556 0.02817047 -0.014935599
权利 -0.05553854 -0.06388197 -0.012391553 0.043674335 0.0138170095 -0.06674618 -0.02910222 -0.011558154 0.141368 -0.11083278 0.039841082 0.028103855 -0.058123372 0.05854226 0.09919091 0.03362761 0.054225583 -0.051254146 0.06736299 0.014308148 -0.06638943 0.073262766 0.027304817 -0.061081216 -0.0067937924 0.0025820425 -0.0073798974 0.108111665 0.01465713 -0.035287958
群众 -0.092242405 -0.104964316 -0.0035642714 0.099061646 0.028421063 -0.08662034 -0.066292174 -0.009580037 0.23476957 -0.19269857 0.043180265 0.06850273 -0.0771899 0.09005632 0.17290166 0.060930997 0.1017794 -0.08325777 0.10169247 0.003959817 -0.13886462 0.08617907 0.035174496 -0.11622818 -0.006263478 0.023570566 -0.0134537 0.15878119 0.03405284 -0.025135076
当年 -0.07223842 -0.1063822 -0.02251572 0.0921192 0.025166215 -0.09733149 -0.059758313 -0.02022123 0.2299606 -0.1719879 0.034977227 0.06623563 -0.08086314 0.08185076 0.16484119 0.033916626 0.07440266 -0.07881916 0.078855544 -0.006852649 -0.13152821 0.07947345 0.037280418 -0.09898246 0.012215378 0.021756181 -0.0061688474 0.13711981 0.027249768 -0.03800956
集团 -0.10199296 -0.14149944 -0.021373965 0.10477048 0.020193564 -0.10609932 -0.07883428 -0.0110303 0.3039612 -0.2194194 0.050843913 0.05541927 -0.12676923 0.077697694 0.22139421 0.048179027 0.12393263 -0.092978545 0.11344542 -0.0031871737 -0.16237547 0.13362044 0.05316124 -0.12628894 -0.0053631556 0.011918813 -0.010452084 0.2149153 0.067141905 -0.034487642
儿子 -0.056920916 -0.09102969 0.0030237206 0.07960659 0.022238981 -0.05403157 -0.027791375 -0.015825914 0.1679 -0.1303887 0.018759843 0.027637012 -0.04900715 0.03800003 0.11474035 0.023775585 0.054471035 -0.050478607 0.073205754 0.017623762 -0.0834155 0.08274761 0.030217309 -0.08939518 0.01359384 0.009297612 -0.013409709 0.12803583 0.029359005 -0.03344026
办公室 -0.07998271 -0.09497976 -0.009405916 0.08773222 0.006239756 -0.084176436 -0.06008587 -0.014744272 0.19831462 -0.15368654 0.037831772 0.059822787 -0.0754429 0.052434754 0.13886122 0.041232828 0.079932146 -0.04737502 0.082577296 -0.0073224106 -0.11763711 0.065186 0.03145818 -0.086132176 -0.018516831 0.020268867 -0.005369663 0.13470158 0.044910274 -0.01761921
大声 -0.05678603 -0.067070685 0.0013459997 0.06861576 0.02609026 -0.08434707 -0.03883187 -0.024747895 0.16272509 -0.120468065 0.020758431 0.0313193 -0.073019736 0.0495546 0.12762569 0.044012684 0.06912612 -0.050850496 0.06498133 -0.004255183 -0.09630736 0.08690305 0.027991196 -0.08294176 0.0022487715 -0.0011309148 0.011409706 0.13986214 0.028887194 -0.018671244
明白 -0.057177316 -0.08131328 -0.020765685 0.091373004 0.006948726 -0.076671176 -0.05017102 -0.0021727828 0.18788345 -0.13834493 0.036514394 0.041696172 -0.06302423 0.05111713 0.1267047 0.044068262 0.08821093 -0.06917505 0.08441843 -0.0010701619 -0.098670565 0.09869849 0.027446033 -0.10137019 0.002646973 0.0072914297 -0.0010684191 0.15222932 0.0476736 -0.031111237
时间 -0.05850822 -0.10141048 -0.010882169 0.07730297 0.020423988 -0.079303235 -0.039363816 -0.019172968 0.21148038 -0.16172795 0.03535293 0.038420856 -0.07341058 0.049384657 0.13736397 0.04158714 0.08926318 -0.04759973 0.07830226 -0.011085659 -0.11541452 0.080748245 0.012088957 -0.08612639 0.010512706 0.01016866 7.8986894e-05 0.12545164 0.027057987 -0.030642822
吃 -0.06265935 -0.11223281 -0.019490313 0.104371004 0.03344861 -0.07481062 -0.055970594 -0.00030242885 0.23390187 -0.17233863 0.044940732 0.06832376 -0.08449784 0.07755635 0.15549752 0.037594557 0.09319202 -0.07269966 0.090890095 0.017647272 -0.12773547 0.093270965 0.012891603 -0.10884852 -0.0007572912 0.0058722645 -0.009543592 0.15543033 0.029347088 -0.022526948
中 -0.038979948 -0.06612626 -0.009826455 0.05156441 0.030981472 -0.06320503 -0.053488486 -0.025251577 0.16243228 -0.14101076 0.038116097 0.038492985 -0.05862163 0.05065195 0.1128861 0.027478248 0.07743831 -0.046063874 0.060738686 0.006686949 -0.09775254 0.0677846 0.029652923 -0.08676617 -0.0104380995 0.024733618 -0.013220292 0.11250998 0.020094855 -0.036020763
无奈 -0.06864009 -0.08767957 -0.00072766864 0.066212006 0.018637868 -0.08529448 -0.034704946 0.0013807327 0.19684936 -0.15066771 0.028218973 0.06064153 -0.06566577 0.057236258 0.12519515 0.04548574 0.07022147 -0.049670734 0.09372109 0.0011400082 -0.10537826 0.09170441 0.028344324 -0.08837805 0.012267777 0.0026967651 0.0077925525 0.14547357 0.043047793 -0.016703166
帮 -0.06375581 -0.08511044 -0.012099033 0.08636699 0.035503116 -0.06864123 -0.040312506 -0.013338902 0.2032685 -0.17888159 0.03324706 0.06268239 -0.08086386 0.079305455 0.14575592 0.031062743 0.0673966 -0.05866773 0.083444685 0.0006392838 -0.12528928 0.09023735 0.04455547 -0.10973684 -0.013896342 0.023956813 -0.010545979 0.15219773 0.04114105 -0.016367089
请 -0.07024932 -0.08634906 -0.013005325 0.09473546 0.042881146 -0.103647575 -0.04139527 -0.032590542 0.21167898 -0.17635098 0.04810022 0.048576396 -0.09022622 0.0598128 0.14401267 0.057091042 0.08912125 -0.083644085 0.082310066 -0.008835852 -0.11487616 0.109491564 0.034651823 -0.11509524 -0.010207072 0.0074209133 0.00039956495 0.16754374 0.029640106 -0.04105544
不想 -0.07103987 -0.071211405 -0.001465038 0.07809591 0.033873197 -0.069783725 -0.04619572 0.002449132 0.18128212 -0.12200239 0.032781392 0.043194123 -0.060758382 0.040751453 0.10267048 0.024460195 0.04781118 -0.04041 0.06554768 0.018173454 -0.10091717 0.08111729 0.025241723 -0.060637396 -0.012843941 0.0055078273 -0.00035830657 0.12335849 0.04336175 -0.012931054
承认 -0.046861507 -0.09188279 -0.0038448253 0.073840946 0.028415753 -0.0562386 -0.041327357 -0.0050973254 0.19529782 -0.14679722 0.02659509 0.0368004 -0.075259164 0.046439838 0.120862655 0.043334678 0.0700272 -0.045249507 0.078441545 0.016091794 -0.09369092 0.07895416 0.029441632 -0.0804176 0.013967599 0.00083575264 -0.0072491635 0.13899633 0.03989425 -0.011125084
公司 -0.07653338 -0.099348344 -0.015321405 0.08461181 0.02256385 -0.09642766 -0.054352276 -0.033041317 0.24933518 -0.16992807 0.049163587 0.072887495 -0.08229512 0.066818915 0.17174312 0.042221874 0.084712826 -0.06914812 0.09472899 0.005731539 -0.13547571 0.10919097 0.018551117 -0.08868672 -0.013074732 0.00072249473 -0.02249809 0.15695678 0.025458476 -0.027974324
刘 -0.10122 -0.13715956 -0.007732398 0.13085487 0.01823713 -0.13138169 -0.053950764 -0.03623384 0.30052862 -0.2387845 0.052459273 0.07585806 -0.10238333 0.08948664 0.21715821 0.048187226 0.10049845 -0.101658784 0.11800741 0.006860627 -0.1706 0.12649916 0.02149345 -0.11940164 -0.004777654 0.013944724 -0.008312314 0.20416543 0.059535667 -0.046905383
前 -0.071294285 -0.09607808 0.00444625 0.082215324 0.014855312 -0.060222246 -0.061597183 -0.01128444 0.21654305 -0.15870121 0.033707254 0.04734072 -0.07514588 0.07743876 0.13444062 0.047751322 0.060325235 -0.07186764 0.072808914 -0.0104275225 -0.11143902 0.0941317 0.019581972 -0.0912702 0.0011479417 0.008318007 -0.016436698 0.15654922 0.05238851 -0.023086444
抓 -0.05521237 -0.090758905 -0.020160958 0.07500706 0.030507213 -0.083973855 -0.037101533 -0.006429829 0.18691419 -0.15726955 0.040471617 0.038493466 -0.08661422 0.067228146 0.13265602 0.042398587 0.06532071 -0.06701693 0.07671812 0.007871988 -0.1054665 0.07026923 0.038691524 -0.07096442 -0.00015784937 0.0070318263 -0.009648604 0.11917626 0.018056365 -0.010840187
嘱咐 -0.04712339 -0.05808005 -0.002591242 0.05775101 0.009590411 -0.061653167 -0.034671742 -0.015617374 0.16212854 -0.121245265 0.022647046 0.037886813 -0.0724232 0.060781527 0.09526513 0.02935071 0.07025073 -0.044461094 0.053137645 0.015372287 -0.09164623 0.05671317 0.025402797 -0.07567907 -0.013597019 -0.0025649273 -0.008706882 0.11057882 0.032920092 -0.03202555
威胁 -0.0673645 -0.08389368 -0.0008723113 0.0680559 0.011992193 -0.07430672 -0.04533587 -0.028142393 0.19763936 -0.15496719 0.04564307 0.03469424 -0.065110385 0.07122339 0.14564103 0.054469015 0.06881984 -0.08163948 0.098640114 -0.00968839 -0.1309278 0.0987466 0.040626734 -0.09526404 -0.002507563 0.014523924 -0.01054323 0.1540827 0.0476815 -0.014200833
喜欢 -0.068702176 -0.076885454 0.004792695 0.083550304 0.03831648 -0.08167363 -0.03760852 -0.025990887 0.18189499 -0.1347281 0.021784827 0.06147457 -0.08017562 0.07453037 0.124706514 0.029503835 0.07277631 -0.053689647 0.075117104 -0.0144525 -0.09948391 0.06325776 0.017126959 -0.0790151 0.012852286 0.027352381 -0.005467816 0.13198884 0.018572824 -0.016514508
银行 -0.087026 -0.13544348 -0.012771304 0.10118277 0.026296128 -0.11520524 -0.04919847 -0.030644942 0.2873126 -0.2275616 0.044025343 0.07166872 -0.113382444 0.07638984 0.19270405 0.042284004 0.09878227 -0.08647614 0.11017873 0.016887799 -0.15934663 0.11606089 0.04565908 -0.1289338 -0.017286977 0.0046655536 -0.0010337783 0.19956574 0.049399864 -0.041279294
真的 -0.048359074 -0.08677256 0.0012573467 0.07629617 0.030422626 -0.05571991 -0.04979879 0.0022612787 0.19374979 -0.14602919 0.049615745 0.05629296 -0.06623772 0.060771618 0.14642961 0.036416836 0.08569214 -0.06529639 0.09039758 0.016389089 -0.09878377 0.07092536 0.014908193 -0.09147923 -0.010103889 0.0031809208 0.010575779 0.13541664 0.03060838 -0.033310145
指出 -0.073112294 -0.089307524 0.0050997953 0.074787475 0.02423293 -0.068293646 -0.048338898 -0.029075623 0.18218914 -0.14633474 0.025104722 0.03412547 -0.05961258 0.054315455 0.1142445 0.035027236 0.059493966 -0.070408426 0.07540687 -0.010483587 -0.10043085 0.07057611 0.009359191 -0.08477534 -0.009068218 0.023324536 -0.021639649 0.13756007 0.036473993 -0.03378745
车 -0.05294201 -0.06734902 -0.00089746853 0.06791232 0.020388247 -0.038505673 -0.028319614 -0.008962696 0.12614375 -0.09530512 0.023201222 0.030429536 -0.061251167 0.038589533 0.07786817 0.026060343 0.051709894 -0.05162403 0.06907114 0.009943757 -0.07387534 0.067712724 0.016759312 -0.059827898 -0.012042536 0.00046707006 -0.012485799 0.096049234 0.031983394 -0.011259565
新 -0.07149553 -0.099665985 -0.019687146 0.06645944 0.0112498095 -0.08620137 -0.05440043 -0.019155914 0.2047425 -0.14808503 0.03732505 0.05166194 -0.061149042 0.06719433 0.14850172 0.022123296 0.07912716 -0.069235496 0.09668297 0.0066893646 -0.11269024 0.08139629 0.035205457 -0.10619575 -0.016554136 0.009220071 0.0038370201 0.13193847 0.028181441 -0.031272598
中央 -0.055234943 -0.0849302 0.0077511584 0.0630907 0.028830847 -0.075408645 -0.052284416 -0.026344998 0.17731008 -0.12803034 0.017176183 0.027277512 -0.05732803 0.04287585 0.10588803 0.03425589 0.06276439 -0.035464466 0.05015383 0.01346251 -0.10570268 0.07619583 0.026286036 -0.07045035 0.005398799 0.017465247 -0.0009817075 0.11950036 0.037894044 -0.030086117
美国 -0.049807813 -0.071301505 -0.003670135 0.06670551 0.0132916225 -0.07240247 -0.04625195 -0.023908583 0.19020331 -0.1449727 0.043127257 0.04917108 -0.08766174 0.046857636 0.14189704 0.043377448 0.077736 -0.054719213 0.09133047 0.01789319 -0.095844164 0.09333353 0.01691915 -0.08149354 -0.013251147 0.017330945 0.0015760753 0.12552513 0.025398681 -0.014674278
吃饭 -0.050573524 -0.0700556 -0.012266585 0.08515054 0.033167224 -0.075669065 -0.026697401 -0.023665164 0.17645049 -0.14583334 0.038278446 0.041557666 -0.05793835 0.07000042 0.123661764 0.035872143 0.077420674 -0.054494556 0.07682073 -0.014027252 -0.11082433 0.09012711 0.037713245 -0.084831126 0.009229934 0.00058258756 0.0067917476 0.1446523 0.03170789 -0.027441561
送 -0.04095827 -0.07176612 -0.0053872215 0.07768411 0.026896115 -0.063422985 -0.050140835 0.00021645303 0.16858359 -0.13363871 0.028293852 0.04756284 -0.06113508 0.048236806 0.10923087 0.017504258 0.068530254 -0.044679314 0.070304565 0.006864376 -0.077658825 0.08217953 0.024677876 -0.080848426 0.003993776 0.01900795 0.008505046 0.120709494 0.014956738 -0.023798319
同意 -0.04606648 -0.07730887 -0.011786471 0.07289423 0.028684478 -0.04880574 -0.047642425 -0.011095044 0.1654643 -0.12514473 0.021471607 0.055917248 -0.04623162 0.050705764 0.11839719 0.04584917 0.061373554 -0.035305608 0.06622733 0.006243032 -0.09673675 0.06126473 0.02546395 -0.08844092 -0.014384013 0.011823378 -0.009255216 0.10721552 0.018496523 -0.03719481
关系 -0.057015464 -0.06795795 -0.018128958 0.056947514 0.034842942 -0.06861571 -0.05468486 -0.00035585676 0.17030522 -0.13334703 0.014380244 0.05466266 -0.06060503 0.06429353 0.11723554 0.041860264 0.0506563 -0.062919796 0.06973669 0.010948719 -0.10996324 0.081730224 0.026645565 -0.07800394 -0.014537771 0.0001415252 -0.0027449974 0.1200857 0.04041553 -0.019471137
躲 -0.062341478 -0.06422857 -0.02593113 0.06928441 0.019444792 -0.07105993 -0.051346954 -0.002086805 0.1683811 -0.1469073 0.04321965 0.040555526 -0.07737449 0.051319037 0.11193276 0.018524202 0.07656035 -0.037418246 0.08452394 -0.002385699 -0.08160967 0.08556106 0.019281346 -0.066780776 0.00015335067 0.011758898 0.003450994 0.12328352 0.03650903 -0.008262796
气得 -0.053462412 -0.061145216 0.0009204777 0.08020239 0.029373217 -0.054685503 -0.036930963 -0.016660178 0.15574767 -0.11184715 0.01826791 0.04105945 -0.06580349 0.048050392 0.104789056 0.020909062 0.058468167 -0.05183088 0.049174137 -0.0023931419 -0.08640342 0.057461347 0.022330983 -0.06846271 0.005025292 0.019538004 0.010719294 0.09863193 0.012900799 -0.022646025
吴心怡 -0.046091937 -0.08745092 0.0069093914 0.062962875 0.021349965 -0.045388535 -0.022842359 -0.026688838 0.15950942 -0.1158808 0.031465683 0.031688273 -0.056566484 0.0377616 0.09791459 0.030680776 0.06604972 -0.046325244 0.0721261 0.011863001 -0.091294326 0.07253747 0.022293204 -0.055809148 0.0072686193 0.008035279 0.0039635384 0.10278521 0.022602558 -0.03025389
王文革 -0.03483557 -0.050532356 0.0005239953 0.050160106 0.02591991 -0.059081934 -0.032495253 -0.01928594 0.13620687 -0.08595298 0.03700104 0.015850337 -0.048263505 0.039247338 0.07924719 0.039941598 0.055755217 -0.031028038 0.040362705 0.0071829343 -0.07429466 0.055648584 0.016928174 -0.06598074 -0.010102202 -0.0071569346 -0.0056207147 0.099684544 0.0073890314 -0.03112423
反贪局 -0.07417299 -0.07453301 -0.010594394 0.07602974 0.03711668 -0.064215064 -0.056116045 -0.004946074 0.19587246 -0.13187134 0.017352162 0.038793 -0.0715359 0.06929185 0.11788616 0.038623437 0.08484624 -0.053136993 0.07215848 -0.010745468 -0.11201392 0.0849179 0.03589792 -0.089907266 0.0054588383 0.0144104585 -0.012491249 0.111256644 0.031944823 -0.02163956
查 -0.035563137 -0.081956044 -0.01803235 0.07423244 0.011285003 -0.07104869 -0.035318784 -0.006000869 0.16605145 -0.120933235 0.030659521 0.034015063 -0.05195445 0.034794815 0.11487421 0.02461112 0.063923776 -0.04763252 0.06983308 0.0056296703 -0.08700341 0.048787415 0.021300716 -0.080151856 0.0058915378 0.017330937 -0.0046552373 0.09264289 0.029401153 -0.031549763
只得 -0.06549479 -0.084729865 -0.01168136 0.05770313 0.0241546 -0.06263492 -0.0554222 -0.01891198 0.16559558 -0.13622764 0.035440043 0.04749167 -0.052782632 0.059335552 0.12501672 0.037823558 0.07363289 -0.05769453 0.08653409 0.0070498683 -0.082461745 0.05901793 0.037099417 -0.08763709 0.0028608188 0.017854588 -0.002705606 0.1128797 0.023699628 -0.014092719
看着 -0.054136176 -0.06779595 -0.015239495 0.054913733 0.029500054 -0.0746936 -0.04841366 -0.025240477 0.15502596 -0.12550436 0.034495667 0.028533416 -0.06673738 0.06738211 0.13550305 0.016069582 0.06389146 -0.046148248 0.07827131 0.007517764 -0.09196355 0.07156131 0.03378153 -0.062509686 -0.01710205 0.020416262 0.007470737 0.13184974 0.039181992 -0.033234026
激动 -0.050434835 -0.0778864 -0.017284224 0.061122965 0.011171335 -0.05774389 -0.036259424 -0.004351878 0.13783297 -0.12277182 0.024832215 0.022811944 -0.06746392 0.058216043 0.113978565 0.019884244 0.038897365 -0.028373597 0.06955735 0.015240987 -0.09465534 0.072322085 0.0038873858 -0.057442874 0.009846538 -0.0053810207 0.009091758 0.08725902 0.039068 -0.014045622
出逃 -0.046380304 -0.05487618 -0.0042480705 0.058906756 0.00038512357 -0.03717153 -0.028269889 -0.018738879 0.111019425 -0.082001306 0.03166428 0.03242564 -0.049804766 0.03266149 0.07485863 0.0361853 0.05744248 -0.036251996 0.053015236 0.011247176 -0.08077633 0.06025495 0.0074958997 -0.057583082 0.01065902 0.013271759 0.0076949024 0.07060939 0.016891636 -0.0004633567
拿出 -0.04883647 -0.07801001 -0.0048677702 0.06397227 0.0048293024 -0.057919983 -0.04905197 -0.02002688 0.1393879 -0.12970865 0.03323372 0.046426557 -0.045744486 0.042865433 0.11284932 0.032374956 0.045763947 -0.043866415 0.04988421 -0.003261968 -0.08218941 0.06388422 0.0249363 -0.06896667 -0.014234313 0.0028765614 0.005573353 0.11437994 0.01814845 -0.033012662
身上 -0.06708686 -0.071219794 -0.020824607 0.056940496 0.0143030025 -0.08108181 -0.04351331 -0.022902414 0.16578539 -0.11528769 0.019454319 0.030795872 -0.05956164 0.0516228 0.10831098 0.017360011 0.06455841 -0.06232831 0.054833677 0.0057385303 -0.0888938 0.083479285 0.014012656 -0.073543265 0.00937009 0.027334485 0.0008041549 0.11600691 0.034036774 -0.030345598
律师 -0.05734978 -0.07038844 -0.016455812 0.075202964 0.012487397 -0.061806165 -0.033877466 -0.0016852287 0.16406475 -0.114023514 0.021608474 0.04507575 -0.075068906 0.04398854 0.102407224 0.028910035 0.07038839 -0.05845291 0.07946811 -0.0071935277 -0.07730903 0.083725095 0.01333281 -0.06890722 -0.007470624 -9.485822e-05 -0.017608514 0.12218927 0.03869301 -0.029305233
庆祝 -0.07133556 -0.1014902 0.0016068361 0.10675287 0.03545109 -0.099487126 -0.04077279 -0.0087380875 0.24152432 -0.17929141 0.061008185 0.06823236 -0.09372331 0.08010303 0.18795249 0.0447801 0.10578099 -0.09054079 0.09740333 0.018526645 -0.12097608 0.1055655 0.019641515 -0.10583785 -0.016512254 0.013483969 -0.016859705 0.15907843 0.040517505 -0.047599025
一点 -0.0690152 -0.100443825 -0.01459036 0.065096565 0.025151212 -0.06306714 -0.04891208 0.00084963115 0.19641449 -0.16112542 0.047084983 0.050225824 -0.08724926 0.06510465 0.14938493 0.05264581 0.09206545 -0.049914207 0.07013372 -0.0109545505 -0.11726858 0.09137306 0.03682984 -0.08849232 0.010098516 0.0050013564 -0.010918346 0.15359242 0.050215583 -0.014319273
命令 -0.063604005 -0.088830665 -0.0070550605 0.068600915 0.028271744 -0.07693478 -0.03368484 -0.008595171 0.18081596 -0.11846249 0.022832979 0.029810557 -0.07567835 0.063204125 0.13379216 0.028338578 0.074089445 -0.052927088 0.057686407 -0.008482651 -0.10918941 0.09032582 0.03384035 -0.081199616 0.005704698 0.012718644 -0.0020025026 0.13593741 0.04427287 -0.034630533
答应 -0.06437905 -0.0807544 -0.018557133 0.06438575 0.033354014 -0.06993855 -0.047654387 -0.012617836 0.18677387 -0.13732165 0.04413296 0.057238545 -0.07717191 0.061536442 0.13461222 0.02001534 0.0808976 -0.06625255 0.058452945 0.0064043337 -0.09486368 0.076614045 0.010735871 -0.08921937 0.008242194 0.0020957685 -0.0036829584 0.13108906 0.016656684 -0.026383352
找到 -0.054982312 -0.0766692 -0.014879774 0.06576833 0.00020019832 -0.036646567 -0.037446346 -0.014047924 0.13299431 -0.12063482 0.03940709 0.046937123 -0.06528433 0.057326403 0.09139802 0.036708724 0.036867 -0.037083324 0.06406949 0.005838423 -0.08196925 0.059005067 0.0013657503 -0.05045435 -0.011215269 0.005520058 -0.006791169 0.08903705 0.009933347 -0.032443423
贷款 -0.05261657 -0.07138962 -0.0019135295 0.072727375 0.028721504 -0.06010742 -0.05294255 -0.0070233596 0.15830836 -0.12979169 0.0407394 0.04181464 -0.068651766 0.044602577 0.10954109 0.030312896 0.07469892 -0.05606286 0.05819869 -0.0036444329 -0.11255772 0.07036792 0.020236183 -0.094777755 -0.01658755 0.007044152 0.009789133 0.12184026 0.017273754 -0.012444432
建议 -0.050107542 -0.068633966 0.0074645514 0.05910099 0.01902965 -0.06698916 -0.022125823 -0.024948876 0.13782118 -0.08973162 0.018478965 0.033055168 -0.044690885 0.054709367 0.10274603 0.039036337 0.046909627 -0.056362353 0.041021105 0.0020218825 -0.08168019 0.05056597 0.0015052849 -0.07886113 -0.0054466454 0.0028830455 -0.005877537 0.093103774 0.027888535 -0.00861916
离婚 -0.04389646 -0.057647787 -0.006017556 0.06935496 0.02910861 -0.05013424 -0.042134665 0.0003218191 0.14540365 -0.11126065 0.016381057 0.041727006 -0.070708625 0.039552804 0.09728481 0.032691356 0.057581317 -0.04014274 0.05369681 -0.0045247846 -0.08554042 0.056722812 0.004543239 -0.050500285 0.003998263 -0.004769949 -0.019409457 0.11384942 0.022912595 -0.014511285
太 -0.05686137 -0.051717732 -0.015362209 0.059203528 0.007829563 -0.059858963 -0.034347262 -0.0064322227 0.1327461 -0.10192364 0.02360034 0.0188187 -0.045925755 0.050461 0.097424135 0.039616127 0.040562343 -0.023078477 0.05017099 -0.009959421 -0.08709303 0.06335517 0.018369818 -0.040412392 -0.009074842 0.016601834 -0.013817494 0.09450107 0.01386891 -0.0002935107
依法 -0.049597584 -0.072946355 -0.018190311 0.06546841 0.022337478 -0.055327915 -0.044159576 0.0012278133 0.15785414 -0.097240426 0.022558061 0.03468748 -0.043169383 0.06173478 0.102659024 0.039011367 0.046299223 -0.038889594 0.051923983 0.014252457 -0.06962269 0.05384234 0.011035073 -0.08233286 0.008352338 0.0042530266 -0.021117488 0.091221094 0.019442022 -0.024028474
年 -0.04061297 -0.08197034 8.502553e-06 0.07276298 0.0063914517 -0.04422813 -0.023640888 -0.023729905 0.16577859 -0.10755362 0.018669346 0.029209988 -0.062425334 0.04521641 0.12073196 0.044887286 0.04968336 -0.04527049 0.055359177 0.014734053 -0.08589309 0.053762797 0.0036342344 -0.06481769 0.0015155432 0.0074343043 0.010935586 0.10292795 0.0213275 -0.02919387
死 -0.051641673 -0.06864083 -0.01959485 0.067038186 0.022913268 -0.04552906 -0.015612555 -0.01426368 0.14485627 -0.09267471 0.01910254 0.03361209 -0.056710362 0.025161766 0.08381295 0.03887698 0.03607278 -0.050500922 0.06122249 -0.010562 -0.07725417 0.047305033 0.0033760648 -0.075072184 0.002573067 0.014101325 0.00344666 0.105289176 0.03185394 -0.032586448
林城 -0.018788507 -0.06203366 0.0056850445 0.03198098 -0.0045220964 -0.049097035 -0.015525126 -0.009292465 0.09045694 -0.07234285 0.02610981 0.02184559 -0.038009368 0.018088806 0.072479054 0.033041652 0.050781257 -0.028210472 0.056531083 -0.0055169878 -0.06675343 0.053449444 0.0173788 -0.053287573 0.00061797624 -0.0037138986 -0.0076377387 0.07580635 0.023995386 -0.0119438395
拆迁 -0.050464794 -0.0893132 0.0012303393 0.0830445 0.028942766 -0.050551552 -0.04824535 0.0018898754 0.17484711 -0.12585716 0.028911896 0.05356791 -0.06660608 0.054189824 0.12591663 0.021909041 0.07082587 -0.057454716 0.06303566 0.010192621 -0.09257067 0.06210145 0.012890342 -0.05993376 -0.009447732 0.0067832367 -0.0025778858 0.11687668 0.043062877 -0.021826621
腐败 -0.0329895 -0.060250334 -0.0035596148 0.046844788 0.024136348 -0.06197043 -0.016508987 -0.018328508 0.13025814 -0.09731096 0.032128945 0.04479757 -0.057438344 0.038109224 0.084337965 0.015465424 0.05829954 -0.052610632 0.044988994 0.0027905835 -0.056897406 0.053026013 0.024420626 -0.04566937 0.009804164 0.013735424 0.0069040405 0.09665168 0.028262487 -0.0026523876
消息 -0.043173324 -0.05348961 0.007941263 0.061959423 0.030983724 -0.058818802 -0.034157876 -0.0028411292 0.13191873 -0.086431004 0.013954918 0.03590991 -0.04938053 0.03290117 0.09717504 0.015874986 0.0517604 -0.05018455 0.0370618 -0.009009209 -0.05520056 0.06316413 0.014088625 -0.05521202 0.0022251147 0.013404615 0.0067280214 0.09796007 0.032586224 -0.0012409524
回家 -0.050836325 -0.05615843 -0.0018387047 0.06282905 0.02873361 -0.05046609 -0.02986737 -0.0033889953 0.120986834 -0.09533264 0.025914889 0.042893093 -0.038749233 0.029475244 0.0698018 0.006912046 0.04558106 -0.04019508 0.05551705 -0.0038870494 -0.06250777 0.038395878 0.030218842 -0.060755923 -0.008481078 -0.004215424 -0.001818358 0.08754746 0.028105848 -0.021054907
询问 -0.047364943 -0.06902368 -0.0073095593 0.069355555 0.018436238 -0.05585867 -0.045630742 -0.01052115 0.16821982 -0.13425852 0.044418626 0.032810792 -0.04949326 0.068969816 0.11542516 0.03607904 0.06408853 -0.057479996 0.06984384 -0.004904138 -0.08875744 0.05843761 0.02873742 -0.092169814 0.0063477927 0.015817756 0.0037122979 0.11585275 0.015168068 -0.007770572
开 -0.057756294 -0.060857072 0.006504286 0.072038054 0.023686096 -0.04613473 -0.024715763 -0.0062840167 0.15770213 -0.11368191 0.03942837 0.052467007 -0.059870325 0.06124665 0.11271079 0.044136457 0.06836077 -0.036709413 0.069935344 0.0116939 -0.08748298 0.068340786 0.027872423 -0.0677784 -0.009301959 0.026911203 -0.020968104 0.09626311 0.043405212 -0.028874854
只能 -0.068886615 -0.060055632 -0.012937712 0.07042304 0.0045555434 -0.08129637 -0.029368816 -0.012425253 0.17460738 -0.14047293 0.030748626 0.03035906 -0.065637685 0.04623893 0.106812134 0.027311837 0.05251726 -0.058282632 0.06770775 -0.0068464363 -0.1094518 0.08735794 0.03238274 -0.06472089 -0.013048799 -0.000705146 0.00372973 0.12262175 0.045726355 -0.010622234
女儿 -0.074418366 -0.0771612 -0.0014241185 0.08829906 0.02534936 -0.07870691 -0.0479385 -0.024400137 0.19557971 -0.12759992 0.016755022 0.047627687 -0.082352966 0.0470669 0.13898627 0.021449799 0.0592379 -0.04395542 0.06753148 0.017924054 -0.0957079 0.09059403 0.02548511 -0.08466138 -0.0066156858 0.005720066 -0.017267216 0.1227837 0.042769216 -0.02113128
张宝宝 -0.046961594 -0.09387361 -0.02611181 0.06726444 0.024628129 -0.07957822 -0.026120663 -0.011019237 0.18193701 -0.124022886 0.029756626 0.05672397 -0.058955003 0.06483335 0.1323444 0.038387764 0.07483407 -0.071444616 0.057335567 -0.0037999656 -0.10169628 0.078798324 0.03190845 -0.08089772 0.0008436611 0.016231894 -0.015343733 0.13138269 0.043829843 -0.037624624
老师 -0.05852548 -0.07998093 -0.015739962 0.06242139 0.011126776 -0.06763159 -0.034409735 -0.00012691674 0.16952005 -0.15816882 0.028954105 0.049595878 -0.059067495 0.046545476 0.1261557 0.022250226 0.07468934 -0.046741553 0.070683986 0.0006030288 -0.1162109 0.083328165 0.03162213 -0.07141687 0.002405515 0.011325807 0.0062777633 0.13081804 0.047953624 -0.026132394
美食城 -0.038498882 -0.047826033 -0.02256356 0.05356009 0.0060524903 -0.059721634 -0.014871348 0.0022191764 0.14736678 -0.11002984 0.028811863 0.028463092 -0.057430945 0.038321976 0.08820672 0.021084115 0.048023477 -0.033216942 0.041144263 0.0005776832 -0.077693716 0.055981115 0.027077664 -0.05387013 -0.010682408 0.002202087 -0.011369608 0.107662015 0.013186578 -0.02418329
油汽 -0.061512113 -0.10087653 0.0005347572 0.08728762 0.008757455 -0.0922143 -0.037750863 0.00058359664 0.22833033 -0.16574202 0.04484126 0.03703247 -0.0907675 0.06788366 0.16700675 0.036020357 0.075202286 -0.06650115 0.088355824 0.019481268 -0.11283191 0.07685385 0.01936803 -0.08416597 -0.0011299475 0.02341405 0.00816384 0.14761041 0.054600917 -0.040539507
判处 -0.06222832 -0.052623685 -0.0028054798 0.06682283 0.021393223 -0.048959427 -0.02234617 -0.019002097 0.12979752 -0.0915705 0.035307523 0.022038719 -0.059551027 0.0314962 0.10995463 0.011084274 0.05681286 -0.045400925 0.062848754 0.0032727248 -0.09174167 0.058202513 0.018033804 -0.060697217 -0.00061342603 0.015608268 -0.008619548 0.07954714 0.0075796647 -0.017929407
门口 -0.046683934 -0.063685775 0.0036773877 0.0736839 0.0076319487 -0.069266826 -0.041970972 -0.014801272 0.15771562 -0.10608056 0.026538854 0.026326176 -0.043519247 0.05037037 0.109252214 0.04376417 0.05069893 -0.045672428 0.04389802 0.013210193 -0.08732177 0.056028508 0.0047711413 -0.052479003 -0.006544698 0.021426246 -0.012823669 0.091299094 0.027486391 -0.0058860118
会议 -0.0600779 -0.05393253 0.0062968996 0.03898529 0.0034220465 -0.059998363 -0.033174664 -0.0048400853 0.13976642 -0.10155646 0.019190364 0.047115993 -0.057005122 0.041624557 0.09989661 0.03677765 0.054543987 -0.05753264 0.06124435 -0.011636392 -0.07412827 0.051932164 0.009567913 -0.0667167 -0.010099849 -0.0032405488 -0.0010984966 0.103059866 0.018837048 -0.026019014
领导 -0.03410152 -0.041697 -0.00449603 0.031375818 -0.0030221036 -0.05015062 -0.01899714 0.0007132662 0.13223901 -0.10389949 0.0075629745 0.044179138 -0.037722073 0.030938458 0.08094714 0.033768173 0.033042904 -0.051616464 0.03829493 -0.003137088 -0.081599854 0.03776325 0.011400572 -0.059112445 -0.0041393023 -0.0059375735 -0.007474641 0.08159082 0.037703022 -0.02854001
酒店 -0.056282926 -0.08836588 -0.014017949 0.07691173 0.015499245 -0.055424593 -0.03188511 0.0003803721 0.1817537 -0.124584824 0.032117065 0.049709897 -0.046819113 0.037300162 0.13183858 0.035659175 0.053129137 -0.047346264 0.06805107 0.012446191 -0.080171436 0.0698337 0.012402831 -0.081303634 -0.016499974 0.004899558 -0.004810379 0.12587328 0.022239737 -0.025448808
资料 -0.03308933 -0.044158712 -0.0031595428 0.0665836 0.021238562 -0.061619107 -0.016613992 -0.0036178436 0.12940793 -0.09104835 0.02358841 0.02099958 -0.035432633 0.044830654 0.080361344 0.011463945 0.05279194 -0.039609898 0.06328028 -0.004092223 -0.08319405 0.05338301 0.017032603 -0.04238034 0.010580706 -0.0032051562 0.0077350647 0.09646493 0.02133734 -0.024859555
区 -0.034042057 -0.045697328 0.010155624 0.03951426 0.0036393935 -0.057615142 -0.020458264 -0.02352649 0.12379712 -0.07918773 0.025052033 0.040833835 -0.030312913 0.043512523 0.06849017 0.033918127 0.032708634 -0.04708897 0.051890984 -0.0029004298 -0.060771905 0.03827426 0.025455648 -0.037973065 0.012815559 -0.009158951 -0.012021421 0.09436375 0.006139845 -0.025331888
是因为 -0.062416565 -0.07179022 -0.009299027 0.04891268 0.0055560083 -0.07100362 -0.038445823 -0.0035269714 0.1521741 -0.102898955 0.0204702 0.05109341 -0.0712207 0.05745719 0.10302716 0.028388115 0.06295324 -0.041138865 0.052518394 -0.005355513 -0.0822756 0.08013368 0.022690818 -0.054683868 -0.010721942 0.007046671 -0.0063155578 0.10970511 0.030282162 -0.0076645133
卖 -0.047372546 -0.044991903 -0.015284969 0.03224553 0.021422753 -0.029189708 -0.031303953 0.0026625334 0.11883813 -0.081258446 0.015321525 0.020559996 -0.05779956 0.02945492 0.07944626 0.026792618 0.030603964 -0.03185854 0.04507054 0.009053101 -0.044029746 0.05464829 0.0075319763 -0.05761488 -0.0034598154 -0.008813431 -0.018431382 0.075838946 0.03094349 -0.0067190053
劝说 -0.02001806 -0.054640513 -0.01314441 0.04194398 0.013439291 -0.050278895 -0.015100561 0.0003076903 0.10393111 -0.07958936 0.024849482 0.009916694 -0.05391577 0.046363875 0.07809797 0.030852895 0.049087226 -0.019295104 0.040072035 -0.011568478 -0.061844543 0.033480592 0.008492597 -0.045488708 -0.007902365 0.005072663 0.011419376 0.05947334 0.026380254 -0.0066347104
保护 -0.048548944 -0.06267575 0.0066205375 0.04014515 0.004300422 -0.03559908 -0.02284779 0.0055038636 0.12394298 -0.088575915 0.015563907 0.01915602 -0.0517024 0.03949698 0.078534044 0.033260986 0.052858066 -0.04699897 0.059985887 -0.009898292 -0.059067104 0.049223855 0.026358701 -0.049271155 0.004443056 0.008862459 -0.020419428 0.09306631 0.013117914 -0.000914812
害怕 -0.066166185 -0.08683703 -0.0013850246 0.09406846 0.02618766 -0.07108477 -0.058732715 -0.0023488402 0.19440444 -0.15620336 0.047743056 0.06373394 -0.07035862 0.064922646 0.13424876 0.053351987 0.09414129 -0.058860328 0.095476575 -0.006589439 -0.10272885 0.08825221 0.034240074 -0.09832928 -0.009924616 0.01620987 -0.016125983 0.15477839 0.03872064 -0.036063705
警车 -0.031428177 -0.054780565 -0.020618888 0.05788653 0.0060060793 -0.040468324 -0.011625688 -0.018686444 0.11888731 -0.07407292 0.03303344 0.03458574 -0.05386479 0.03801669 0.07515669 0.033055004 0.050096676 -0.023052935 0.030087152 -0.0128288055 -0.051794305 0.036618225 -0.002049105 -0.039646994 -0.0025906656 -0.004374623 -0.01712097 0.0843411 0.01833507 -0.013281533
结婚 -0.053027164 -0.059817344 0.003916529 0.07038322 0.027304273 -0.06826954 -0.024692794 -0.00024512576 0.15340962 -0.113981456 0.019915128 0.039885506 -0.06336473 0.03596224 0.114225745 0.025177138 0.06055093 -0.04950495 0.05701871 0.0008488567 -0.07818395 0.04538326 0.019541387 -0.08244463 -0.0031841989 0.012587972 -0.015575167 0.09264693 0.019092854 -0.020756781
过桥 -0.07310172 -0.09301041 -0.024345936 0.10100411 0.034768146 -0.08701325 -0.05578618 -0.030346606 0.20742536 -0.15360591 0.054796945 0.03518013 -0.06863923 0.07018496 0.1382334 0.035541378 0.07902806 -0.05904431 0.07380923 0.008116183 -0.10640708 0.09596703 0.015473882 -0.11117493 -0.0011828415 0.02527612 -0.0049355323 0.1480358 0.038439374 -0.031197706
二十万 -0.036230884 -0.0676051 0.0060820393 0.041885406 0.028228123 -0.065508194 -0.046792973 -0.026179371 0.13621584 -0.118134655 0.029413462 0.028631706 -0.05472831 0.040897086 0.11206227 0.035157606 0.047257885 -0.032306205 0.06462199 -0.013818962 -0.07856222 0.05744469 0.003124132 -0.06701757 -0.014592924 0.012133568 0.00411979 0.08535634 0.02746652 -0.0026982424
先 -0.023457417 -0.046636656 -0.0056762616 0.050706524 0.021735694 -0.055026665 -0.034423005 -0.017893603 0.11088274 -0.10633962 0.020065626 0.024931476 -0.041563466 0.030648876 0.080752246 0.034489818 0.055355273 -0.026820488 0.055949636 -0.007100346 -0.0749702 0.041582525 0.02337869 -0.06886043 -0.011575884 0.0037295423 0.007966625 0.08524277 0.0052017435 -0.0031646665
佩服 -0.0681536 -0.0551411 -0.008994025 0.073835246 0.026112344 -0.0759992 -0.049042452 -0.013742785 0.17130004 -0.12678373 0.022475783 0.027160732 -0.05697911 0.04755354 0.09417752 0.025625693 0.05279029 -0.06179968 0.07798023 -0.014762498 -0.0837363 0.051361643 0.036680754 -0.06335252 -0.0008451915 -0.004499859 -0.005353021 0.1164871 0.01393231 -0.017446592
侯浩然 -0.031036139 -0.05631704 -0.0031628504 0.038863078 0.018059222 -0.04963449 -0.020149529 -0.003810783 0.13535248 -0.110908 0.03861052 0.032384273 -0.034477577 0.05344773 0.09320806 0.011144597 0.04424528 -0.038217396 0.05839584 0.008086038 -0.088252716 0.064627044 0.00801227 -0.054478515 0.006002057 -0.0009274201 -0.0026420758 0.10963438 0.015085086 -0.03321291
王 -0.0683023 -0.06104699 -0.008302421 0.06394755 0.014124767 -0.061510887 -0.038124677 -0.022381123 0.18892883 -0.120983206 0.024603214 0.039900355 -0.048842132 0.05851212 0.12016368 0.047327064 0.051223617 -0.053302564 0.057699867 0.0033782858 -0.089305416 0.06971672 0.035618547 -0.0806551 0.00042015032 0.0012336007 0.012608698 0.12598887 0.020279363 -0.008595745
监督 -0.025400218 -0.029436387 -0.014279149 0.03501555 0.017414229 -0.03892972 -0.01486912 0.007949391 0.109788686 -0.07551708 0.009376532 0.021126205 -0.024935944 0.046464026 0.061093412 0.004279922 0.040327765 -0.035419513 0.048537258 0.011051339 -0.059734304 0.034434065 -0.0012537029 -0.055119406 0.005892789 -0.0024147502 -0.005447169 0.07991765 0.008143717 -0.0033694194
刘珊 -0.058753632 -0.10739216 -0.016738748 0.09590365 0.033946645 -0.07521657 -0.036924444 -0.0050552245 0.20711578 -0.17000398 0.045143552 0.040260237 -0.06765328 0.05384984 0.15958521 0.042025253 0.06840453 -0.073487066 0.07191354 0.008409066 -0.10775136 0.09303104 0.017536193 -0.107185625 -0.016309772 0.016989948 -0.014886534 0.13530952 0.0473947 -0.028469773
小钱 -0.016568478 -0.05437634 0.0031445296 0.049053974 0.01237023 -0.028843159 -0.007710709 -0.0019233895 0.102298 -0.06459541 0.0120587945 0.011113234 -0.032392412 0.0318171 0.053660344 0.016253015 0.04893886 -0.023366943 0.03371513 0.012302857 -0.06900786 0.042514455 0.016993338 -0.029684087 -0.0041551595 0.009157928 -0.006661495 0.08332046 0.017118864 -0.0255262
数罪并罚 -0.031383816 -0.05201078 0.0038509392 0.049189806 0.0061309915 -0.04811371 -0.0038941212 0.0106235985 0.082468264 -0.073286094 0.031100461 0.005418113 -0.027377022 0.0145211285 0.048444573 0.011197427 0.0497229 -0.030480487 0.047570273 0.009820496 -0.040950052 0.052557003 0.020477476 -0.027204193 0.006892244 -0.0023249341 -0.012456444 0.05988121 0.008217786 -0.0001841555
国家 -0.06480386 -0.06598964 -0.016935494 0.08004188 0.026463764 -0.07537194 -0.037817735 0.0004122858 0.18817927 -0.12133041 0.0196875 0.04518204 -0.061942816 0.039877463 0.121942215 0.019186553 0.0661846 -0.04798866 0.07459582 -0.010675428 -0.09454309 0.07807087 0.028499743 -0.07559233 -0.013191956 0.021539979 0.0063187736 0.1364196 0.0272466 -0.034368232
副 -0.043852087 -0.06755918 -0.0065283757 0.07328855 0.027225396 -0.051790707 -0.040761318 -0.012709014 0.14866501 -0.1096595 0.037333496 0.03749883 -0.0540806 0.044415355 0.09058109 0.011816108 0.04115691 -0.028826345 0.07209909 0.009280886 -0.08155061 0.0786478 0.031659737 -0.07823686 0.010574807 0.012906633 -0.015421077 0.10978055 0.014569032 -0.031511623
家里 -0.03715163 -0.048867956 -0.0013771137 0.058229014 -0.0026123975 -0.049822703 -0.02882957 -0.011591883 0.09170676 -0.07744386 0.018419977 0.0139962025 -0.037655808 0.034190625 0.08257407 0.034614425 0.05504988 -0.0371959 0.04195053 -0.013858427 -0.070048355 0.032869667 0.013790265 -0.037331045 -0.014697878 0.020813476 -0.009952567 0.06913159 0.010104079 -0.011878475
逼 -0.027187152 -0.044886444 -0.011001706 0.03588682 0.027519435 -0.047985945 -0.01225337 -0.010702207 0.12434335 -0.08331409 0.027370118 0.020955961 -0.031998437 0.036216635 0.06651344 0.016459046 0.03064159 -0.05109032 0.045853596 0.0028739416 -0.05274124 0.03375146 0.017208906 -0.037775904 -0.007549389 0.013645603 -0.01053519 0.06708964 0.012456196 -0.0049859183
埋怨 -0.027863411 -0.05519418 -0.021301532 0.035489403 2.4812514e-05 -0.054133117 -0.039184082 0.0014220211 0.11715903 -0.0989025 0.03070822 0.024918161 -0.039823286 0.05018655 0.09353806 0.01565417 0.055753566 -0.024587313 0.047956858 0.008315486 -0.06128919 0.065592915 0.016591387 -0.05193338 0.009156409 0.00051405805 -0.017913174 0.06790518 0.02116902 -0.027409974
书记 -0.023384579 -0.0544095 0.0031018145 0.04204352 -0.0008600947 -0.060036838 -0.01492339 -0.0025066251 0.12467447 -0.10238489 0.017649477 0.033776082 -0.041165724 0.022939121 0.07851917 0.023445072 0.036410138 -0.036396693 0.058216937 -0.013758062 -0.069832414 0.05234387 0.02109222 -0.06690593 0.0018605505 0.020491933 -0.00023326496 0.09111923 0.015550713 -0.023609813
地称 -0.03685711 -0.06712495 -0.018384034 0.0775205 0.016862715 -0.05090583 -0.04593598 -0.025028212 0.1655623 -0.12536065 0.03213906 0.032887425 -0.065036766 0.04470993 0.10672828 0.024341084 0.06581635 -0.050577927 0.054458026 0.003765667 -0.08677909 0.081237756 0.031224586 -0.06941097 -0.013445059 7.770453e-05 -0.0012056555 0.11856576 0.025864517 -0.034237705
拆 -0.033121604 -0.0582752 0.0060406853 0.03299777 0.026602808 -0.054991454 -0.042653278 -0.023909016 0.100855485 -0.078018494 0.025172167 0.016400214 -0.045707174 0.037110344 0.08890309 0.013226381 0.05669917 -0.045899503 0.046652183 -0.009145479 -0.068080194 0.04242063 -0.0014268326 -0.053093906 -0.015860852 0.021184035 -0.005983556 0.08429978 0.017417677 -0.016597567
假装 -0.042372495 -0.060613517 -0.009763685 0.058950536 0.025814261 -0.039626803 -0.042294953 -0.015696503 0.124802545 -0.09459838 0.031127928 0.01929741 -0.041265465 0.04051053 0.08661604 0.02494378 0.051657397 -0.020755311 0.06072224 -0.012370526 -0.06555714 0.051764365 0.023394207 -0.04867344 -0.0038979973 0.008562716 -0.0012604959 0.082236566 0.013133866 -0.013958726
派 -0.05025063 -0.05143249 -0.0115076015 0.06246944 0.022241712 -0.055667564 -0.041256316 -0.023313956 0.13021396 -0.08598925 0.031437308 0.04150841 -0.037471183 0.04719259 0.07531498 0.014030341 0.060829528 -0.045842636 0.066607796 0.0160574 -0.08198636 0.07154614 0.0033816737 -0.061509173 -0.0036504366 0.007922667 -0.020165732 0.08425111 0.008587487 -0.016546942
司机 -0.012558747 -0.026922377 -0.018171472 0.04420044 0.0090987105 -0.049795587 -0.019981537 -0.006972831 0.079547524 -0.057502892 0.018530032 0.021825606 -0.03594523 0.022627054 0.064232424 0.016174732 0.040157013 -0.030454192 0.038723502 -0.00082979543 -0.05353978 0.02287307 0.0089395335 -0.054787822 -0.0017224599 -0.003789103 0.000649027 0.07814902 0.022610769 0.0016832052
请求 -0.05194768 -0.059248623 -0.003124728 0.038459465 0.0051512774 -0.055443674 -0.019780617 -0.005866716 0.12423123 -0.08615168 0.027545279 0.025487889 -0.055247344 0.020555202 0.071941316 0.013256443 0.028862452 -0.03160129 0.029786991 -0.0030635828 -0.05954085 0.05435696 0.018388646 -0.040321317 0.013074471 0.014546305 -0.015032853 0.08452352 0.030775309 -0.011228509
现场 -0.025079833 -0.067677006 0.0024284895 0.056443796 0.0049575306 -0.048745386 -0.018402101 0.0005929144 0.13220762 -0.109862246 0.015385715 0.04306931 -0.031434633 0.03531775 0.07227552 0.024721941 0.05586385 -0.0294324 0.047547944 0.01116403 -0.06745593 0.048784263 0.006848488 -0.044092678 0.012370379 0.018960556 0.009457778 0.07965614 0.032658003 -0.0032663646
做好 -0.011605683 -0.033490494 0.002240736 0.017718015 -0.005098834 -0.043941874 -0.03145361 -0.0038150523 0.08335216 -0.058524225 0.025869904 0.00338793 -0.03216933 0.0105321575 0.055741757 0.027187888 0.017269632 -0.04085181 0.029052883 0.017534748 -0.052524682 0.04534392 -0.0017224725 -0.024755817 -0.0029093737 -0.0017786239 0.0047849454 0.07270573 0.020228231 -0.023352673
正 -0.050118648 -0.06434409 0.007660474 0.032692187 0.018490968 -0.057051193 -0.021332648 0.0088638365 0.09462739 -0.072260074 0.01717565 0.025439076 -0.035018504 0.029113539 0.069597274 0.030769827 0.027145956 -0.035071786 0.04142039 -0.00040417118 -0.067511216 0.058734253 0.0050318865 -0.06530835 -0.008705091 0.02350375 0.006737347 0.07983786 0.018151512 -0.001580717
政府 -0.041274704 -0.07867858 -0.01261244 0.049889024 0.007928193 -0.060623825 -0.01852356 -0.017070414 0.15662013 -0.1009397 0.015000123 0.04687794 -0.0689763 0.04760605 0.10986585 0.031625524 0.056274705 -0.028569354 0.059398968 0.0027366513 -0.07335767 0.07208096 0.030430064 -0.07276997 -0.012687881 0.02571689 -0.018117815 0.08698063 0.03599055 -0.021940151
记得 -0.04223441 -0.020426033 -0.016130414 0.049296454 0.020745885 -0.021047337 -0.034188587 -0.01680718 0.07927371 -0.054203525 0.008217698 0.033848163 -0.019703235 0.03576858 0.054399446 0.0049587516 0.016827628 -0.021253074 0.018326458 0.008479813 -0.05003494 0.04802066 0.0034210857 -0.028837632 -0.0041028606 0.012317169 0.013728144 0.05287724 0.019342346 0.0050389273
提出 -0.028934596 -0.03567433 -0.00951516 0.0359255 0.014196753 -0.054252394 -0.03384299 -0.013119323 0.11818708 -0.06977198 0.009938388 0.020792447 -0.031235153 0.021994462 0.092336945 0.004252639 0.03582375 -0.04868532 0.034548804 -0.012035954 -0.043871984 0.037059303 -0.00045583158 -0.034194257 0.0156611 0.017531987 -0.011882682 0.06050288 0.022970516 -0.012961134
回去 -0.05625978 -0.037606355 -0.019952826 0.03505182 0.020562135 -0.036760867 -0.042639688 -0.021418879 0.12527369 -0.102466725 0.011809682 0.020815192 -0.050635103 0.054447554 0.090860695 0.035649482 0.039067544 -0.035326276 0.044790044 -0.015350474 -0.060472794 0.051755585 0.0046855244 -0.055784553 -0.009612806 -0.0026951276 -0.012587663 0.07870922 0.02850686 -0.0066951816
开心 -0.055912856 -0.053876057 -0.013832755 0.051863 0.0050240736 -0.06707551 -0.04031001 -0.008545565 0.12939069 -0.102612935 0.012887506 0.031338595 -0.047261123 0.058203444 0.10487964 0.011637876 0.04676509 -0.056601223 0.04620395 -0.0094958935 -0.08490052 0.07009357 0.0061534015 -0.04963544 0.008899882 0.014868946 -0.014656224 0.10574982 0.032286633 -0.023424668
老百姓 -0.042050105 -0.030725667 -0.00019326272 0.025700595 0.010198088 -0.027700115 -0.03546544 -0.007387302 0.081897415 -0.07646471 0.015394582 0.029367276 -0.045350734 0.014341657 0.08174551 0.027214423 0.023489952 -0.043486513 0.030651502 -0.006411699 -0.055668347 0.039571024 0.013784143 -0.04543878 -0.013356626 -0.00950987 -0.004528435 0.083112806 0.006577828 -0.003227592
不到 -0.03530859 -0.060983893 -0.023174297 0.043049823 0.00913283 -0.044849362 -0.042247552 0.006682187 0.11225195 -0.10303428 0.027314989 0.021861183 -0.036942605 0.039623793 0.073956415 0.010845979 0.0319263 -0.04254431 0.05506173 -0.011546062 -0.062130995 0.059200294 0.027393525 -0.059890997 -0.008882057 -0.00044868092 0.007883989 0.1038292 0.038780656 -0.03017089
做出 -0.05488137 -0.06196502 0.005303152 0.050562553 0.031966906 -0.06359003 -0.029089492 -0.011390676 0.15890917 -0.12390727 0.031351753 0.049567435 -0.04898475 0.047392055 0.11248583 0.013604249 0.059773296 -0.053656805 0.07334438 0.0058848574 -0.0697187 0.062751964 0.03298814 -0.06265993 0.0143846385 0.0056794924 -0.015850037 0.10941213 0.026264 -0.017699081
组织 -0.023800489 -0.053518374 0.0054944633 0.053735677 -0.0015783852 -0.038796034 -0.03225823 0.008954174 0.09401729 -0.0850585 0.030381802 0.0230658 -0.018429387 0.040030975 0.053101532 0.008460067 0.030339455 -0.025111787 0.02644532 0.016315144 -0.060955774 0.027083224 -0.004701457 -0.048597064 -0.016700007 0.003480276 -0.0127234915 0.07148917 0.01756487 -0.0014609448
学校 -0.040103838 -0.0628851 0.0013621845 0.045907706 0.012749179 -0.040954 -0.038043063 0.0035649422 0.124610364 -0.09658814 0.020077877 0.035114605 -0.036136497 0.032679237 0.09700366 0.030841924 0.050000865 -0.036043886 0.06151179 0.011568194 -0.07845215 0.06061875 0.0326296 -0.0744626 0.015072481 0.022568991 0.010018834 0.08683937 0.017213196 -0.01051575
推荐 -0.044837162 -0.035163768 -0.01669115 0.033738088 -0.003807404 -0.04300085 -0.019777464 0.00216004 0.09584738 -0.06746302 0.0124592185 0.0096621 -0.050553158 0.039268307 0.053130485 0.007441354 0.018228475 -0.025686136 0.04869554 0.007814062 -0.034525268 0.03428527 0.028008368 -0.03719482 0.0011680158 0.01683284 0.0076202056 0.048761185 0.010172417 -0.026239682
讲述 -0.037475154 -0.028155798 0.0107243275 0.05179041 0.0043479325 -0.039301965 -0.02664234 -0.00959258 0.086677246 -0.0570667 0.027999511 0.03368895 -0.034125548 0.029594898 0.056755017 0.005251873 0.030947117 -0.04420367 0.042961836 -0.012236822 -0.059704177 0.028537085 0.0005578967 -0.045592297 0.011638553 -0.0055830306 -0.017792087 0.052530605 0.0011826291 -0.0056397095
很快 -0.031089744 -0.06313203 -0.016735215 0.033070173 0.001231826 -0.030600084 -0.010441633 -0.0043649413 0.12227938 -0.08058917 0.029784411 0.019253466 -0.03289348 0.037027776 0.070893824 0.034116793 0.03276685 -0.038670104 0.044513457 0.003742552 -0.06664411 0.04775981 0.003852874 -0.044042334 0.008526746 0.0017352625 -0.01180509 0.07157709 0.012557981 -0.026135424
接受 -0.029244361 -0.044567276 0.007442197 0.047330562 0.0040924917 -0.045547698 -0.035787314 -0.01798819 0.111364014 -0.084112495 0.029228345 0.03478392 -0.055042334 0.04205147 0.08331257 0.024312902 0.035149276 -0.033417705 0.037413694 -0.0147297885 -0.07608491 0.061378986 0.019294573 -0.042635474 -0.0028115516 -0.0063940072 -0.003522602 0.09587932 0.028307337 -0.032201312
搜查 -0.04215153 -0.048268598 -0.021718698 0.039363362 0.0062717223 -0.029216034 -0.0059067467 0.0013357267 0.099923946 -0.049527638 0.032513496 0.0342429 -0.044000972 0.023055328 0.073342636 0.015583601 0.02543894 -0.02232533 0.048458226 0.006798112 -0.05569461 0.027313465 0.0023840107 -0.033432227 -0.002921251 -0.0075647538 0.008734493 0.05428654 0.008245619 -0.0073420014
汉东省 -0.034166686 -0.045126546 -0.00912308 0.034476828 0.020406531 -0.05586279 -0.027468765 0.0054492853 0.09637532 -0.093701854 0.019213116 0.039890286 -0.024040014 0.031013671 0.073768914 0.0038772149 0.043564342 -0.03460639 0.031370826 -0.009447915 -0.07259358 0.048910454 0.020037536 -0.055312213 -0.0048709 0.01849682 0.004997218 0.062912196 0.020970007 -0.024885504
涉嫌 -0.05481306 -0.05244513 -0.023264721 0.04265626 0.018968346 -0.064803734 -0.04502956 -0.013932158 0.12212603 -0.10312375 0.027887201 0.040708438 -0.052948296 0.02825523 0.0796443 0.02797662 0.05536737 -0.028841345 0.04796072 0.012276655 -0.0601531 0.053623598 0.013496846 -0.05582706 -0.008968829 -0.0055165295 0.011496004 0.078018144 0.013229643 -0.0069089667
局长 -0.04250715 -0.059168592 -0.017640213 0.031160414 -0.001255434 -0.034591697 -0.014115956 -0.0038253497 0.08609131 -0.08664562 0.007258987 0.01593773 -0.038411584 0.017201668 0.06781379 0.011663124 0.045797583 -0.024236295 0.055984724 0.00083171856 -0.04571752 0.04936232 0.018366609 -0.040260676 0.010718256 0.009050711 -0.010532837 0.08483464 0.02654533 -0.022558857
配合 -0.01394703 -0.029927824 -0.005828813 0.048296846 -0.0016629804 -0.032956563 -0.019648422 -5.8489615e-05 0.07659985 -0.07763351 0.01697171 0.024390433 -0.02592154 0.027992118 0.07642454 0.0095340265 0.03731992 -0.03339906 0.020979408 0.016401201 -0.034038313 0.028426023 0.009059942 -0.034527667 0.00032399013 0.022166284 -0.0020738998 0.07695154 0.027284468 1.6872953e-05
银行卡 -0.0427152 -0.047741637 -0.0018639425 0.038556546 0.015337627 -0.02367687 -0.003981454 -0.014772573 0.070835404 -0.055172343 0.016448744 0.029615914 -0.04542757 0.024289735 0.04459969 0.019752089 0.04545949 -0.022823276 0.042374916 -0.010312392 -0.055194095 0.028412132 0.008471002 -0.030812936 0.0023573148 0.009143431 0.011719548 0.054131467 0.031196613 -0.0030914617
回 -0.042430315 -0.055246767 -0.004910919 0.050047424 0.0075473995 -0.0371777 -0.036489397 -0.002071865 0.101528436 -0.07898333 0.017793173 0.022017159 -0.026771136 0.021304514 0.07945501 0.02228773 0.031197557 -0.023557518 0.025393723 0.013143751 -0.053392544 0.044951476 -0.004626107 -0.05316916 -0.013817797 0.0076042474 0.008026706 0.049272783 0.021199217 0.003765154
机场 -0.039953407 -0.03314338 -0.020318657 0.04435371 0.013626149 -0.047271177 -0.0048001376 -0.016532967 0.07463392 -0.06543957 0.010647222 0.03390993 -0.0188696 0.011992479 0.047466476 0.025293542 0.03433402 -0.024532385 0.03545054 -0.0051120115 -0.04070522 0.028478775 0.027873004 -0.03751631 0.01578658 0.022177221 0.0003379766 0.052253023 0.018741785 -0.023536712
跑 -0.03945677 -0.06556319 -0.004612056 0.03929849 -0.0014993822 -0.0454594 -0.02657323 -0.011238362 0.11718817 -0.09163873 0.03214028 0.019824076 -0.061491065 0.051351007 0.08036783 0.0077943252 0.04311512 -0.029633822 0.06394068 0.00409943 -0.07856364 0.063506715 0.005816121 -0.044492073 -0.007200726 0.020933578 -0.018285623 0.09837105 0.031270992 -0.0034571807
诬陷 -0.021560969 -0.01811569 0.0024896245 0.03568632 0.020510605 -0.019366052 -0.0120737795 0.002707205 0.06327471 -0.038424168 0.012285986 -0.0004411449 -0.037337475 0.0282462 0.04434662 0.0069890143 0.040667936 -0.017685415 0.037485972 0.010451411 -0.022388337 0.022564955 0.020747436 -0.035113186 0.0014170315 0.013386068 0.010612257 0.05064206 0.020897845 -0.014054193
面对 -0.046071026 -0.05598928 0.006482214 0.033163164 0.022810144 -0.023159083 -0.031719834 -0.005298655 0.08932273 -0.08997439 0.0131359855 0.028114688 -0.036171794 0.04172045 0.05340889 0.020916194 0.03986429 -0.0402335 0.04150552 -0.008658518 -0.05101388 0.036748488 0.015118673 -0.04323997 0.009253466 -0.009671887 -0.0038782086 0.056582306 0.010798541 -0.0040414436
说起 -0.037205536 -0.04761349 -0.012838771 0.030854298 0.009225266 -0.04762843 -0.021905946 -0.0035486824 0.09846798 -0.06668614 0.022150643 0.021469837 -0.031296004 0.03151963 0.06957084 0.0060943514 0.041888934 -0.023663655 0.034410436 0.0023252917 -0.04745099 0.036452707 0.011734364 -0.04512509 -0.0038484773 0.018122299 -0.0061914185 0.0532547 0.012752618 -0.0082262345
赶忙 -0.03149016 -0.043127436 -0.002217025 0.059606545 0.009592881 -0.056444317 -0.033280104 -0.0018785058 0.10777882 -0.086694226 0.019734617 0.028991267 -0.051446006 0.05073343 0.071043864 0.026065467 0.04465267 -0.035618007 0.042885 0.005112468 -0.0681049 0.06256293 0.0053583486 -0.06987507 -0.0007963176 -0.0006109149 -0.01841601 0.0861744 0.02375516 -0.0056809047
接 -0.04483336 -0.04209356 0.009502149 0.05528357 0.0057530687 -0.04843846 -0.040321328 -0.014477205 0.12143507 -0.06892151 0.034672372 0.012912245 -0.03389213 0.029816333 0.07807054 0.020548234 0.033956774 -0.031973973 0.04375735 -0.00633399 -0.073645025 0.06258142 0.019681757 -0.06632495 0.0071078283 0.011006858 0.009204413 0.06754183 0.025436083 -0.0059167705
长 -0.028972298 -0.064001866 -0.012247778 0.059700206 0.009238142 -0.031403802 -0.0122574605 0.007919906 0.107909694 -0.07772221 0.00903092 0.022421347 -0.03828876 0.038602136 0.092396155 0.031445377 0.031222004 -0.050872672 0.034478206 0.0016171705 -0.05204885 0.06221231 0.02562335 -0.061984174 0.006684626 0.0015129178 -0.011165914 0.07936558 0.010940291 -0.012849214
夸 -0.0107805235 -0.031717587 -0.010537779 0.034616236 -0.007516749 -0.03823579 -0.010321113 0.0051917364 0.08598103 -0.048190814 0.0085982 0.019757899 -0.025985073 0.02358261 0.047338367 0.0104424115 0.030105084 -0.015621497 0.03543483 0.008581529 -0.03232699 0.03778777 0.0067888745 -0.04841332 -0.006829058 0.0015085351 0.0018407889 0.037777677 0.026140708 -0.019050049
医院 -0.031678926 -0.055053398 -0.008640241 0.05714941 0.0029610582 -0.02472373 -0.036448475 -0.017696485 0.099283606 -0.08587913 0.00564194 0.012747465 -0.050976627 0.033908114 0.08320642 0.035764504 0.03439922 -0.021881064 0.04132026 -0.0034610997 -0.06581558 0.057943866 0.024188036 -0.056853186 0.014485081 0.009408733 -0.017820632 0.05836311 0.011967306 -0.025817174
车祸 -0.028515639 -0.04883063 -0.0011386231 0.059892025 0.012843726 -0.026621891 -0.013737163 0.0066913785 0.1171584 -0.07685853 0.020007655 0.018205542 -0.037753735 0.046241 0.0798234 0.019057238 0.044553258 -0.035411455 0.054326307 0.0018890037 -0.07552825 0.04295481 0.024142198 -0.03727641 0.013505527 -0.007145123 -0.011774279 0.08061455 0.02543717 -0.010759629
老人 -0.039190136 -0.02662887 0.007133387 0.018570501 0.014958306 -0.026966218 -0.01814244 -0.01062363 0.073357165 -0.055801682 0.00090431084 0.017758768 -0.024843452 0.028133368 0.047512203 0.029899176 0.016087186 -0.035032656 0.035039783 0.0027807732 -0.050205346 0.027401708 0.010900428 -0.041279297 -0.011843468 -0.003122341 -0.016163217 0.0402439 0.0125483265 -0.00991054
线索 -0.030449143 -0.015771389 0.008168878 0.02106266 -0.007762611 -0.017382732 -0.024321057 -0.012875997 0.062451214 -0.042098623 0.01637636 0.0029291532 -0.008329775 0.0066900686 0.035596784 0.007102523 0.011281961 -0.017365066 0.038797624 -0.013042904 -0.024105377 0.0425428 0.012307958 -0.025663028 -0.016420348 0.020699145 -0.002260763 0.03870131 0.012278772 0.0047908043
办法 -0.026015343 -0.06063448 -0.0032290788 0.048963662 0.00030743345 -0.060209505 -0.03979167 -0.004621207 0.12634467 -0.10080291 0.008008593 0.026755337 -0.04138766 0.05417755 0.07961863 0.012802439 0.041254956 -0.03640897 0.03564191 0.00041498727 -0.0661469 0.054460872 0.02738274 -0.060542252 0.015713649 -0.002027863 0.006147995 0.087794535 0.019591488 -0.013058082
特意 -0.034335293 -0.0422676 0.0004813333 0.062494855 0.024958324 -0.039414547 -0.045714222 -0.00869957 0.14483874 -0.092195325 0.037734352 0.029249001 -0.063805886 0.056864172 0.088464335 0.029881593 0.044528592 -0.024931394 0.039975967 0.0057370528 -0.07756022 0.0396653 0.02704185 -0.046294335 0.008883361 0.009088712 0.001582562 0.076277554 0.028975794 -0.0027861872
市局 -0.029579377 -0.053351205 -0.0072051175 0.05829493 0.0029849266 -0.040492732 -0.024026597 -0.013397585 0.13194987 -0.0803602 0.027282298 0.047439966 -0.062944785 0.03117426 0.09941103 0.02379253 0.03292032 -0.028132578 0.06814216 0.0060234056 -0.08031887 0.057351872 0.014043977 -0.069828205 -0.016395215 0.022388661 -0.007498915 0.10276839 0.036909945 -0.008129984
不许 -0.0199543 -0.0350661 0.0026436618 0.053051066 0.024621615 -0.042664517 -0.020461157 0.007974438 0.116406515 -0.07740902 0.024746498 0.03506998 -0.05193193 0.042320047 0.07640492 0.021438416 0.050430544 -0.03596847 0.02946253 -0.012899764 -0.043923512 0.04411279 0.011782214 -0.057044998 0.015510534 0.0018074282 -0.0035487837 0.05450503 0.0294017 -0.0044245794
负责 -0.04632926 -0.041368663 -0.011744838 0.055076197 0.0048884144 -0.06164374 -0.042255804 -0.011497623 0.10969483 -0.09399755 0.03468024 0.04063724 -0.055669986 0.035375565 0.09870637 0.030267313 0.033441104 -0.03670662 0.03654132 0.016406655 -0.057436343 0.043758154 0.009100684 -0.07119786 -0.0038321058 0.010577604 0.009515981 0.071583904 0.036058914 -0.022375416
资金 -0.059809115 -0.066578835 0.0016323329 0.064004436 0.008635039 -0.059737157 -0.03359514 -0.008393405 0.14167073 -0.09849812 0.029055709 0.022479864 -0.058676872 0.029293856 0.09387817 0.022078121 0.061942205 -0.050645135 0.04816974 -0.011550788 -0.065910585 0.044617128 0.026406957 -0.051340424 0.009940717 0.025583748 -0.0010456797 0.08102261 0.026339289 -0.021177853
谈话 -0.023011612 -0.053750362 -0.0011318447 0.04423347 -0.0021715076 -0.0401678 -0.017617883 -0.0061008623 0.102879 -0.073008165 0.03126748 0.02549563 -0.028895495 0.044297427 0.0673108 0.004708232 0.054861832 -0.023768416 0.02869469 0.010863706 -0.066626914 0.04195785 0.019299319 -0.037449747 -0.003598599 0.010696598 0.0037320042 0.07668166 0.020094149 0.0018885069
信访办 -0.015398595 -0.05487191 0.011385633 0.050707895 0.001217266 -0.030711338 -0.027569585 0.004516533 0.11145978 -0.087280154 0.0043755835 0.019509342 -0.03642951 0.04387233 0.069792174 0.020097177 0.033653542 -0.028978836 0.042815365 0.012725703 -0.0695258 0.053998105 0.012059958 -0.04110728 0.009934512 0.007549208 -0.008092811 0.062371958 0.014018224 -0.00903868
杏枝 -0.028414112 -0.029942378 -0.016099038 0.022778092 0.019226892 -0.045689374 -0.0072779567 0.005105233 0.068553105 -0.04841748 0.024756871 0.01615802 -0.045462914 0.029151628 0.056591395 0.011576677 0.027330443 -0.009334948 0.033263 -0.010319236 -0.05283847 0.046316113 0.018552622 -0.029703368 -0.0039154748 -0.0032286276 -0.00022214232 0.050664775 -0.0004256135 -0.010772445
坚信 -0.00873833 -0.012770815 0.009334181 0.018715998 0.010149728 -0.021196056 -0.02662224 -0.0025218967 0.07570653 -0.06160966 0.012921387 0.017730385 -0.028414747 0.020483535 0.058260594 0.00404662 0.030352915 -0.023988275 0.024412828 -0.0054179956 -0.025158964 0.035791278 0.0153634 -0.02232808 -0.010109017 0.0028834299 0.004938019 0.037166238 0.01654574 0.0014510663
陈群芳 -0.012192286 -0.039678425 -0.01899585 0.024897253 0.022948727 -0.028241955 -0.01492337 -0.008097334 0.071742944 -0.07100995 0.0005705278 0.015535865 -0.039206445 0.020710375 0.06359899 0.011647655 0.04163406 -0.03367201 0.022412864 0.002381711 -0.059899714 0.039951608 0.008203203 -0.042733435 0.008041184 0.0017756738 -0.009812381 0.05099448 0.026218371 -0.010516842
警告 -0.03439091 -0.032315146 0.0035831728 0.039591033 0.0021973122 -0.046704978 -0.009694333 0.0077286214 0.07464814 -0.078456394 0.024602357 0.031971492 -0.019751802 0.03205744 0.06309324 0.0038840831 0.03229863 -0.02573616 0.03341525 0.010693387 -0.05246788 0.025042761 0.017559573 -0.04900781 0.0028491693 -0.0010234178 0.013784066 0.055261776 0.026856288 -0.022784425
这件 -0.053744584 -0.063912496 0.0026278102 0.051658727 0.0025948582 -0.03300052 -0.016334755 -0.010416198 0.12197077 -0.09559451 0.02037283 0.028344046 -0.050270468 0.049633797 0.08228232 0.014908596 0.03338267 -0.049120285 0.040638696 0.009091685 -0.056741945 0.059356384 0.008792884 -0.059015084 -0.016410368 0.020863963 -0.016953517 0.06405954 0.006124271 -0.027578184
救 -0.027953258 -0.025582027 -0.014964939 0.02282831 -0.00636038 -0.012539891 -0.031050166 -0.010206108 0.06857338 -0.068927266 0.018381704 0.021579416 -0.019099722 0.009983325 0.035082597 0.00986076 0.04042755 -0.026610522 0.04572881 -0.0056430246 -0.047169723 0.047856454 -0.005076039 -0.02759586 -0.013948667 -0.0046625016 -0.01447495 0.061596178 0.013215148 -0.009025671
清白 -0.05077273 -0.051333226 0.0050382344 0.03805479 0.005052247 -0.055932764 -0.013166406 -0.020514105 0.11232598 -0.071421534 0.014175277 0.014982813 -0.026441589 0.028269446 0.075479716 0.03126527 0.028244797 -0.02129669 0.059001133 -0.006083565 -0.07279698 0.032153502 0.012587719 -0.04695668 0.005172203 0.021348186 0.012292226 0.06714244 0.017328577 0.00061436335
毛娅 -0.060256265 -0.06996318 -0.010287654 0.04600956 0.00720753 -0.06466766 -0.022151038 0.0048696822 0.13185649 -0.113712266 0.025597936 0.028957345 -0.044959363 0.037962787 0.1070132 0.020719958 0.063978106 -0.057736397 0.04428188 -0.009476507 -0.06008952 0.055999693 0.034408867 -0.076166585 0.004485798 0.009356899 0.009883026 0.08160533 0.007381578 -0.016560772
魏彩霞 -0.04062358 -0.0699843 -0.014638804 0.04413569 0.009464855 -0.055283595 -0.020822696 -0.016427709 0.1377843 -0.09174529 0.009263109 0.034985617 -0.050387062 0.027001582 0.081067696 0.01926799 0.052812546 -0.032502614 0.045461982 0.010288035 -0.07097579 0.04878099 0.014913362 -0.05993009 -0.0026529888 0.02031807 -0.007912703 0.09864819 0.03377211 -0.012894029
花斑虎 -0.03611991 -0.051489938 -0.008511867 0.038107574 0.012036776 -0.03051713 -0.030688401 -0.0011056404 0.122999944 -0.06813415 0.01891378 0.04107865 -0.048591226 0.022420263 0.061689217 0.026249262 0.042133503 -0.048687823 0.05708731 0.0016929159 -0.06341031 0.063615866 0.03013714 -0.033201776 -0.010931028 0.02441786 -0.011893932 0.07504318 0.033624966 -0.015102762
香港 -0.035455678 -0.022450864 -0.021369481 0.047890674 0.025975706 -0.037110794 -0.016108898 0.009245995 0.073288284 -0.052893914 0.02707419 0.029478153 -0.032970097 0.027853388 0.06721479 0.011762436 0.025646169 -0.018215299 0.021941286 0.009812049 -0.04451563 0.027727673 0.021230996 -0.036433663 -0.015690006 0.01113588 0.004992491 0.058913283 0.0106465 -0.02106707
懒政 -0.044493314 -0.06838865 -0.013850954 0.054920185 0.02261398 -0.032731768 -0.02337151 -0.0050701923 0.117273055 -0.104408935 0.037092708 0.03344974 -0.029823307 0.027221544 0.080169 0.031371877 0.033537 -0.031083949 0.053731564 -0.011442823 -0.05175169 0.03866521 0.030451853 -0.06558542 0.014391845 0.013141158 0.00841749 0.08286268 0.005859368 -0.006784894
有期徒刑 -0.017869413 -0.031787965 -0.0129585005 0.038271226 0.028444728 -0.052718308 -0.014098793 -0.010169407 0.083982535 -0.07907947 0.016004307 0.026698915 -0.023124093 0.01507466 0.06981571 0.030713705 0.043933693 -0.040920362 0.0256299 0.017409764 -0.0418275 0.055177726 0.009618605 -0.055223364 -0.006737322 -0.0027385042 -0.0047742166 0.066603005 0.0019316651 0.0027076837
市长 -0.019022085 -0.04233281 -0.0018673098 0.042057578 0.025762694 -0.052937932 -0.027344279 -0.0013108316 0.080012284 -0.08367961 0.033414517 0.009129266 -0.021287203 0.039611682 0.06666748 0.021848394 0.037196074 -0.024765424 0.052552477 -0.009225668 -0.0516901 0.03722729 0.0021921357 -0.05801955 0.011741588 0.007863506 -0.0038329328 0.075544894 0.01799914 -0.010547762
不让 -0.027637614 -0.030599918 0.009233952 0.05260617 0.012663168 -0.02918992 -0.026343005 -0.020196944 0.09171542 -0.08493887 0.0077115176 0.015779598 -0.050883517 0.0363676 0.08571635 0.014155203 0.036595065 -0.042603336 0.029232854 -0.012998598 -0.04993955 0.060579658 0.027074948 -0.051968314 0.014077237 -0.008174511 -0.008004274 0.07097976 0.01391612 -0.005115908
